{"params.weight": [[0.3406435251235962, 0.4633614122867584, 0.47279441356658936, 0.28972890973091125, 0.25038471817970276, 0.2735988199710846, 0.22038748860359192, 0.16768012940883636, 0.3609578609466553, 0.4248425364494324, 0.3787741959095001, 0.3302205204963684, 0.30800122022628784, 0.2983752191066742, 0.2107459306716919, 0.19027043879032135, 0.3760007917881012, 0.3966214954853058, 0.4740234315395355, 0.44874387979507446, 0.4279555678367615, 0.3572424650192261, 0.25006356835365295, 0.2256350964307785, 0.4407137632369995, 0.4579728841781616, 0.568974494934082, 0.5486356616020203, 0.4932628273963928, 0.4163929522037506, 0.3409136235713959, 0.2996452748775482, 0.555115818977356, 0.5875474810600281, 0.8148013949394226, 0.6627203226089478, 0.6245971918106079, 0.6132110953330994, 0.4152468740940094, 0.38773298263549805, 0.3795645236968994, 0.2119337022304535, 0.5373251438140869, 0.8035253286361694, 0.7481421232223511, 0.5682051181793213, 0.3566761016845703, 0.6217425465583801, 1.363579511642456, 1.4012445211410522, 1.4511992931365967, 1.4566130638122559, 1.430451512336731, 1.4587825536727905, 1.56303071975708, 1.5223687887191772, 1.456684947013855, 1.5810432434082031, 1.5823320150375366, 1.6438419818878174, 1.5297884941101074, 1.5257394313812256, 1.6578923463821411, 1.6585917472839355, 0.14573779702186584, 0.04166720062494278, 0.19020836055278778, 1.5215964317321777, 1.534043312072754, 1.503965139389038, 1.5142282247543335, 1.6018822193145752, 1.6586028337478638, 1.6576250791549683, 1.5891919136047363, 1.5979421138763428, 1.6797614097595215, 1.6609745025634766, 1.6616227626800537, 1.578588843345642, 1.6050925254821777, 1.6759660243988037, 1.7545560598373413, 0.05953609570860863, 0.008503126911818981, 0.09188265353441238, 1.9223021268844604, 1.9359345436096191, 1.9608267545700073, 1.9845925569534302, 1.829237699508667, 1.9062615633010864, 1.943509578704834, 1.9137866497039795, 1.8942663669586182, 1.9709587097167969, 1.9275046586990356, 1.9217318296432495, 1.8698331117630005, 1.8752174377441406, 1.9024040699005127, 1.9055789709091187, 0.16276350617408752, 0.050965018570423126, 0.2924404442310333, 4.083259582519531, 4.132849216461182, 4.141251087188721, 4.172185897827148, 4.185132026672363, 4.198449611663818, 4.234544277191162, 4.205685138702393, 4.2319231033325195, 4.225316524505615, 4.213528633117676, 4.199344635009766, 4.1925048828125, 4.199752330780029, 4.1914753913879395, 4.193416595458984, 0.006052575074136257, 0.016042882576584816, 0.1230774000287056, 0.11956945806741714, 0.11703789979219437, 0.018482448533177376, -0.13673236966133118, -0.018463462591171265, -0.12144095450639725, 0.15789318084716797, 0.21580949425697327, 0.2001705765724182, 0.0988561362028122, -0.018299125134944916, -0.21555635333061218, -0.18238086998462677, -0.038143277168273926, 0.11833547055721283, 0.21509119868278503, -0.09945740550756454, -0.06046878546476364, -0.3481886088848114, -0.39224106073379517, -0.3643134832382202, -0.3418996334075928, -0.16373588144779205, -0.20579099655151367, -0.3205597400665283, -0.25130459666252136, -0.46181803941726685, -0.5327073335647583, -0.6304631233215332, -0.4295273721218109, -0.40347155928611755, -0.5636837482452393, -0.23889993131160736, -0.13576476275920868, -0.20545537769794464, -0.44266629219055176, -0.5566137433052063, -0.38949906826019287, -0.3533346354961395, -0.4519456923007965, -0.15977273881435394, 0.02588113211095333, -0.21362489461898804, -0.24977125227451324, -0.08118697255849838, 0.11820138990879059, 0.039245665073394775, -0.06154828518629074, -0.16715078055858612, 0.019829263910651207, -0.06047136336565018, 0.2105492502450943, -0.0045063369907438755, -0.13471989333629608, -0.0611368753015995, 0.06609917432069778, 0.28657296299934387, 0.23693297803401947, 0.41847312450408936, -0.14370791614055634, 0.1525118499994278, 0.06527935713529587, 0.25066375732421875, 0.7959672212600708, 0.020106494426727295, 0.12523996829986572, 0.060677651315927505, 0.04184543713927269, -0.018914829939603806, -0.013854366727173328, 0.022798456251621246, 0.04801905155181885, 0.03623040392994881, 0.006950852926820517, -0.052648916840553284, -0.06762059777975082, -0.078065425157547, -0.07366589456796646, -0.03552712872624397, 0.05431818962097168, -0.02421490103006363, 0.03848474845290184, -0.04661712050437927, -0.10513187199831009, -0.05733029916882515, -0.048338666558265686, 0.07025010138750076, 0.11533961445093155, -0.025590119883418083, 0.04854166507720947, 0.05560968816280365, 0.04821920767426491, 0.06800387054681778, 0.11535492539405823, 0.17635272443294525, 0.13803185522556305, -0.09129898995161057, -0.12303968518972397, 0.0420171320438385, 0.08031953126192093, 0.11820120364427567, 0.1411520391702652, 0.22976383566856384, 0.20599864423274994, 0.14432893693447113, 0.2410748153924942, 0.259861022233963, 0.16436171531677246, 0.2114943116903305, 0.3340221047401428, 0.49405592679977417, 0.14691808819770813, 0.15071310102939606, -0.0376177579164505, 0.06451834738254547, -0.06078147143125534, -0.08724839240312576, -0.0904589369893074, -0.06882789731025696, 0.04389685392379761, -0.04022269323468208, 0.06351529806852341, -0.060404665768146515, 0.050862476229667664, 0.055123332887887955, 0.20940782129764557, 0.09874704480171204, 0.008630026131868362, 0.06847646832466125, 0.08761052787303925, 0.14501801133155823, -0.26954635977745056, -0.07095088809728622, 0.5459701418876648, 0.5934222936630249, 0.6645784378051758, 0.7502206563949585, 0.6939266324043274, 0.6807695031166077, 0.6508365273475647, 0.6560119390487671, 0.5260375142097473, 0.5369450449943542, 0.6229504346847534, 0.6531031727790833, 0.6635366082191467, 0.604690432548523, 0.5876001715660095, 0.5815256237983704, 0.5495514869689941, 0.5872581005096436, 0.5775993466377258, 0.5812197327613831, 0.5828433036804199, 0.6079951524734497, 0.6274533271789551, 0.6036842465400696, 0.6242145299911499, 0.6443234086036682, 0.6171091198921204, 0.5919570326805115, 0.6145237684249878, 0.6605309247970581, 0.6771993041038513, 0.6868047714233398, 0.7363441586494446, 0.8538522124290466, 0.7052801847457886, 0.7830812931060791, 0.8063762187957764, 0.760114848613739, 0.8289971947669983, 0.7625390887260437, 1.1134576797485352, 1.0961143970489502, 1.3161656856536865, 1.3631664514541626, 1.4030160903930664, 1.4115768671035767, 1.410937786102295, 1.4347074031829834, 1.4234330654144287, 1.6852678060531616, 1.8507483005523682, 1.886817216873169, 1.81085205078125, 1.911300539970398, 1.9574936628341675, 2.0048024654388428, 1.860437273979187, 1.996092677116394, 2.0658347606658936, 2.1113080978393555, 1.9334958791732788, 2.077442169189453, 2.134011745452881, 2.1662676334381104, 0.022960443049669266, -0.012665396556258202, 0.009690354578197002, 2.0048890113830566, 2.107225179672241, 2.047921895980835, 2.0877716541290283, 2.0371713638305664, 2.121870994567871, 2.132152557373047, 2.162266492843628, 2.1405489444732666, 2.167593479156494, 2.2395052909851074, 2.246504306793213, 2.1056864261627197, 2.22537899017334, 2.245725631713867, 2.266775131225586, 0.03527417033910751, 0.004801423288881779, 0.029660440981388092, 3.610215187072754, 3.6283679008483887, 3.6444334983825684, 3.6199169158935547, 3.626295804977417, 3.62052845954895, 3.6253533363342285, 3.620249032974243, 3.594454050064087, 3.5949418544769287, 3.6195225715637207, 3.6125681400299072, 3.6218509674072266, 3.6418845653533936, 3.641488790512085, 3.6272780895233154, 0.12348416447639465, -0.055620770901441574, 0.04541026055812836, 6.971118450164795, 6.948640823364258, 6.970186710357666, 6.960241794586182, 6.938403129577637, 6.968663692474365, 7.001989841461182, 7.072709083557129, 6.974841117858887, 7.115170001983643, 7.2243828773498535, 7.204126834869385, 7.044418811798096, 7.177443981170654, 7.257086277008057, 7.332164764404297, 0.25447532534599304, -0.006596789229661226, 0.3229454457759857, -0.24295827746391296, -0.135817289352417, -0.05976235494017601, -0.0690384954214096, -0.1573619246482849, -0.06868669390678406, -0.1389896720647812, -0.31254124641418457, -0.2491064816713333, -0.13440370559692383, -0.05430488660931587, 0.03557448461651802, 0.021785780787467957, -0.054808322340250015, -0.14408455789089203, -0.2596268355846405, -0.15201422572135925, -0.028677742928266525, 0.09413452446460724, 0.15509505569934845, 0.14981354773044586, 0.0702899843454361, -0.025709863752126694, -0.10826978087425232, -0.05271422490477562, 0.05892542749643326, 0.1811569482088089, 0.2464737445116043, 0.2562590539455414, 0.15327653288841248, 0.04824230447411537, -0.020791593939065933, -0.027201902121305466, 0.14561991393566132, 0.21820925176143646, 0.2772596776485443, 0.2971712350845337, 0.22698698937892914, 0.18007905781269073, 0.0171695277094841, 0.0027813659980893135, 0.19408191740512848, 0.23712095618247986, 0.29730644822120667, 0.24546419084072113, 0.2274080514907837, 0.22496528923511505, -0.01766001619398594, -0.10390250384807587, 0.18910956382751465, 0.16174517571926117, 0.08822838217020035, 0.15671153366565704, 0.1860445886850357, 0.14662010967731476, -0.17162135243415833, -0.6622993350028992, -0.19297856092453003, -0.2236129492521286, -0.03236667811870575, -0.09556376934051514, -0.1563987284898758, -0.14242301881313324, -0.8073856830596924, 0.03902018070220947, 0.017674077302217484, -0.02469981089234352, -0.06525646150112152, -0.023782359436154366, -0.007179385516792536, 0.06370575726032257, 0.016290290281176567, 0.05019984394311905, 0.13155542314052582, 0.056432705372571945, 0.023137463256716728, -0.018307315185666084, 0.03347126394510269, 0.11023395508527756, 0.05468481406569481, 0.2497531622648239, 0.2670467495918274, 0.19495375454425812, 0.14446236193180084, 0.08588976413011551, 0.09220940619707108, 0.15702006220817566, 0.18377481400966644, 0.4189712703227997, 0.4181651473045349, 0.30645817518234253, 0.20611482858657837, 0.1709243506193161, 0.17492926120758057, 0.25782570242881775, 0.33107176423072815, 0.6789826154708862, 0.6213629245758057, 0.5325474143028259, 0.28665298223495483, 0.23629465699195862, 0.367257297039032, 0.4545559883117676, 0.5686387419700623, 0.6696782112121582, 0.7165892124176025, 0.37010884284973145, 0.024031754583120346, -0.00618420634418726, 0.04670361801981926, 0.14441874623298645, 0.18452134728431702, 0.3015804886817932, -0.14250294864177704, -0.12970753014087677, -0.12658129632472992, -0.09154320508241653, -0.06998562812805176, -0.14007771015167236, -0.12503907084465027, -0.2042405903339386, 0.07422550022602081, -0.05696053430438042, 0.046772897243499756, 0.05143309012055397, 0.0761159285902977, 0.1033443883061409, -0.07902965694665909, -0.18521873652935028, -0.16523228585720062, -0.15010997653007507, -0.02056872472167015, 0.12196069210767746]]}