int FT_WEIGHTS[25][SQUARE_SPAN][16];
int FT_BIAS[16] = {-69, -21, 52, 253, 11, 86, 149, 156, -74, -86, -36, -102, -166, -48, 0, 26};
int OUT_WEIGHTS[32] = {-6, -16, -52, -17, 17, 15, -26, 21, -23, -32, -18, 40, 7, 8, -21, 19, 6, 16, 50, 17, -16, -15, 22, -22, 27, 39, 18, -33, -7, -8, 25, -19};
int OUT_BIAS = 1567;
int ft_raw[] = {
    1, 4, 3, -3, 3, 0, 4, -4, 1, -4, 4, 4, 1, 4, 3, -3, -4, 4, 0, -2, 4, 3, 3, 1, -3, 2, -1, -3, 4, 4, -3, 1, 3, -1, -4, 1, -2, 1, 4, -3, 1, 1, 0, 0, 1, -4, 1, 3, -3, -3, 4, 0, 2, 2, -4, 0, 5, 2, 0, -4, -1, 0, -2, 2, 2, -3, 1, 3, -4, 0, 2, -2, 2, -4, 0, 2, -4, -5, 0, 3, -3, -4, -1, 4, -4, 3, 0, -2, -4, 3, -3, 2, 4, -1, -1, 0, -1, 3, 4, -4, 0, 2, 1, -3, 4, 1, 0, 2, -1, 3, -1, 1, 2, 1, 0, 2, 0, 4, -2, -1, -3, 4, 3, -3, -4, 4, -3, -1, -154, -31, -9, -56, 23, 18, 21, 18, -44, -251, 4, 21, -2, 24, -48, 10, 94, -24, -16, -18, 31, 20, -28, -2, -145, -149, 30, 16, -106, 31, -4, 17, -62, -17, -1, -31, 31, 14, -1, -1, -244, -14, 1, 13, 29, 2, -5, 18, -45, -40, -26, -25, 37, 37, 2, 4, -129, 7, -23, 10, 74, 76, -52, 12, 4, -36, 3, -11, 52, 55, 8, 18, -3, 12, -12, 11, 66, -29, -199, 22, -106, -32, -32, -13, 36, 73, -35, 17, 16, 4, -18, 24, 1, 46, -214, 4, 40, 4, -11, 27, 34, 61, -43, 7, 12, -6, -7, 28, -63, -16, -151, 26, -143, 14, -15, -33, 24, 43, -11, -8, -13, -2, -43, 25, 7, 2, -28, 15, -125, -19, -11, -54, 16, 21, 15, 12, -33, -183, 7, 18, -20, 27, -42, 9, 97, -12, -17, -24, 35, 31, -24, -6, -102, -78, 47, 11, -45, 21, -4, 22, -29, 5, -5, -61, 41, 21, 6, -21, -231, 4, 9, 10, 28, 32, -20, -15, 26, -20, -24, -49, 45, 40, -18, -22, -92, 13, -6, 13, 70, 32, -41, 11, 57, -27, -1, -30, 48, 63, 9, 16, 4, 7, -9, 7, 55, 8, -192, 1, -122, -29, -30, -49, 49, 86, -12, 0, 3, 6, -21, 19, 27, 14, -194, 38, 61, 13, -16, 1, 31, 80, -31, 8, 7, -5, -4, 30, -29, -2, -116, 0, -137, 23, -17, -34, 23, 45, -7, -8, -17, -1, -36, 35, -9, -8, -5, 18, -131, -23, -15, -64, 13, 35, 17, 13, -12, -90, 11, 12, 0, 22, -80, 4, 95, -10, -13, -41, 23, 45, -17, -5, -23, -23, 39, 4, 10, 22, -66, 14, -81, 1, -13, -82, 32, 41, 1, -27, -72, 3, 16, 3, 63, 46, -63, 18, 138, 1, -14, -61, 46, 24, -39, -35, -14, -4, -6, 0, 85, 32, -72, -25, 134, -8, -14, -83, 51, 54, -16, -30, -14, 4, 4, 7, 60, 23, -67, 23, -88, -26, -17, -67, 45, 69, -28, 1, -32, -2, -20, 27, 60, 9, -78, -10, 75, 6, -22, -43, 31, 63, -10, -3, -25, -5, -7, 74, -5, -9, -65, 22, -131, 21, -13, -43, 17, 38, -6, 3, -45, -4, -42, 111, -3, 0, -4, 23, -121, -17, -16, -53, -4, 42, 10, 21, -8, -41, 13, 5, 22, 23, -110, 11, 69, 1, -13, -39, -2, 50, -30, -4, -5, -7, 64, 9, 111, 7, -106, 25, -92, -3, -19, -76, 0, 55, -12, 3, -33, -2, 23, 4, 122, 42, -107, -12, 136, 20, -4, -46, 9, 26, -47, -48, -30, -7, 4, -10, 162, -22, -133, 27, 134, -24, -31, -87, 29, 13, -37, -7, -43, -2, -9, -6, 125, 58, -95, -36, -55, -10, -3, -69, -3, 12, -61, -25, -88, -11, -22, 43, 95, -15, -50, 22, 87, 41, -30, -56, 18, 32, -34, 12, -64, -12, -9, 129, 63, 20, -57, 1, -95, 27, -15, -41, -9, 38, -7, 0, -89, -11, -24, 188, 11, -11, -18, 16, -160, -11, -19, -39, -32, 58, 16, 44, -20, -48, 34, 9, 34, 34, -132, -6, -19, -5, -14, -40, -74, 45, -32, 30, -19, -24, 84, 14, 233, -25, -124, -1, -189, -35, -28, -60, -64, 38, -25, 43, -89, -15, 69, 2, 199, 77, -202, 21, 113, -6, -7, -9, -45, -9, -67, 13, -96, -24, 0, -10, 208, 7, -236, -27, 124, -39, -34, -47, -50, -22, -64, 22, -128, -25, -21, 5, 228, 66, -227, 29, -44, -27, -2, -78, -114, -10, -67, 7, -153, -28, -76, 73, 163, -16, -225, -27, 66, 31, -30, -47, -68, 25, -30, 24, -112, -29, -16, 201, 123, 50, -118, 13, -67, 48, -14, -29, -57, 31, -34, 14, -120, -26, -19, 251, 45, -18, -57, 28, -251, -92, -251, 20, -15, 45, -63, 68, -62, -88, 96, 24, 15, 33, -145, -54, -139, -142, -7, -25, -96, -27, -82, 37, -76, -56, 94, 22, 211, -22, -152, 43, -251, -191, -251, 3, -4, -54, -80, 94, -212, -44, 105, 7, 201, 55, -219, -55, -78, -146, 1, 1, -72, -67, -93, 124, -180, -41, -1, -2, 241, 3, -251, 22, 15, -214, -250, 18, -63, -29, -59, 81, -202, -35, -182, 35, 246, 133, -251, -34, -149, -39, 6, -99, -134, 26, -66, 42, -175, -48, -251, 105, 129, 35, -251, 44, -46, 95, -251, -32, -129, 31, -50, 22, -113, -47, -199, 231, 68, 55, -208, -52, -196, 40, -6, -78, -102, 52, -84, 35, -104, -43, -232, 251, -13, -2, -152, 42, 2, 0, 0, 2, 4, 0, -1, 1, 0, -3, 1, 4, -3, 0, -1, -1, 3, -4, 3, 3, 2, -4, -2, 3, 0, -4, 3, 1, 0, 4, 2, -3, -3, -1, -4, 3, 4, 2, 2, -1, 3, -4, 4, -1, -2, 5, 1, -2, 1, -4, 3, -3, 1, 2, 1, 4, -2, 2, 2, -4, 2, -3, -2, 1, -1, -2, -4, -2, -1, 3, -2, 4, -2, -4, 4, -3, -4, -2, 3, 3, 4, -2, -1, 0, -2, 3, -2, 1, 2, 3, -4, -5, 0, -4, 0, -1, 4, -1, -2, 3, -3, -3, 4, 3, 1, -4, 0, -4, 2, -4, 1, 1, -4, 2, 1, 2, -3, 3, 0, -1, 4, 4, -1, 1, -3, 2, -4, 1, -26, -41, -53, -58, 108, 146, -61, -29, -234, -150, -64, -1, -58, 64, -67, 14, -124, -63, -55, -60, 116, 144, -54, -17, -200, -111, -72, 21, 18, 16, -79, 38, -71, -50, -59, -21, 94, 140, -67, -20, -164, -65, -56, 17, 13, 75, -51, 36, -87, -47, -61, -30, 135, 129, -79, 6, -190, -31, -52, 13, 53, 12, -95, 43, -78, -43, -57, -27, 106, 126, -83, -26, -111, -31, -53, 19, 42, 84, -171, 24, -118, -58, -59, -4, 141, 110, -80, 11, -44, -25, -57, 19, 2, 30, -158, 36, -129, -48, -59, -56, 119, 106, -66, -23, -36, -22, -66, 18, 20, 90, -223, 22, -31, -47, -61, -57, 152, 95, -87, -37, -24, -25, -48, 20, -47, 25, -238, 33, -94, -56, -61, -40, 104, 150, -32, -5, -139, -112, -82, 22, 23, 50, -73, 36, -70, -57, -62, -20, 96, 144, -68, -15, -165, -72, -65, 21, 80, 0, -54, 32, -52, -47, -55, -25, 103, 134, -78, 2, -132, -70, -61, 15, 28, 90, -69, 42, -116, -55, -59, -19, 103, 130, -85, 7, -142, -45, -60, 19, 78, -1, -104, 36, -114, -53, -58, -18, 111, 106, -88, 15, -87, -37, -59, 25, 57, 111, -157, 47, -91, -55, -64, -19, 120, 111, -106, 7, -75, -26, -48, 32, 29, 13, -109, 30, -95, -70, -61, -10, 112, 114, -74, 0, -48, -28, -59, 32, 30, 107, -141, 45, -120, -74, -58, -22, 104, 91, -84, -22, -25, -17, -51, 43, 0, 35, -143, 18, -96, -54, -53, -34, 107, 142, -64, 5, -109, -115, -68, 3, 38, 11, -55, 29, -27, -47, -61, -17, 80, 143, -86, -12, -134, -70, -60, 4, 77, 48, -36, 45, -69, -50, -59, -21, 110, 125, -92, 40, -166, -54, -59, 10, 53, 40, -29, 46, -117, -58, -63, -24, 64, 109, -101, -19, -111, -43, -60, 22, 96, 63, -51, 37, -110, -60, -58, -9, 144, 107, -82, 57, -70, -39, -61, 30, 83, 62, -93, 47, -65, -49, -60, -26, 69, 101, -109, -8, -54, -32, -52, 31, 63, 71, -127, 39, -51, -60, -61, -11, 152, 73, -99, 39, -19, -28, -57, 34, 42, 59, -115, 32, -127, -57, -64, -39, 82, 81, -98, -24, -36, -15, -56, 34, 10, 96, -92, 36, -101, -54, -61, -35, 82, 145, -66, 10, -98, -70, -65, 7, 131, 2, -2, 53, -92, -63, -63, -1, 55, 133, -48, 18, -99, -55, -80, 5, 87, 97, -7, 37, -115, -52, -60, -14, 75, 112, -84, 31, -114, -47, -61, 13, 157, 7, -3, 30, -126, -61, -62, -16, 62, 98, -92, 22, -74, -44, -67, 22, 96, 127, -20, 49, -124, -62, -61, -11, 94, 76, -99, 44, -64, -31, -61, 33, 114, -1, -22, 42, -145, -64, -60, -13, 64, 71, -111, 40, -24, -31, -73, 32, 91, 125, -56, 52, -120, -77, -66, 2, 93, 46, -78, 36, -12, -25, -58, 44, 69, 12, -52, 58, -123, -49, -60, -22, 81, 48, -101, -1, -14, -23, -67, 37, 90, 118, -79, 14, -91, -40, -64, -20, 55, 154, -69, -5, -82, -56, -80, -4, 175, -24, 15, 23, -55, -48, -58, -9, 61, 128, -72, 49, -57, -51, -74, -2, 84, 75, 24, 45, -131, -53, -64, -11, 41, 100, -85, 6, -77, -40, -89, 10, 150, 4, 21, 46, -96, -62, -62, 12, 78, 72, -102, 65, -64, -35, -71, 27, 123, 113, 6, 38, -116, -56, -66, -5, 19, 64, -120, 17, -37, -31, -71, 30, 118, 7, -12, 46, -161, -79, -65, 1, 98, 42, -98, 63, -17, -28, -58, 39, 141, 138, -25, 33, -86, -74, -66, -8, 18, 54, -114, 30, -13, -31, -70, 27, 66, 18, -25, 36, -67, -51, -69, -14, 120, 18, -101, 25, -8, -24, -44, 33, 117, 128, -82, 49, -98, -29, -72, -56, 24, 139, -65, -12, -38, -60, -76, -13, 150, -16, 17, 42, 2, -29, -61, -29, 61, 102, -100, 33, -66, -44, -72, -4, 133, 20, 12, 30, -80, -54, -69, -1, 23, 93, -89, -3, -55, -33, -95, 8, 141, 39, 25, 23, -30, -29, -61, 21, 57, 58, -119, 40, -49, -30, -92, 16, 143, 70, 19, 46, -68, -63, -69, 20, 17, 43, -123, 14, -21, -26, -68, 28, 125, 51, 0, 20, -102, -120, -63, 7, 55, 53, -128, 41, -13, -25, -56, 46, 112, 55, -10, 47, -62, -41, -74, 5, -11, 72, -116, 3, -2, -26, -38, 34, 121, 62, -26, 22, -118, -48, -66, -32, 86, 18, -88, 49, 3, -22, -41, 27, 123, 93, -69, 21, -110, -31, -65, -56, 50, 137, -52, 19, -19, -43, -56, -15, 133, 42, 55, -2, -112, -47, -72, -46, 32, 86, -59, -1, -52, -41, -61, -3, 170, 7, 6, 43, -60, -64, -62, -26, 27, 46, -69, 33, -32, -33, -65, -1, 119, 65, 21, 23, -66, -70, -72, 7, 18, 49, -66, 13, -42, -27, -73, 26, 146, 33, 10, 55, -87, -69, -65, 5, 24, 36, -87, 65, -16, -25, -93, 39, 134, 116, 13, 20, -31, 48, -83, -8, 6, 50, -120, 6, -7, -23, -52, 32, 127, 33, -41, 35, -128, -49, -71, -51, 58, 49, -51, 40, 8, -20, -113, 33, 140, 95, -49, 1, -5, -76, -73, -33, -6, 17, -91, -17, 22, -22, -46, 36, 64, 47, -115, 54, -75, -70, -61, -68, -78, -50, -120, 13, -42, -35, -64, -37, 154, -13, -9, 24, -160, -32, -100, -23, 0, 27, 33, 41, -35, -9, -92, -34, 224, 11, 11, 13, -177, -71, -91, -6, -6, 17, 53, 81, -36, -23, -102, 5, 248, 53, 3, 52, -114, -85, -97, 22, -31, 43, 6, 41, -26, -17, -98, 25, 218, 17, -53, 13, -45, -50, -84, 20, 10, 28, -37, 51, -5, -20, -82, 25, 173, 88, -76, 39, -142, -68, -97, -39, -251, 28, 28, 63, -12, -21, -165, 59, 198, -26, -124, 13, -112, -45, -84, -29, -17, 52, 44, 69, 4, -34, -136, 59, 125, 106, -196, 23, -29, -19, -64, -62, -124, -27, -104, 5, -5, -32, -76, 107, -16, 21, -99, -43, 127, -71, -69, -58, 83, 85, -136, 18, -128, -175, -61, 39, 98, 10, -101, 85, 7, -77, -61, -44, 94, 76, -100, 19, -197, -114, -56, 49, 1, 71, -133, 3, -82, -85, -69, -101, 83, 85, -111, 1, -112, -71, -81, 47, 18, 25, -121, 48, -17, -55, -56, -73, 97, 106, -97, 11, -125, -47, -53, 36, 39, 61, -201, 12, -28, -74, -77, -79, 99, 120, -106, 9, -93, -37, -82, 32, 48, 27, -179, 56, -46, -66, -57, -57, 88, 127, -90, 19, -58, -34, -63, 29, 13, 46, -196, 15, 41, -71, -76, -76, 82, 121, -101, 3, -68, -44, -80, 19, 51, 24, -214, 59, 117, -56, -53, -73, 68, 122, -128, 18, -50, -29, -49, 14, 89, 67, -203, -12, 61, -53, -59, -56, 73, 77, -124, 40, -148, -157, -45, 24, 35, 59, -99, -6, 81, -68, -74, -52, 68, 76, -143, 30, -147, -112, -68, 40, 17, 25, -54, 92, 19, -64, -60, -41, 82, 76, -125, 32, -166, -58, -39, 45, 39, 57, -78, 14, -45, -67, -68, -73, 79, 84, -121, 16, -130, -42, -76, 42, 70, 44, -129, 64, -49, -51, -59, -52, 87, 130, -111, 37, -54, -40, -51, 36, 45, 50, -183, 19, 42, -69, -68, -55, 72, 136, -129, 30, -44, -42, -76, 33, 43, 37, -165, 65, 60, -47, -59, -45, 77, 122, -127, 40, -53, -34, -67, 28, 24, 55, -164, 11, 75, -67, -74, -82, 73, 102, -134, -6, -59, -36, -80, 31, 65, 9, -137, 71, -2, -67, -69, -66, 51, 94, -119, 34, -60, -141, -71, 25, 36, 32, -53, 84, 41, -54, -61, -41, 67, 90, -122, 61, -156, -82, -29, 33, 41, 57, -69, 8, 51, -77, -71, -57, 75, 74, -133, 42, -169, -63, -57, 46, 83, 32, -34, 84, -40, -63, -60, -56, 78, 88, -119, 34, -126, -45, -48, 50, 60, 66, -87, 14, -27, -76, -67, -62, 84, 110, -118, 46, -71, -44, -73, 37, 72, 28, -150, 70, 23, -46, -59, -49, 66, 125, -119, 49, -50, -34, -62, 38, 74, 65, -232, 22, 34, -64, -69, -59, 63, 116, -134, 30, -37, -42, -90, 37, 52, 30, -175, 73, 9, -66, -58, -61, 68, 92, -113, 43, -55, -30, -81, 32, 26, 52, -76, 4, 0, -35, -56, -66, 52, 112, -112, 41, -103, -78, -36, 16, 79, 43, -120, 1, -16, -76, -73, -68, 52, 86, -100, 38, -136, -70, -62, 29, 70, 36, -53, 76, -21, -62, -52, -43, 59, 80, -115, 56, -137, -57, -51, 35, 82, 64, -67, 7, -29, -90, -81, -56, 65, 78, -128, 34, -106, -60, -65, 47, 81, 62, -72, 85, -24, -59, -45, -31, 70, 89, -114, 61, -91, -40, -65, 50, 63, 46, -147, 12, -51, -75, -73, -69, 58, 107, -133, 42, -60, -38, -97, 51, 87, 31, -133, 75, -50, -51, -56, -45, 60, 93, -93, 54, -47, -31, -84, 38, 50, 55, -177, 9, 17, -59, -75, -84, 73, 57, -127, 19, -56, -41, -83, 36, 79, 39, -93, 77, -15, -67, -75, -77, 44, 102, -111, 30, -97, -56, -81, 23, 108, 7, -115, 68, -11, -49, -54, -46, 51, 121, -93, 51, -96, -43, -52, 19, 68, 55, -84, 12, -50, -69, -73, -59, 34, 101, -114, 32, -76, -63, -69, 34, 116, 29, -90, 69, -6, -65, -57, -16, 44, 83, -114, 64, -105, -57, -52, 36, 82, 86, -115, 12, -43, -76, -77, -37, 39, 67, -121, 37, -102, -56, -77, 56, 106, 13, -98, 82, -74, -67, -59, -37, 52, 72, -114, 62, -85, -48, -68, 63, 92, 82, -122, 13, -35, -72, -74, -66, 54, 69, -119, 35, -59, -40, -91, 49, 59, 45, -90, 80, -32, -40, -60, -68, 53, 56, -109, 41, -66, -39, -69, 22, 92, 80, -135, 2, -37, -52, -56, -47, 33, 139, -69, 43, -71, -43, -90, 20, 117, 34, -112, 7, 52, -62, -76, -53, 38, 125, -111, 24, -59, -47, -96, 28, 96, 24, -119, 57, -13, -37, -60, -48, 28, 117, -102, 39, -93, -45, -73, 19, 103, 49, -140, 10, -26, -58, -73, -51, 21, 93, -137, 23, -86, -57, -73, 28, 122, 41, -97, 68, -37, -46, -65, -39, 29, 64, -121, 45, -107, -60, -58, 44, 94, 62, -117, 12, -6, -68, -84, -25, 35, 43, -119, 31, -119, -63, -59, 57, 124, 41, -101, 73, 17, -83, -65, -41, 37, 75, -124, 42, -103, -48, -37, 56, 65, 62, -128, 14, -2, -92, -78, -64, 52, 31, -107, 26, -89, -38, -69, 28, 107, 52, -108, 81, -13, -58, -72, -105, 56, 118, -114, 9, -59, -57, -61, 6, 90, 18, -160, 72, 20, -37, -51, -65, 38, 121, -107, 33, -77, -37, -75, 16, 55, 62, -139, 0, -49, -78, -77, -83, 47, 98, -103, 22, -61, -45, -98, 27, 137, 5, -113, 68, -62, -43, -55, -58, 33, 64, -81, 45, -77, -50, -78, 27, 100, 92, -114, 17, -46, -82, -87, -73, 26, 48, -88, 34, -104, -61, -85, 48, 120, 15, -114, 68, -27, -80, -52, -65, 25, 74, -102, 42, -121, -70, -48, 51, 129, 101, -105, 9, 62, -85, -87, -79, 32, 49, -98, 15, -127, -82, -79, 76, 53, 16, -108, 51, -20, -80, -50, -85, 74, 63, -120, 33, -121, -53, -50, 56, 26, 65, -147, -14, -29, -39, -61, -55, 1, 105, -98, 117, -77, -57, -82, -9, 16, 38, -225, -4, -95, -71, -78, -60, 34, 74, -34, 91, -61, -41, -101, 19, 154, -26, -138, 78, -94, -60, -81, -42, 51, 56, -6, 112, -59, -40, -99, 32, 97, 80, -122, 16, -114, -71, -93, -71, 29, 64, -17, 41, -77, -46, -88, 28, 118, 12, -117, 61, -66, -57, -70, -73, 20, 67, -30, 68, -110, -55, -73, 37, 73, 52, -122, 9, -88, -64, -95, -87, -56, 40, 5, 62, -120, -77, -107, 54, 134, 36, -109, 63, 8, -88, -71, -69, 19, 75, -29, 90, -136, -68, -63, 54, 80, 85, -106, 21, 52, -104, -68, -91, 29, -4, -150, 49, -129, -88, -90, 59, -13, -29, -138, 83, -168, -134, -113, -207, 117, 171, -56, 51, -37, -181, -100, 45, 129, 79, -49, 74, -45, -116, -112, -172, 103, 177, -64, 71, -50, -143, -95, 45, 161, 85, -12, 71, -91, -115, -108, -191, 94, 176, -70, 75, -60, -99, -94, 45, 123, 81, 4, 83, -35, -123, -108, -178, 108, 144, -96, 87, -61, -95, -102, 51, 98, 72, 18, 72, -14, -110, -107, -191, 91, 117, -110, 62, -29, -100, -105, 65, 96, 89, 11, 78, -117, -133, -113, -197, 121, 94, -105, 63, -33, -106, -114, 71, 93, 83, 7, 64, -39, -132, -109, -192, 104, 57, -112, 64, -31, -118, -105, 69, 121, 99, -20, 71, -122, -120, -105, -228, 131, 91, -104, 64, -63, -97, -128, 84, 82, 94, 14, 59, -172, -128, -111, -220, 118, 206, -21, 46, -24, -166, -84, 46, 175, 78, -33, 74, -44, -105, -109, -191, 101, 191, -53, 65, -31, -124, -81, 32, 147, 89, -16, 78, -84, -111, -108, -193, 101, 178, -58, 74, -44, -95, -87, 46, 141, 79, 24, 73, -20, -123, -104, -174, 120, 172, -66, 87, -33, -96, -92, 50, 111, 88, 27, 93, -7, -126, -107, -188, 94, 126, -81, 61, -21, -93, -99, 66, 110, 89, 31, 69, -95, -125, -105, -208, 137, 91, -89, 68, -35, -95, -106, 73, 107, 90, 43, 86, -57, -129, -113, -201, 113, 61, -98, 58, -47, -98, -90, 74, 110, 97, 34, 69, -150, -115, -104, -227, 130, 75, -85, 56, -67, -99, -118, 80, 104, 100, 45, 63, -150, -115, -107, -214, 105, 187, -49, 58, -30, -157, -79, 35, 157, 73, -13, 81, -62, -104, -107, -185, 91, 173, -61, 71, -55, -121, -85, 34, 153, 95, -9, 73, -99, -114, -108, -187, 92, 159, -50, 73, -62, -105, -93, 41, 147, 81, 22, 89, -29, -125, -109, -174, 108, 151, -55, 92, -55, -95, -100, 52, 136, 77, 19, 75, -4, -133, -108, -185, 92, 112, -72, 74, -38, -97, -112, 61, 120, 98, 7, 98, -87, -129, -109, -193, 127, 78, -74, 78, -36, -95, -112, 71, 109, 91, 30, 80, -41, -115, -106, -187, 123, 52, -108, 62, -36, -98, -99, 70, 121, 100, 3, 84, -118, -102, -104, -229, 137, 58, -97, 53, -51, -86, -116, 74, 120, 110, 32, 64, -140, -114, -109, -206, 110, 187, -44, 70, -20, -216, -76, 41, 159, 72, 0, 80, -74, -117, -108, -188, 95, 177, -41, 84, -63, -149, -87, 36, 129, 97, 24, 80, -80, -122, -107, -186, 112, 161, -45, 75, -93, -107, -88, 38, 150, 70, 20, 79, -59, -133, -108, -171, 113, 145, -52, 92, -65, -92, -103, 48, 133, 93, 25, 85, -51, -138, -106, -185, 101, 115, -66, 76, -36, -88, -120, 63, 125, 82, 11, 87, -97, -131, -107, -191, 136, 96, -68, 96, -28, -93, -120, 68, 109, 102, 21, 91, -53, -124, -109, -203, 119, 70, -76, 70, -26, -92, -112, 67, 103, 77, 7, 85, -103, -95, -104, -221, 142, 77, -87, 70, -35, -88, -123, 59, 109, 98, 46, 79, -128, -122, -109, -214, 109, 169, -50, 74, -23, -211, -82, 36, 197, 61, 9, 86, -75, -128, -108, -191, 95, 171, -38, 85, -72, -145, -97, 33, 113, 113, 29, 75, -118, -129, -107, -183, 111, 140, -60, 87, -92, -109, -97, 39, 182, 51, 39, 82, -99, -143, -103, -170, 101, 131, -58, 90, -64, -92, -116, 45, 146, 120, 30, 78, -98, -141, -106, -173, 102, 100, -77, 99, -27, -92, -129, 53, 135, 70, 5, 90, -114, -139, -107, -180, 114, 90, -76, 92, -27, -92, -129, 65, 146, 127, -5, 90, -70, -140, -107, -194, 108, 81, -78, 85, -21, -94, -121, 61, 116, 67, 5, 84, -83, -95, -108, -224, 136, 77, -90, 72, -34, -92, -130, 37, 137, 119, 45, 72, -141, -121, -112, -210, 93, 162, -61, 90, -18, -215, -89, 43, 236, 62, 35, 80, -87, -125, -105, -180, 77, 146, -75, 92, -68, -141, -97, 33, 118, 124, 39, 76, -122, -135, -113, -177, 92, 118, -77, 87, -80, -103, -117, 40, 223, 48, 40, 80, -101, -136, -97, -158, 71, 106, -92, 98, -56, -96, -123, 45, 164, 139, 29, 81, -103, -146, -114, -159, 78, 85, -96, 96, -36, -90, -130, 48, 166, 31, 20, 92, -134, -151, -102, -167, 70, 92, -86, 99, -27, -91, -124, 58, 186, 131, 2, 79, -81, -142, -112, -171, 80, 92, -97, 94, -16, -92, -121, 47, 146, 53, 12, 91, -117, -107, -102, -215, 93, 75, -87, 88, -22, -91, -139, 18, 185, 131, 58, 81, -138, -122, -114, -189, 57, 165, -77, 103, -16, -204, -78, 43, 251, 56, 67, 87, -87, -126, -114, -171, 46, 140, -63, 118, -55, -140, -97, 39, 165, 133, 56, 74, -98, -137, -113, -160, 53, 120, -85, 104, -67, -106, -114, 42, 251, 37, 58, 91, -62, -152, -109, -146, 44, 112, -78, 114, -48, -103, -136, 38, 224, 142, 41, 81, -86, -166, -110, -148, 45, 97, -71, 124, -28, -99, -143, 56, 221, 53, 16, 96, -98, -165, -109, -162, 54, 96, -96, 104, -12, -90, -125, 65, 238, 157, 7, 88, -89, -159, -111, -171, 31, 119, -87, 101, 3, -92, -126, 59, 191, 56, 29, 95, -100, -105, -109, -184, 59, 77, -109, 98, -10, -92, -123, 27, 251, 143, 65, 85, -133, -112, -128, -169, 44, 121, -111, 112, -24, -177, -72, 59, 251, 57, 49, 83, -91, -140, -16, -165, 35, 127, -196, 102, -37, -133, -92, 45, 142, 117, 46, 65, -63, -137, -118, -167, 36, 98, -137, 109, -64, -109, -109, 56, 251, 55, 45, 75, -78, -151, -28, -165, 24, 99, -197, 120, -36, -103, -127, 55, 196, 118, 34, 76, -41, -148, -101, -183, 33, 81, -166, 110, -18, -101, -138, 62, 199, 59, 19, 78, -127, -152, -52, -168, 33, 83, -174, 99, -6, -99, -141, 66, 203, 129, 18, 75, -63, -124, -110, -163, 34, 103, -133, 101, -8, -103, -131, 66, 182, 74, 15, 90, -116, -96, -86, -187, 47, 72, -136, 79, -6, -99, -146, 34, 217, 126, 44, 78, -182, -251, -251, -251, 161, 100, -220, 209, -148, -203, -243, 64, -39, 184, -175, 229, -133, -241, -248, -251, 173, 79, -226, 209, -123, -176, -244, 89, -78, 205, -151, 173, -198, -245, -245, -251, 178, 61, -234, 189, -121, -182, -238, 87, -95, 193, -135, 212, -218, -241, -239, -251, 183, 70, -245, 200, -105, -183, -230, 89, -115, 213, -21, 172, -193, -238, -246, -251, 174, 55, -246, 176, -118, -165, -240, 105, -105, 192, 25, 212, -221, -237, -248, -251, 193, 48, -235, 189, -133, -158, -248, 106, -102, 203, 63, 162, -180, -243, -251, -251, 177, 29, -234, 177, -204, -165, -240, 112, -60, 203, -71, 215, -196, -251, -251, -251, 185, 11, -251, 213, -90, -173, -251, 93, -102, 217, -136, 154, -170, -228, -248, -251, 148, 115, -219, 218, -154, -199, -250, 93, -59, 190, -104, 175, -124, -221, -246, -251, 161, 85, -230, 215, -123, -190, -246, 91, -75, 190, -66, 231, -181, -232, -243, -251, 166, 67, -251, 214, -117, -188, -244, 94, -67, 189, -105, 185, -194, -238, -243, -251, 185, 67, -247, 203, -112, -181, -231, 100, -85, 224, 40, 229, -196, -222, -242, -251, 176, 60, -251, 206, -130, -167, -226, 99, -63, 180, 16, 164, -179, -219, -243, -239, 191, 46, -251, 190, -112, -163, -226, 108, -73, 209, 58, 218, -134, -244, -247, -233, 183, 21, -251, 202, -166, -164, -220, 120, -62, 212, 5, 153, -182, -247, -251, -251, 193, -19, -243, 196, -153, -180, -230, 121, -113, 207, 23, 217, -172, -220, -248, -251, 140, 118, -225, 224, -132, -204, -251, 102, -55, 184, -86, 226, -152, -226, -243, -251, 149, 82, -237, 235, -174, -195, -248, 91, -79, 196, 14, 188, -164, -232, -245, -244, 163, 64, -231, 221, -131, -199, -241, 99, -5, 194, 0, 238, -189, -229, -244, -246, 179, 57, -244, 226, -163, -181, -231, 103, -33, 215, 10, 188, -186, -230, -241, -243, 171, 52, -243, 216, -153, -173, -229, 107, -24, 203, -25, 237, -173, -221, -242, -240, 179, 33, -251, 229, -133, -173, -223, 122, -2, 221, 43, 184, -161, -232, -245, -223, 182, 20, -251, 208, -142, -172, -218, 118, -63, 213, 5, 229, -170, -243, -244, -245, 184, -25, -251, 213, -158, -170, -231, 108, -71, 216, -37, 169, -192, -220, -246, -251, 145, 119, -213, 235, -101, -216, -251, 74, -30, 190, -1, 181, -172, -211, -246, -251, 137, 114, -207, 239, -141, -222, -251, 97, -37, 189, -24, 231, -194, -220, -243, -251, 148, 75, -217, 241, -167, -189, -244, 111, 43, 198, 39, 192, -199, -230, -248, -238, 167, 55, -222, 238, -179, -186, -236, 111, 12, 228, 27, 240, -209, -226, -239, -233, 165, 41, -234, 249, -128, -182, -234, 114, 21, 205, -18, 192, -213, -230, -244, -236, 174, 14, -237, 241, -131, -170, -232, 121, 10, 222, -35, 244, -226, -242, -245, -241, 173, -5, -237, 234, -125, -176, -227, 122, -55, 207, 13, 187, -181, -236, -249, -241, 186, -42, -251, 210, -141, -174, -230, 103, -24, 211, 36, 227, -164, -201, -249, -250, 128, 148, -210, 238, -122, -219, -251, 80, 2, 179, 54, 232, -181, -212, -248, -251, 131, 118, -191, 251, -142, -205, -251, 70, -47, 210, 9, 183, -231, -205, -250, -251, 130, 93, -208, 246, -181, -187, -250, 109, 96, 178, 35, 244, -251, -208, -245, -249, 130, 55, -214, 251, -181, -189, -246, 113, 35, 249, 29, 203, -251, -221, -248, -242, 147, -7, -238, 251, -121, -188, -244, 123, 60, 203, 18, 248, -251, -235, -247, -232, 160, -30, -246, 251, -120, -186, -235, 119, 56, 245, 39, 197, -234, -242, -251, -233, 159, -33, -234, 239, -115, -181, -227, 114, -5, 229, 58, 242, -209, -226, -250, -228, 172, -53, -251, 225, -121, -184, -248, 89, -3, 220, -26, 179, -206, -197, -251, -251, 103, 160, -203, 246, -129, -224, -251, 111, 37, 181, -5, 186, -141, -174, -251, -251, 105, 133, -217, 249, -130, -200, -251, 91, -9, 199, 8, 232, -192, -167, -251, -251, 102, 96, -223, 251, -141, -198, -251, 118, 46, 185, -11, 198, -226, -183, -250, -250, 121, 47, -242, 251, -140, -197, -251, 124, 49, 251, 31, 245, -251, -209, -251, -241, 125, -5, -244, 251, -142, -190, -239, 113, 23, 191, 11, 205, -251, -251, -251, -249, 144, -58, -250, 251, -107, -189, -218, 119, 103, 249, 67, 250, -238, -251, -251, -237, 159, -52, -251, 249, -98, -189, -211, 105, 15, 247, 85, 191, -232, -244, -251, -235, 159, -84, -250, 219, -119, -180, -216, 76, 4, 230, 12, 237, -191, -185, -251, -251, 83, 152, -220, 243, -133, -209, -251, 123, 72, 153, -24, 232, -212, -192, -250, -251, 92, 81, -202, 251, -140, -209, -251, 105, -44, 217, 56, 185, -220, -194, -251, -251, 102, 47, -223, 251, -117, -197, -251, 118, 72, 162, 19, 241, -218, -193, -249, -242, 106, 14, -228, 251, -114, -207, -251, 107, 78, 251, 29, 214, -250, -233, -251, -248, 112, -31, -236, 251, -133, -203, -251, 112, 70, 176, 66, 247, -250, -251, -251, -226, 136, -40, -251, 250, -111, -186, -229, 125, 112, 251, 88, 208, -251, -251, -251, -245, 109, -49, -250, 248, -110, -167, -221, 133, 68, 216, 65, 248, -236, -251, -250, -231, 161, -82, -251, 237, -84, -177, -224, 81, 37, 245, 60, 193, -251, -238, -251, -251, -91, 151, -204, 251, -112, -210, -251, 65, -107, 202, 169, 157, -250, -222, -251, -250, 48, 98, -224, 242, -133, -186, -251, 42, -85, 182, 166, 219, -245, -218, -251, -247, 94, 65, -244, 250, -117, -190, -251, 59, -11, 236, 161, 201, -242, -218, -248, -214, 93, 30, -245, 249, -102, -193, -251, 84, -9, 242, 139, 233, -251, -231, -251, -222, 117, -15, -250, 251, -94, -178, -251, 101, 43, 231, 127, 206, -251, -251, -250, -246, 129, -40, -251, 242, -53, -170, -251, 94, -14, 249, 250, 242, -251, -251, -251, -239, 105, -55, -250, 247, -17, -172, -246, 120, 43, 236, 217, 201, -251, -235, -251, -234, 113, -129, -251, 230, -30, -179, -247, 84, -14, 201, 230, 244, -31, 37, 35, 147, -31, -3, -33, 49, -141, -234, 36, -37, -159, -25, 106, 33, -19, 28, 25, 136, -11, -9, -49, 37, -177, -136, 24, -33, -163, 9, 94, 0, 0, 30, 25, 74, 11, 2, -54, 16, -234, 19, 24, -36, -97, -14, 49, 31, -58, 48, 34, 16, 29, 46, 5, 12, -161, 89, 39, -28, -22, 26, -123, -6, 13, 60, 38, 22, 45, 38, -17, 13, -14, 110, 43, -30, -62, -9, -215, 28, -14, 42, 39, 60, 45, 31, 7, 19, 84, 122, 34, -16, -70, 23, -251, -11, 20, 23, 43, 121, 16, 11, -30, 16, 139, 123, 36, -18, -187, -16, -138, 24, 69, 49, 46, 142, 16, -28, -59, 18, 147, 130, 50, -29, -169, 7, -76, -3, -44, 29, 29, 133, -27, -10, -33, 44, -133, -251, 21, -47, -151, 5, 151, 2, -40, 22, 25, 95, -5, 14, -21, 27, -198, -250, 26, -40, -136, 7, 120, 50, -41, 22, 25, 65, 24, 38, 16, 24, -250, -17, 32, -32, -2, -2, 51, -10, -82, 26, 25, 48, 37, 54, 55, 18, -163, 79, 30, -30, 24, 41, -39, 56, -62, 34, 26, 57, 49, 68, 74, 36, 10, 106, 34, -23, 35, 1, -215, -12, 11, 26, 32, 81, 36, 64, 32, 25, 102, 117, 38, -9, -41, 37, -232, 50, 14, 18, 38, 102, 33, 33, -7, 38, 139, 117, 42, -2, -147, 3, -140, 0, 30, 22, 44, 108, 20, -11, -34, 22, 172, 118, 41, -8, -157, 5, -33, 40, -90, 10, 23, 71, -18, 3, 43, 44, -92, -232, -8, -53, -53, -10, 139, 65, -83, 20, 17, 63, 9, 16, 63, 46, -204, -164, 17, -51, -43, 14, 132, 0, -90, 21, 26, 48, 26, 42, 100, 24, -251, 6, 15, -46, 10, -5, 90, 56, -133, 17, 23, 34, 51, 67, 125, 37, -111, 82, 21, -30, 57, 23, -1, -9, -117, 12, 26, 45, 47, 77, 132, 33, 29, 103, 11, -22, 52, 17, -137, 65, -83, 26, 22, 47, 50, 70, 113, 61, 103, 111, 25, -8, 20, 23, -251, -3, -53, 22, 34, 81, 16, 64, 57, 46, 150, 111, 31, 0, -71, 11, -98, 56, 2, 18, 34, 56, 22, 7, 53, 43, 162, 114, 32, 4, -84, 29, -47, -5, -72, 34, 13, 43, -3, -11, 126, 75, -56, -197, -44, -48, 13, -16, 150, 7, -85, 4, 13, 55, 14, -15, 135, 47, -108, -27, -37, -47, -7, 2, 153, 63, -133, 15, 19, 32, 31, 11, 144, 61, -157, 48, -21, -39, 12, 10, 120, 2, -164, 2, 25, 23, 44, 37, 142, 41, -29, 82, -22, -35, 57, 13, 63, 60, -156, 7, 25, 24, 53, 61, 163, 80, 62, 96, 0, -18, 43, 22, -35, -1, -169, 4, 17, 35, 33, 85, 139, 75, 125, 101, 10, -2, 2, 5, -104, 62, -87, -5, 24, 38, 9, 105, 127, 70, 154, 104, 23, 12, -11, 12, -68, 2, -49, -2, 17, 28, 3, 64, 127, 52, 157, 105, 28, 12, -37, 26, -4, 61, -18, 40, 7, 66, 0, -36, 131, 70, -27, 50, -85, -35, 10, 8, 184, 36, -9, 9, 4, 72, 20, -35, 128, 74, -13, 40, -95, -29, -25, -18, 169, -6, -124, -3, 11, 38, 25, -18, 143, 49, -9, 65, -89, -41, 8, 30, 162, 39, -190, 12, 18, 44, 33, 14, 121, 54, 50, 80, -52, -28, 43, -10, 130, 3, -244, -8, 16, 46, 29, 58, 138, 66, 107, 82, -16, -12, 43, 27, 70, 48, -169, -28, 14, 52, 14, 105, 141, 61, 140, 89, 31, 9, 8, -9, 34, -7, -93, -42, 16, 60, -12, 138, 122, 75, 161, 95, 40, 15, -37, 12, 24, 52, -36, -62, 10, 46, -20, 121, 143, 82, 170, 95, 46, 26, -52, -10, 61, 14, 55, 36, -4, 77, 21, -50, 106, 57, 32, 96, -154, -28, 75, -49, 213, 16, 96, 25, -14, 97, -13, -29, 123, 28, 62, 97, -172, -46, -12, -18, 220, -1, -19, 2, -2, 73, 21, -21, 121, 35, 51, 83, -151, -34, 56, 5, 203, 2, -130, -3, -1, 75, 25, 12, 90, 17, 99, 67, -89, -31, 83, 15, 180, 20, -182, -20, 2, 108, 15, 45, 99, 28, 145, 75, -10, -11, 71, 16, 156, 12, -171, -74, -3, 112, -13, 126, 111, 47, 165, 79, 61, 9, 32, 23, 123, 19, -70, -132, -6, 105, -56, 174, 122, 53, 197, 84, 87, 24, -37, -7, 105, 19, 5, -130, 4, 97, -43, 168, 111, 67, 183, 94, 110, 24, -63, 18, 128, 54, 150, 41, -36, 105, -61, -43, 124, 88, 48, 85, -170, 8, 179, -61, 220, 53, 248, 51, -9, 88, -221, 0, 102, 58, 130, 98, -218, -41, 43, -45, 250, -122, 128, 2, -38, 102, -8, -60, 163, 29, 87, 91, -175, -45, 133, -22, 240, 44, -21, -12, 27, 117, 48, 24, 82, 41, 111, 78, -103, -38, 88, 3, 201, -19, -74, -37, -10, 155, -36, 78, 124, 49, 181, 68, -7, -13, 69, 4, 205, 41, -166, -72, 16, 144, -131, 139, 82, 21, 202, 87, 82, 6, 5, -7, 192, -33, -48, -205, -30, 210, -174, 181, 93, 97, 229, 83, 230, 50, -50, -45, 185, 23, -47, -163, 2, 133, -153, 119, 111, 59, 219, 93, 110, 35, -82, -13, 183, -97, 180, 89, -243, 142, -87, -14, 104, 70, 124, 55, -153, -15, 88, -203, 161, 65, 235, 21, 0, 100, -180, -75, 83, 115, 169, 129, -222, -28, 205, -52, 251, -22, 225, 27, -4, 91, -65, -95, 112, 98, 139, 102, -161, -5, 176, -43, 245, 57, 158, -27, 58, 173, 9, -25, 39, 55, 113, 84, -125, -23, 137, -5, 219, 38, 133, -17, 15, 206, -102, 72, 54, 42, 221, 78, 11, 2, 52, -28, 198, -34, -32, -58, 58, 212, -66, 108, -27, 30, 240, 64, 99, 24, -5, -39, 175, 16, 114, -87, -8, 249, -223, 7, 43, 120, 248, 74, 251, 58, 24, 0, 217, 63, 187, -88, 78, 121, -111, -98, 81, 109, 195, 87, 88, 13, -108, 52, 163, -96, 3, 3, 4, -2, 4, -3, -3, 3, 3, 0, 2, 2, -1, 1, 4, 1, -3, 3, -3, -3, -4, 4, -1, -1, -3, 4, -4, 2, 3, 2, 4, 3, 0, -1, -1, 2, 4, -4, 4, 2, -3, -4, 0, 4, 0, 1, 3, -4, 3, -3, -5, -1, -1, 2, -3, -4, -3, -1, 2, 1, -2, 4, 1, -1, -3, 2, -4, -1, 1, 2, -2, -3, 1, 4, 1, -3, 2, -5, -1, 2, -2, 3, -2, -1, 2, 2, -4, 1, -1, -2, -3, 0, 0, 2, -3, -3, -2, 1, -4, 0, -3, 3, 0, 3, -4, -1, 2, 2, 3, -3, 1, -2, 2, -2, -4, -3, -3, -2, -1, -1, 0, 4, 0, 4, 0, 0, -3, 0, 94, 55, 5, -52, 24, -13, 7, -62, 152, 251, 71, -54, 6, -217, -11, 23, 90, 8, -19, -194, -118, -36, 35, -157, 251, 231, 28, -61, -75, 69, 50, -251, 152, 59, 3, -120, 56, 18, 30, -86, 251, 64, 69, -66, 54, -160, 51, 28, 209, 34, -12, -125, -12, 42, 66, -133, 251, -23, 26, -45, 166, 85, 229, -251, 123, 42, -4, -102, 157, 92, 120, -47, 142, 1, 36, -59, 140, -113, 251, 42, 204, 31, -26, -106, 14, 58, 92, -96, 70, -14, 11, -50, 28, 144, 251, -251, 67, 48, -10, -117, 63, 31, 66, -45, -17, 39, 47, -53, -143, -123, 245, 26, 1, -22, -15, -16, -75, -43, 31, -57, 29, 28, -48, -72, -65, 66, 133, -251, 75, 33, -1, 1, 1, -40, 40, -32, 124, 251, 54, -22, 98, -78, -11, -5, 31, 32, -6, -85, -31, -34, 76, -61, 238, 177, 53, -38, -138, 77, -11, -9, 170, 51, -13, -93, 40, -41, 51, -37, 251, 37, 54, -32, 145, -123, 17, -23, 220, 56, -5, -117, -33, -17, 117, -107, 225, -37, 46, -26, 85, 153, 112, 0, 222, 41, -14, -117, 91, 32, 111, 4, 67, -10, 54, -23, 86, -155, 251, -31, 227, 35, 2, -106, -45, 49, 123, -53, -53, 2, 57, -12, 78, 148, 251, 10, 124, 47, -8, -101, 13, 33, 99, -9, -61, 6, 35, -16, -80, -88, 210, -37, 81, 59, 5, -24, -35, -4, 70, -44, -21, 6, 20, -43, 66, 51, 81, -15, 57, 33, 5, 20, -6, -57, 16, -12, 90, 180, 59, -5, 122, -69, -4, 6, 30, 25, 5, -21, -32, -49, 60, -25, 178, 106, 59, -19, -124, 76, -4, -25, 126, 34, -1, -26, 25, -57, 46, -11, 250, 2, 44, -7, 141, -158, -16, 6, 216, 26, -7, -36, -48, -37, 91, -67, 152, -29, 36, -10, 14, 191, 55, -41, 227, 18, 3, -49, 47, 2, 83, 25, 11, -7, 45, -12, -2, -223, 210, 17, 172, 9, 6, -57, -67, 37, 92, -34, -48, 0, 47, -12, 109, 198, 244, -23, 115, 35, 7, -34, -1, 41, 73, 6, -31, 5, 39, -13, -82, -119, 173, 5, 101, 61, 4, 3, -43, 5, 35, -24, -10, 3, 37, -44, 88, 61, 63, -27, 38, 30, 8, 19, -8, -62, -5, -14, 58, 98, 68, 5, 128, -68, 0, -4, 47, 29, 8, 8, -25, -54, 31, -25, 112, 51, 85, -4, -148, 98, -7, -9, 93, 20, 7, -5, 10, -60, 31, -15, 121, 13, 57, 3, 163, -169, -13, -29, 166, 10, 14, -19, -30, -14, 73, -55, 54, 4, 39, 0, -56, 251, 32, 16, 184, -10, 9, -25, 17, 2, 53, 4, 0, 3, 23, -4, 3, -251, 104, -49, 135, -10, 16, -37, -40, 39, 65, -31, -25, 5, 19, -4, 96, 220, 129, 12, 105, 64, 7, -12, -39, 61, 35, -6, -30, 1, 41, -39, -88, -151, 105, -25, 56, 97, 4, 10, -40, 15, 16, -15, -5, 8, 20, -108, 92, 71, 45, -14, 2, 21, 10, 9, -6, -72, 2, -23, 40, 28, 71, 11, 145, -72, 2, -1, -17, 12, 9, -8, -6, -56, 37, -6, 40, 23, 126, 2, -134, 83, -16, -26, 34, 20, 17, -11, -1, -70, 26, -65, 40, 20, 83, 12, 147, -175, -17, 1, 155, 4, 15, -4, 15, -6, 59, 0, 13, 11, 29, 4, -93, 230, -25, -31, 171, -23, 18, -29, -37, -2, 19, -69, -10, 8, 0, 8, -35, -251, 35, 4, 104, -8, 14, -31, 33, 41, 67, -1, -22, 9, 6, -2, 83, 210, 35, -45, 20, 72, 16, -16, -84, 103, 48, -36, -8, 8, 2, -114, -71, -147, 48, 1, 4, 133, 2, 9, -11, 22, 32, -1, 2, 12, 8, -189, 109, 83, 43, -22, 16, 33, 10, 8, -2, -61, -12, -30, 34, 12, 68, 8, 111, -65, 23, -2, -66, 6, 13, -17, 7, -56, 33, -13, 29, 23, 142, 0, -111, 56, 20, -9, -4, 8, 14, -26, 17, -72, 20, -70, 18, 22, 87, 13, 90, -135, -1, -21, 184, 5, 18, -6, 36, -34, 29, -32, 7, 9, 28, 6, -32, 214, -16, 3, 173, -12, 17, -19, -28, 20, 10, -77, -15, 13, 1, 1, -30, -194, 6, -44, 37, 8, 23, -43, 50, 54, 80, -31, -3, 14, -22, -29, 76, 147, 27, -10, 5, 107, 14, -18, -77, 129, 53, -37, 6, 14, -18, -183, -54, -112, 45, -39, 2, 135, 5, 22, -3, 49, 26, 0, 9, 13, 17, -243, 85, 65, 44, -14, -1, 0, 2, 0, 4, -3, 3, 4, 1, -3, -4, 3, -4, 1, 4, -2, -2, -3, -4, -3, 0, -2, -4, -3, -3, 0, -3, -4, 2, 2, 2, 1, 3, -3, 3, 3, 4, 0, -4, -4, -3, 4, 1, 5, 0, -1, 3, 4, 0, 2, -2, -4, 0, 3, 4, 2, -1, -3, 4, 4, 5, -1, 3, 3, -3, -1, -4, 0, 0, 4, 3, -1, 3, 1, -4, 0, 3, -2, 3, -3, 4, 0, 2, 2, 0, 3, 2, 2, 2, -3, -4, -1, -3, -4, 0, -1, 3, 1, -3, 0, -1, 3, -4, 1, 1, 5, 2, 0, 1, 4, 2, -4, -1, -3, 3, -2, 2, 1, 4, 0, -4, 0, -1, -4, 4, 1, -1, -1, 169, 17, -2, 7, -134, -145, 77, 16, -67, 159, -19, -20, -52, 4, -157, -27, 164, 77, 42, -4, -179, -187, 78, -28, 77, 48, 25, -30, -66, -81, -115, -76, 224, 146, 16, -3, -204, -188, 49, -55, 25, 39, 73, -33, -13, -29, -105, -89, 248, 92, 41, -37, -176, -165, 107, -53, 16, 21, 55, -26, 8, -114, -81, -63, 240, 88, 25, -68, -163, -180, 148, -51, -35, 17, 46, -22, 17, -37, -43, -101, 251, 101, 26, -33, -159, -205, 44, -73, -38, -12, 33, -20, 8, -105, -71, -78, 216, 88, 9, -42, -187, -225, 53, -69, 13, -44, 32, -37, -62, -3, -15, -102, 143, 7, 6, -13, -132, -156, 135, -18, -62, -26, 8, -45, -76, -44, -74, -75, 73, 42, 26, -8, -133, -166, 104, -24, 107, -4, 39, -12, -89, -47, -87, -52, 126, 56, 32, -16, -136, -156, 121, -20, 33, 22, 71, -25, -67, -89, -75, -45, 107, 52, 27, -38, -138, -171, 194, -28, 14, 39, 55, -27, -57, -9, -26, -57, 179, 63, 36, -71, -117, -143, 224, -32, 8, 40, 57, -32, 7, -98, -56, -49, 177, 63, 39, -61, -136, -123, 172, -27, 18, 24, 45, -41, -13, -50, -58, -51, 136, 66, 32, -49, -131, -120, 230, -36, -3, -11, 45, -37, -15, -116, -74, -42, 172, 71, 24, -35, -146, -130, 105, -24, -25, -6, 44, -38, -84, -44, 18, -55, 188, 47, 42, -68, -129, -121, 159, -36, -112, -21, 28, -43, -53, -45, 0, -49, 105, 38, 36, -54, -103, -152, 133, -19, 40, 37, 61, -18, -61, -98, -132, -36, 41, 28, 23, -54, -125, -177, 180, -25, 35, 31, 67, -20, -65, -28, -111, -59, 145, 62, 39, -53, -103, -149, 179, -47, 33, 39, 81, -18, -31, -96, -110, -40, 174, 62, 35, -74, -111, -123, 189, -55, 33, 30, 62, -28, -41, -18, -91, -59, 181, 51, 43, -72, -123, -99, 232, -42, 4, 21, 51, -35, -32, -88, -72, -47, 181, 55, 34, -103, -126, -86, 203, -32, -39, 0, 56, -42, 2, -39, -57, -67, 124, 44, 44, -57, -138, -96, 208, -38, -60, -2, 53, -40, -51, -102, -56, -48, 202, 61, 29, -69, -122, -89, 148, -39, -156, -7, 54, -48, -26, -27, -28, -63, 12, 50, 45, -21, -99, -153, 114, -31, 32, 27, 57, -25, -23, -75, -144, -40, 81, 52, 33, -33, -89, -144, 125, -55, 39, 27, 77, -27, -121, -24, -127, -54, 135, 66, 52, -56, -72, -124, 145, -48, 18, 33, 77, -28, -53, -112, -124, -62, 160, 58, 34, -79, -86, -115, 150, -69, 5, 34, 69, -38, -101, 23, -95, -59, 216, 58, 59, -72, -74, -74, 153, -53, -9, 26, 65, -45, -105, -153, -110, -57, 178, 63, 38, -91, -94, -62, 158, -64, -32, 15, 61, -49, -56, -23, -76, -60, 143, 67, 59, -58, -87, -64, 156, -50, -49, 0, 55, -59, -77, -88, -83, -53, 87, 54, 41, -66, -105, -88, 150, -39, -104, 7, 42, -55, -27, -39, -21, -53, 20, 38, 38, -13, -89, -165, 94, -15, 16, 31, 63, -24, -56, -78, -145, -47, 98, 57, 46, -22, -87, -131, 110, -43, 26, 35, 95, -26, -115, -51, -161, -58, 112, 62, 46, -45, -80, -117, 122, -53, 20, 36, 82, -35, -88, -74, -126, -52, 197, 49, 52, -41, -76, -90, 121, -52, 22, 24, 65, -42, -134, -31, -98, -54, 222, 53, 47, -65, -82, -84, 129, -60, -5, 18, 65, -54, -128, -80, -76, -58, 143, 40, 59, -60, -75, -74, 135, -42, -30, 12, 43, -56, -94, -59, -78, -59, 191, 68, 50, -64, -82, -87, 137, -55, -76, 5, 60, -65, -78, -80, -49, -57, 69, 61, 57, -24, -108, -75, 129, -33, -107, 1, 43, -84, -47, -47, -40, -59, -9, 34, 45, 8, -101, -158, 54, -25, 16, 22, 64, -29, -75, -57, -152, -45, 38, 39, 55, 4, -89, -132, 89, -37, 19, 30, 65, -32, -113, -43, -136, -48, 48, 27, 45, -7, -76, -124, 95, -42, 28, 29, 69, -35, -61, -67, -91, -55, 125, 47, 65, 0, -83, -82, 112, -40, 1, 25, 68, -48, -98, -67, -120, -49, 119, 38, 45, -50, -82, -95, 100, -46, -12, 21, 49, -51, -109, -69, -64, -62, 113, 58, 66, -5, -82, -80, 108, -50, -20, 13, 52, -65, -46, -59, -72, -54, 88, 40, 48, -31, -94, -69, 108, -34, -37, 12, 35, -83, -101, -81, -41, -61, 77, 53, 56, 8, -89, -72, 91, -24, -85, -5, 56, -112, -51, -73, -55, -45, 43, 20, 41, 24, -106, -173, 52, -1, -20, 34, 58, -33, -35, -90, -186, -32, -24, 31, 54, 18, -117, -138, 55, -7, 15, 21, 87, -41, -113, -35, -153, -49, 42, 31, 49, 22, -83, -134, 76, -37, 8, 22, 76, -32, -85, -87, -116, -40, 69, 43, 54, 12, -88, -123, 75, -29, -2, 18, 55, -47, -83, -43, -102, -53, 97, 36, 54, 3, -100, -89, 77, -42, -24, 15, 45, -57, -79, -81, -80, -52, 95, 30, 60, -3, -83, -74, 104, -27, -19, 12, 32, -80, -56, -34, -81, -61, 33, 61, 55, 0, -106, -82, 80, -24, -65, 8, 41, -76, -84, -85, -83, -55, 63, 62, 55, 1, -113, -95, 79, -23, -92, 16, 32, -124, -40, -38, -141, -59, 67, 10, 44, 32, -111, -156, 42, -2, 10, 3, 45, -18, -24, -72, -195, -30, -35, 22, 50, 8, -101, -168, 35, 3, -26, -3, 42, -25, -38, -51, -178, -45, 40, 21, 52, 38, -103, -133, 59, -25, -31, 25, 64, -34, -88, -79, -145, -41, 35, 22, 48, 29, -78, -126, 73, -21, -37, 16, 49, -33, -65, -47, -138, -44, 54, 35, 56, 44, -105, -103, 76, -35, -36, 17, 41, -44, -50, -70, -133, -51, 42, 52, 51, 7, -99, -80, 72, -27, -42, 21, 37, -79, -64, -48, -81, -55, 0, 80, 58, 1, -112, -83, 55, -16, -68, 0, 44, -100, -26, -69, -76, -47, 110, 17, 36, 30, -112, -96, 57, 12, -58, -1, 38, -185, -30, -49, -136, -47, 23, 46, 43, 49, -107, -110, 71, -33, -22, 59, 15, -105, -35, -32, -105, -197, 46, 62, 45, 32, -145, -115, 104, -83, -22, 48, 45, -80, -74, -73, -107, 44, 97, 92, 50, 14, -121, -114, 95, -17, 17, 46, 46, -98, -33, -62, -65, -250, 128, 91, 32, 16, -154, -150, 121, -98, -5, 36, 67, -73, -73, -68, -47, 48, 135, 83, 69, -1, -109, -161, 92, -26, 2, 29, 69, -62, -62, -37, -63, -230, 152, 83, 28, 17, -150, -195, 75, -107, -27, 23, 81, -48, -69, -62, -62, 11, 86, 51, 52, 5, -96, -153, 101, -40, -21, 22, 71, -50, -73, -43, -72, -213, 109, 20, 42, 52, -99, -130, 121, -50, -31, 14, 28, -62, -93, -84, -69, 81, 5, 17, 34, 13, -92, -124, 159, -87, 13, 56, 36, -53, -70, -77, -110, 87, 61, 47, 39, 9, -117, -125, 174, -14, 43, 71, 52, -90, -61, -14, -96, -251, 66, 64, 40, -5, -108, -105, 172, -61, 36, 48, 56, -81, -42, -123, -85, 90, 114, 84, 48, 2, -123, -109, 169, -17, 32, 29, 62, -79, -59, -22, -45, -243, 129, 64, 30, 7, -134, -134, 186, -60, 1, 23, 71, -59, -50, -88, -56, 91, 78, 67, 44, -6, -128, -137, 163, -8, -26, 8, 85, -51, -41, -31, -37, -251, 98, 19, 29, 16, -135, -145, 228, -41, -52, 14, 60, -47, -73, -106, -36, 96, 61, 22, 44, 14, -102, -98, 167, -2, -55, -8, 47, -56, -92, -33, -33, -237, 34, 64, 44, 12, -103, -147, 127, -35, 39, 19, 63, -53, -47, -40, -167, -207, 43, 53, 37, -7, -111, -124, 175, -90, 30, 58, 71, -54, -64, -57, -104, 73, 93, 72, 42, -26, -82, -138, 181, -21, 25, 56, 73, -77, -22, -54, -95, -242, 103, 58, 38, -39, -126, -117, 197, -89, 16, 39, 80, -66, -38, -41, -82, 77, 136, 68, 46, -48, -107, -111, 191, -9, 4, 23, 77, -67, -31, -66, -53, -251, 133, 63, 31, -41, -139, -105, 231, -95, -23, 13, 75, -54, -19, -66, -60, 76, 122, 68, 52, -25, -96, -90, 179, -12, -61, 13, 74, -48, -67, -37, -46, -239, 89, 61, 37, -8, -116, -113, 178, -74, -59, 7, 52, -47, -54, -83, 4, 61, 17, 39, 38, 1, -118, -145, 135, -67, 34, 18, 74, -46, -42, -76, -115, 76, 73, 67, 51, -15, -89, -129, 146, -42, 31, 38, 85, -49, -100, -26, -85, -205, 84, 61, 42, -28, -96, -127, 164, -84, 8, 54, 89, -47, -40, -94, -98, 58, 172, 69, 47, -50, -94, -101, 180, -56, 19, 43, 77, -64, -73, 12, -88, -243, 199, 53, 45, -59, -81, -83, 198, -86, 4, 34, 77, -58, -68, -127, -78, 66, 124, 68, 54, -44, -100, -70, 170, -28, -2, 23, 65, -71, -54, -21, -63, -220, 102, 59, 45, -29, -99, -84, 174, -71, -10, 16, 69, -58, -91, -100, -34, 64, 57, 71, 56, -14, -113, -98, 150, -18, -69, 21, 53, -59, -46, -30, 1, -215, 13, 52, 49, -7, -105, -132, 136, -22, 20, 30, 72, -42, -79, -46, -76, -194, 71, 57, 44, -11, -99, -145, 142, -75, 13, 30, 95, -41, -96, -71, -77, 59, 53, 58, 55, -30, -90, -110, 156, -53, 15, 43, 84, -45, -62, -29, -84, -208, 158, 46, 48, -34, -47, -87, 183, -73, 12, 49, 72, -49, -111, -59, -99, 66, 168, 59, 58, -36, -91, -63, 164, -68, 3, 42, 62, -73, -81, -70, -86, -218, 79, 45, 48, -29, -75, -73, 164, -68, 12, 30, 57, -66, -91, -108, -70, 60, 99, 87, 55, -14, -105, -79, 140, -30, -13, 16, 63, -86, -65, -50, -34, -218, 64, 63, 41, -11, -109, -88, 164, -53, -45, 20, 54, -100, -85, -93, -17, 68, 5, 40, 42, -10, -113, -147, 135, -65, -2, 19, 74, -43, -77, -67, -44, 57, 20, 51, 57, -14, -83, -117, 151, -32, 7, 25, 81, -41, -63, -43, -79, -211, 6, 38, 49, -22, -88, -106, 162, -105, 13, 30, 88, -44, -93, -51, -74, 68, 82, 51, 62, -1, -62, -83, 151, -22, 6, 38, 69, -52, -73, -62, -74, -211, 92, 41, 45, -10, -110, -96, 137, -113, 12, 45, 64, -52, -110, -55, -58, 68, 13, 53, 61, -13, -48, -81, 155, -34, 17, 38, 48, -77, -57, -61, -61, -221, 25, 69, 49, -12, -108, -52, 160, -80, 14, 29, 54, -109, -68, -77, -59, 58, 15, 85, 55, -18, -96, -72, 142, -7, 7, 14, 52, -146, -56, -61, -50, -204, -33, 40, 55, 3, -119, -124, 144, -14, -13, 19, 61, -37, 1, -46, -29, -182, -75, 18, 47, -6, -110, -128, 150, -72, 5, 15, 80, -44, -54, -69, -47, 61, -16, 40, 60, 18, -82, -107, 143, -11, -3, 28, 88, -48, -84, -48, -83, -199, 41, 37, 51, 30, -114, -122, 116, -85, 9, 30, 62, -44, -66, -100, -78, 64, 32, 42, 58, 17, -85, -102, 122, -20, 7, 35, 47, -56, -69, -19, -51, -200, -12, 45, 52, 5, -111, -94, 132, -90, -1, 41, 31, -62, -85, -80, -75, 63, -71, 79, 58, -10, -83, -80, 145, -26, 35, 40, 27, -115, -45, -43, -50, -206, -27, 62, 43, 39, -120, -101, 139, -43, -4, 32, 47, -163, -45, -70, -84, 61, 45, 13, 34, 35, -125, -141, 131, -54, 2, -7, -2, -32, -52, -51, 16, 63, 35, 39, 61, 42, -101, -117, 114, -12, 9, -5, 36, -39, -34, -81, -50, -175, -28, 25, 46, 37, -127, -126, 105, -63, 11, 15, 51, -36, -102, -75, -31, 64, 5, 49, 59, 39, -94, -116, 100, -25, -16, 27, 50, -49, -73, -60, -43, -194, 0, 46, 44, 48, -105, -111, 105, -64, -9, 32, 46, -59, -59, -55, -60, 64, -25, 92, 55, 8, -116, -87, 93, -18, 15, 38, 61, -81, -74, -47, -58, -199, -3, 86, 33, 57, -106, -98, 112, -81, 6, 42, 64, -97, -24, -59, -142, 56, -16, -2, 44, 48, -113, -86, 123, -7, 21, 28, 53, -182, -21, -62, -74, -225, 115, 106, 80, 16, -179, -204, 121, -61, -68, 24, 120, -99, -146, -132, -120, -94, 176, 104, 87, 49, -216, -209, 199, -91, -90, 35, 129, -96, -164, -86, -117, -126, 136, 96, 75, 10, -185, -201, 168, -43, -64, 68, 108, -92, -110, -127, -134, -89, 135, 100, 84, 13, -210, -194, 202, -86, -53, 55, 97, -91, -97, -113, -130, -116, 169, 102, 79, -1, -192, -190, 168, -41, -9, 52, 82, -101, -120, -135, -133, -92, 150, 105, 83, 12, -218, -191, 195, -74, -45, 48, 87, -109, -98, -103, -144, -124, 197, 108, 78, 21, -190, -184, 156, -64, -26, 49, 77, -128, -144, -154, -186, -81, 145, 143, 84, 9, -202, -196, 154, -81, -42, 51, 84, -147, -139, -96, -139, -125, 117, 111, 86, 30, -161, -187, 100, -91, -55, 20, 133, -86, -124, -105, -147, -105, 250, 119, 87, 43, -165, -190, 92, -103, -70, 47, 140, -85, -148, -95, -158, -105, 182, 127, 89, 23, -164, -185, 123, -90, -66, 54, 129, -85, -96, -114, -165, -107, 196, 124, 90, 28, -175, -168, 136, -99, -44, 42, 116, -86, -97, -109, -156, -93, 216, 126, 91, 21, -160, -149, 134, -87, -50, 37, 111, -93, -106, -117, -161, -118, 168, 123, 86, 17, -188, -146, 137, -83, -73, 31, 113, -108, -82, -93, -156, -92, 250, 126, 89, 24, -166, -151, 130, -75, -74, 27, 108, -145, -112, -105, -174, -114, 140, 130, 94, 7, -172, -142, 144, -85, -74, 34, 93, -177, -102, -97, -143, -102, 109, 104, 87, 54, -156, -190, 101, -87, -57, 12, 119, -88, -143, -110, -137, -93, 203, 103, 89, 56, -157, -186, 101, -100, -67, 44, 132, -86, -178, -87, -139, -116, 154, 115, 88, 42, -148, -187, 113, -96, -69, 57, 125, -87, -122, -116, -136, -93, 182, 117, 92, 43, -163, -163, 119, -113, -49, 42, 102, -91, -117, -96, -144, -120, 200, 123, 86, 38, -149, -142, 153, -89, -46, 34, 105, -92, -119, -120, -144, -80, 170, 111, 90, 34, -177, -128, 150, -97, -60, 34, 94, -106, -110, -100, -162, -118, 216, 122, 84, 38, -158, -144, 142, -86, -52, 33, 104, -141, -132, -121, -165, -92, 143, 118, 95, 30, -158, -137, 137, -88, -65, 34, 87, -188, -137, -106, -141, -114, 75, 94, 89, 74, -143, -193, 95, -96, -47, 28, 100, -90, -147, -109, -125, -108, 145, 100, 91, 75, -135, -178, 107, -116, -34, 53, 112, -90, -185, -88, -133, -107, 87, 99, 93, 60, -125, -175, 119, -110, -43, 55, 109, -87, -140, -116, -130, -115, 148, 114, 93, 55, -142, -153, 109, -136, -23, 47, 98, -94, -159, -90, -131, -98, 146, 108, 93, 50, -119, -121, 129, -103, -29, 39, 95, -98, -155, -147, -128, -121, 116, 95, 94, 44, -142, -105, 139, -118, -46, 39, 85, -117, -139, -97, -136, -88, 164, 97, 89, 54, -129, -96, 162, -97, -57, 32, 90, -150, -167, -120, -152, -118, 112, 85, 95, 50, -144, -117, 137, -99, -44, 33, 83, -197, -139, -98, -123, -92, 60, 87, 85, 113, -142, -190, 88, -98, -23, 51, 80, -94, -136, -108, -100, -95, 83, 94, 89, 102, -130, -180, 92, -118, -10, 54, 89, -89, -194, -75, -120, -118, 72, 98, 91, 87, -123, -174, 108, -134, -5, 58, 93, -91, -168, -108, -120, -102, 77, 102, 94, 73, -116, -154, 96, -136, -2, 45, 82, -99, -170, -67, -117, -121, 94, 103, 92, 77, -119, -115, 117, -130, -11, 38, 92, -105, -176, -137, -123, -100, 92, 88, 92, 63, -114, -101, 129, -119, -31, 34, 82, -120, -155, -73, -100, -114, 128, 96, 91, 76, -128, -99, 138, -111, -41, 36, 87, -170, -182, -133, -139, -103, 107, 58, 94, 71, -136, -119, 126, -102, -28, 40, 76, -180, -124, -73, -111, -105, 88, 84, 78, 137, -137, -207, 70, -93, -9, 62, 61, -90, -107, -110, -79, -95, 85, 85, 85, 114, -131, -192, 95, -111, -5, 56, 67, -94, -167, -91, -105, -103, 75, 92, 90, 102, -129, -180, 87, -116, 10, 52, 80, -96, -115, -122, -115, -111, 36, 101, 88, 86, -137, -156, 92, -137, 9, 41, 86, -98, -146, -61, -97, -102, 42, 95, 93, 90, -125, -134, 109, -102, 2, 38, 79, -104, -159, -155, -79, -115, 87, 99, 89, 90, -137, -115, 116, -117, -17, 42, 90, -122, -128, -84, -81, -96, 95, 67, 90, 91, -143, -91, 142, -102, -33, 37, 76, -123, -152, -131, -115, -106, 125, 36, 90, 96, -153, -110, 120, -97, -15, 32, 77, -163, -106, -89, -103, -100, 146, 90, 83, 133, -144, -223, 41, -89, 15, 73, 15, -96, -97, -113, -87, -91, 130, 83, 86, 116, -141, -199, 70, -103, 20, 60, 33, -102, -172, -71, -108, -106, 73, 97, 92, 93, -128, -200, 76, -112, 26, 51, 70, -103, -94, -122, -89, -99, 21, 102, 87, 81, -136, -161, 85, -122, 22, 38, 85, -103, -136, -31, -67, -104, 8, 106, 97, 101, -123, -136, 102, -107, 17, 36, 104, -107, -141, -152, -44, -95, 79, 96, 87, 80, -137, -105, 109, -105, 3, 39, 95, -111, -97, -40, -50, -109, 148, 51, 91, 96, -161, -62, 119, -92, -38, 33, 98, -117, -176, -150, -94, -100, 175, -162, 94, 94, -168, -92, 87, -88, -32, 39, 98, -164, -114, -76, -76, -100, 116, 74, 86, 99, -168, -201, 49, -87, 9, 81, 23, -101, -91, -107, -54, -101, 136, 80, 84, 100, -149, -204, 72, -98, 17, 62, 10, -115, -178, -78, -74, -94, 87, 83, 87, 87, -134, -208, 81, -112, 24, 53, 46, -102, -79, -131, -74, -107, -3, 86, 84, 79, -141, -180, 94, -120, 23, 47, 70, -110, -140, -42, -48, -98, -24, 88, 89, 87, -135, -157, 112, -107, 18, 44, 78, -108, -140, -136, -39, -106, 63, 85, 84, 74, -125, -129, 104, -113, 0, 46, 95, -120, -96, -53, -39, -98, 132, 4, 90, 78, -173, -81, 114, -93, -16, 45, 95, -144, -182, -156, -61, -109, 126, -251, 95, 82, -160, -158, 85, -75, 4, 41, 62, -181, -107, -85, -45, -90, 230, 204, 209, -251, -251, -251, 215, -243, -9, 117, 168, -194, -250, -251, -184, -250, 235, 196, 222, -251, -251, -251, 239, -232, -83, 141, 176, -182, -250, -250, -182, -246, 221, 219, 219, -251, -232, -251, 249, -219, -16, 124, 205, -173, -251, -244, -216, -245, 251, 225, 220, -251, -247, -245, 249, -233, -18, 111, 183, -197, -250, -242, -224, -244, 251, 237, 225, -251, -243, -250, 251, -226, 20, 121, 177, -194, -251, -251, -177, -236, 251, 247, 216, -251, -251, -251, 251, -237, 33, 108, 161, -233, -251, -241, -184, -236, 250, 238, 224, -251, -250, -251, 250, -236, 25, 114, 125, -244, -251, -250, -251, -247, 251, 248, 215, -251, -251, -251, 251, -245, 67, 88, 141, -234, -245, -247, -241, -244, 95, 209, 212, -73, -248, -251, 234, -227, -53, 96, 166, -191, -224, -230, -220, -220, 248, 238, 219, -27, -251, -251, 242, -233, -56, 148, 190, -195, -238, -226, -218, -251, 212, 243, 226, -60, -241, -247, 247, -228, -26, 142, 186, -210, -231, -251, -189, -216, 243, 249, 225, -20, -250, -240, 249, -239, -5, 128, 182, -205, -250, -233, -228, -251, 251, 247, 228, -39, -246, -218, 249, -246, 5, 130, 176, -210, -251, -248, -238, -210, 232, 250, 218, -10, -251, -251, 251, -218, -10, 120, 160, -194, -241, -250, -208, -245, 250, 251, 218, -75, -251, -250, 251, -221, -55, 116, 142, -215, -251, -251, -251, -212, 238, 250, 223, -78, -251, -250, 251, -218, -28, 99, 151, -216, -218, -233, -251, -250, 124, 228, 215, -25, -242, -251, 221, -218, -26, 85, 170, -197, -208, -227, -251, -249, 183, 218, 218, -50, -239, -249, 239, -239, -42, 126, 186, -206, -250, -232, -249, -222, 216, 242, 220, -9, -232, -242, 248, -240, -75, 140, 207, -190, -244, -245, -197, -251, 218, 232, 222, -35, -245, -227, 248, -236, -5, 135, 193, -203, -251, -229, -221, -215, 251, 248, 225, -1, -251, -241, 250, -235, -26, 128, 179, -208, -251, -250, -218, -251, 250, 250, 216, -64, -250, -227, 251, -247, -7, 115, 165, -210, -251, -251, -251, -218, 251, 251, 219, -26, -251, -243, 251, -231, -36, 115, 170, -206, -246, -239, -227, -246, 251, 243, 211, -91, -251, -240, 251, -236, -61, 100, 157, -232, -203, -241, -251, -226, 98, 216, 215, -22, -236, -250, 226, -219, -44, 96, 152, -197, -228, -237, -233, -221, 171, 246, 221, 8, -234, -239, 228, -232, -20, 134, 171, -212, -236, -236, -213, -250, 144, 237, 222, -7, -224, -232, 228, -242, -14, 137, 178, -197, -249, -230, -211, -218, 208, 248, 222, 35, -235, -219, 250, -240, -1, 128, 172, -202, -251, -237, -231, -251, 250, 243, 221, -20, -226, -198, 250, -250, -15, 136, 173, -204, -251, -246, -246, -220, 206, 249, 226, 5, -235, -178, 251, -238, 14, 124, 171, -213, -251, -246, -245, -242, 241, 240, 219, -4, -237, -196, 251, -243, -32, 100, 166, -238, -237, -247, -241, -226, 187, 232, 222, -8, -251, -227, 251, -225, -72, 108, 157, -236, -211, -244, -206, -235, 74, 221, 221, -12, -246, -251, 220, -219, -30, 111, 129, -185, -207, -244, -212, -242, 127, 233, 217, -9, -230, -241, 218, -232, -17, 137, 157, -209, -189, -242, -214, -222, 93, 239, 224, 29, -230, -228, 239, -232, -6, 132, 163, -200, -243, -220, -196, -251, 158, 228, 224, 11, -206, -198, 248, -241, 19, 132, 166, -198, -236, -243, -182, -221, 179, 236, 227, 46, -223, -184, 251, -245, 7, 122, 169, -198, -243, -227, -227, -249, 172, 227, 225, 6, -221, -193, 248, -235, 10, 118, 161, -221, -216, -250, -211, -216, 182, 238, 221, 24, -234, -192, 250, -228, -25, 112, 167, -242, -190, -232, -246, -244, 190, 221, 221, 9, -242, -208, 251, -220, -24, 113, 159, -233, -179, -235, -238, -222, 105, 215, 216, -15, -244, -251, 215, -212, -47, 121, 115, -183, -186, -241, -192, -216, 64, 219, 221, -3, -231, -243, 235, -215, -2, 121, 122, -194, -160, -250, -246, -244, 59, 221, 221, 20, -224, -225, 243, -230, 26, 127, 151, -187, -184, -228, -170, -217, 73, 225, 224, 45, -226, -199, 239, -220, 20, 123, 153, -189, -176, -234, -176, -251, 96, 226, 224, 40, -230, -208, 235, -232, 25, 116, 159, -205, -183, -242, -167, -216, 72, 229, 224, 31, -227, -195, 250, -227, 7, 123, 163, -207, -153, -240, -189, -251, 106, 231, 223, 24, -239, -199, 251, -219, -5, 122, 171, -237, -166, -221, -196, -225, 167, 202, 220, 14, -251, -200, 250, -206, -8, 107, 173, -225, -148, -235, -247, -242, 97, 227, 218, -10, -251, -251, 215, -208, -59, 118, 70, -178, -123, -247, -191, -235, 82, 218, 217, -3, -244, -251, 226, -213, -2, 129, 93, -174, -164, -237, -110, -219, 42, 213, 222, 5, -232, -251, 229, -205, 15, 121, 123, -172, -138, -246, -177, -237, 47, 210, 217, 26, -237, -232, 217, -216, 26, 115, 148, -190, -150, -236, -160, -218, 42, 231, 223, 39, -241, -214, 232, -219, 6, 117, 154, -196, -162, -244, -224, -248, 37, 226, 217, 40, -243, -204, 249, -217, 5, 124, 157, -210, -117, -211, -148, -221, 84, 196, 222, 46, -251, -183, 247, -203, -23, 118, 178, -212, -170, -251, -216, -248, 155, 147, 220, -3, -251, -206, 243, -202, -40, 136, 183, -217, -87, -217, -166, -218, 135, 215, 213, -3, -251, -251, 189, -206, -20, 122, 31, -182, -120, -251, -153, -210, 122, 222, 219, 0, -249, -251, 202, -199, 7, 122, 56, -172, -182, -241, -119, -240, 83, 223, 220, -50, -247, -251, 203, -212, 24, 123, 104, -166, -143, -251, -148, -209, 35, 219, 222, -37, -235, -244, 206, -208, 26, 97, 112, -166, -180, -244, -101, -238, 28, 234, 216, 32, -247, -240, 208, -207, 29, 118, 144, -198, -148, -251, -138, -223, 56, 237, 213, 48, -249, -211, 196, -206, -5, 118, 180, -203, -101, -224, -143, -243, 108, 186, 210, 30, -251, -188, 199, -213, 25, 107, 223, -205, -95, -251, -180, -217, 125, 58, 223, 22, -251, -188, 205, -189, -41, 124, 176, -203, -118, -240, -79, -250, -6, 9, 39, -155, 40, 204, 82, 11, 235, 32, -12, 95, 148, -75, 8, 56, -8, 38, 25, 73, -170, 202, 151, 4, 222, 37, -5, 166, 52, 192, 34, 30, 46, 56, 21, -241, -114, -15, 99, 33, 199, 19, -28, 131, 31, -132, 42, 0, 181, 47, 33, -240, -237, -111, 65, -3, 179, -18, -35, 119, 58, -118, 59, -40, 98, 50, 15, -99, -94, -178, 77, -33, 104, -47, 60, 120, 58, -177, 165, 24, 137, 33, 22, -152, -112, -160, 44, -67, 46, -21, 61, 115, 149, -109, 182, -9, 115, 33, 29, 19, -70, -229, 151, 12, -68, -13, -11, 143, 226, -109, 166, 49, 224, 112, -53, 131, 83, -248, 153, -15, -115, -25, 17, 112, 246, 206, 159, -69, -202, -24, 51, -228, -48, 219, 75, 57, 217, 54, 62, 125, 146, -49, 33, -41, -59, 29, 15, 12, -162, 23, 151, 50, 183, 38, 62, 122, -31, 42, 9, -73, 78, 42, 34, -65, -129, -78, 78, 78, 195, 16, 36, 105, -25, -175, 42, -2, 160, 62, 39, -251, -237, -74, 23, 62, 156, -11, 67, 109, 13, -53, 142, -45, 220, 36, 28, -73, -108, -213, 10, 41, 93, -17, 18, 101, -7, -179, 157, -1, 160, 48, 23, -6, -251, -238, 83, 40, 27, -40, 19, 106, 105, -52, 173, -34, 91, 32, 12, 17, -89, -251, 111, 14, -13, -36, -24, 115, 183, -170, 133, -27, -27, 51, 11, -13, -71, -245, 95, 33, -110, 6, -11, 99, 233, 134, 200, -32, -156, -2, 40, 10, -70, 37, 60, 76, 186, 18, 81, 116, 158, -42, -10, -9, -81, 10, 38, 28, -119, -21, 74, 38, 145, 29, 85, 99, -52, 16, -3, -13, 61, 25, 20, 39, -90, -69, 48, 77, 129, 19, 56, 102, -35, -123, 21, -33, 230, 29, 28, 1, -141, -118, -2, 91, 98, -6, 34, 94, -45, -49, 68, -4, 249, 36, 20, 8, -106, -172, 22, 69, 42, -19, 14, 85, -8, -150, 104, -19, 173, 20, 18, 30, -80, -233, 41, 66, -13, -21, -2, 88, 20, -41, 106, 1, 94, 42, 15, 32, -28, -233, 47, 73, -55, -36, -14, 98, 16, -98, 118, -32, -56, 30, 18, 6, 11, -249, 63, 63, -201, -8, -19, 77, 168, 65, 154, 13, -110, -9, 36, 75, -54, 61, -13, 28, 148, 21, 101, 109, 50, -2, -75, -9, -59, -1, 38, 61, -45, 19, 22, 56, 127, 23, 88, 109, -68, -7, -43, -9, 41, -2, 26, 74, -50, -54, -9, 28, 92, 17, 58, 104, -52, -49, -14, 8, 128, 14, 35, 82, -49, -113, -49, 34, 57, 2, 32, 97, -76, -10, 34, -17, 181, 8, 25, 62, -24, -152, -65, 12, 9, -9, -4, 80, -75, -94, 70, 28, 123, 16, 26, 55, -16, -175, -24, 10, -54, -14, -12, 61, -11, 7, 87, -6, 55, 26, 15, 48, 26, -206, -44, 28, -127, -30, -27, 42, -9, -52, 118, 18, 19, 55, 23, 51, 83, -211, -9, 30, -204, -17, -35, 59, 97, 38, 117, 14, -133, -34, 48, 98, -41, 150, -16, 30, 113, 7, 125, 127, 52, 10, -130, 15, -54, -22, 40, 92, 4, 27, -26, 14, 83, 16, 84, 119, -42, 16, -94, 5, 15, -8, 30, 123, 4, -33, -46, 1, 58, 3, 73, 115, -52, -4, -53, 3, 83, -8, 31, 124, 37, -90, -64, -6, 23, -2, 23, 103, -98, 20, -10, 40, 148, 7, 31, 117, 28, -103, -79, -9, -33, -15, -4, 83, -65, -8, 33, 1, 103, -4, 30, 82, 62, -130, -61, 7, -81, -22, -29, 41, -38, 18, 63, 26, 54, 16, 35, 74, 54, -138, -41, 16, -166, -27, -40, -41, 6, 0, 78, 8, 8, 55, 29, 57, 88, -184, -30, 39, -166, -33, -68, -60, 66, 33, 83, 9, -163, -68, 29, 87, -6, 251, 39, 43, 48, 6, 159, 136, 71, 19, -117, 10, -76, -33, 30, 107, 21, 205, 19, 28, 42, 9, 198, 132, -8, 16, -128, 17, -18, -31, 24, 137, 36, 9, -15, 2, 21, 1, 68, 123, -40, 17, -102, 30, 32, -18, 26, 162, 58, -50, -45, 13, -17, -11, 43, 111, -51, 13, -75, 14, 107, -17, 25, 138, 58, -78, -48, -17, -56, -16, -19, 81, -43, 27, -33, 36, 51, -3, 32, 118, 84, -109, -35, 12, -97, -23, -34, 11, -2, 20, 18, 13, 25, 10, 26, 75, 61, -113, 6, 11, -120, -33, -65, -193, 41, 17, 30, 26, -37, 84, 31, 73, 81, -148, 19, 28, -123, -34, -98, -222, 108, 31, 35, 37, -212, -41, 22, 69, 13, 251, 71, 27, 10, -1, 220, 139, 167, 20, -102, 37, -158, -44, 15, 83, 8, 251, 72, 42, 7, 6, 185, 135, 110, 23, -103, 22, -108, -36, 23, 129, 9, 186, 36, 44, -16, 0, 147, 132, 14, 36, -127, 35, 5, -38, 18, 156, 14, 18, -4, 51, -44, -8, 12, 117, 10, 12, -124, 37, 33, -22, 28, 148, 27, -68, -18, 36, -68, -15, -27, 87, 13, 31, -85, 27, -27, -11, 19, 99, 52, -114, 18, 33, -91, -18, -70, -1, 57, 14, -44, 32, -62, 39, 23, 56, 62, -120, 56, 31, -83, -23, -98, -125, 125, 23, -9, 40, -102, 85, 15, 44, 88, -119, 79, 44, -82, -20, -123, -251, 154, 37, 20, 36, -232, -72, 7, 72, 12, 251, 108, 46, -32, -17, 211, 150, 210, 18, -92, 23, -218, -55, 13, 78, 0, 251, 95, 44, -48, 3, 190, 148, 184, 22, -117, 34, -187, -54, 9, 112, -17, 187, 86, 80, -58, -2, 93, 137, 127, 29, -124, 27, -53, -37, 11, 168, -16, 23, 25, 85, -67, -8, -1, 122, 77, 8, -200, 49, -115, -59, 16, 154, 2, -58, 40, 89, -83, -8, -47, 92, 76, 49, -121, 51, -82, 44, 19, 119, 9, -90, 27, 64, -92, -16, -87, 23, 112, 13, -102, 56, -143, 123, 11, 55, 49, -105, 70, 60, -87, -16, -129, -96, 159, 38, -54, 44, -148, 103, 13, 59, 47, -81, 111, 43, -93, -14, -138, -173, 191, 34, -19, 66
};

int FLIP[120];

#ifdef OPENBENCH
// Deterministic PRNG for openbench build consistency
uint32_t rng_32() {
    static uint64_t RNG_STATE = 0xcafef00dd15ea5e5;
    // Pcg32
    uint64_t old = RNG_STATE;
    RNG_STATE = old * 6364136223846793005ull + 0xa02bdbf7bb3c0a7ull;
    uint32_t xorshifted = ((old >> 18u) ^ old) >> 27u;
    uint32_t rot = old >> 59u;
    return (xorshifted >> rot) | (xorshifted << ((-rot) & 31));
}
uint64_t rng() {
    return (uint64_t) rng_32() << 32 | rng_32();
}
#endif

struct Zobrist {
    uint64_t pieces[25][SQUARE_SPAN];
    uint64_t ep[120];
    uint64_t castle_rights[4];
    uint64_t stm;
} ZOBRIST;

void init_tables() {
    int *ft_data = ft_raw;

    for (int c : {WHITE, BLACK}) {
        for (int p = PAWN; p <= KING; p++) {
            for (int rank = 0; rank < 8; rank++) {
                for (int file = 0; file < 8; file++) {
                    for (int i = 0; i < 16; i++) {
                        FT_WEIGHTS[c | p][rank*10+file][i] = *ft_data++;
                    }
                }
            }
        }
    }

    for (int r = 0; r < 120; r+=10) {
        for (int f = 0; f < 10; f++) {
            FLIP[r+f] = 110-r+f;
        }
    }

    // Zobrist keys
#ifdef OPENBENCH
    for (int i = 0; i < 25; i++) {
        for (int j = 0; j < SQUARE_SPAN; j++) {
            ZOBRIST.pieces[i][j] = rng();
        }
    }
    for (int i = 0; i < 120; i++) {
        ZOBRIST.ep[i] = rng();
    }
    ZOBRIST.castle_rights[0] = rng();
    ZOBRIST.castle_rights[1] = rng();
    ZOBRIST.castle_rights[2] = rng();
    ZOBRIST.castle_rights[3] = rng();
    ZOBRIST.stm = rng();
#else
    auto rng = fopen("/dev/urandom", "r");
    fread(&ZOBRIST, sizeof(ZOBRIST), 1, rng);
#endif
}
