int FT_WEIGHTS[25][SQUARE_SPAN][16];
int FT_BIAS[16] = {7, 36, -34, -18, 60, 4, 158, 54, 15, 80, -21, 85, 129, 14, -20, 36};
int OUT_WEIGHTS[32] = {-36, -59, 37, 23, -19, -23, -21, 39, 97, -89, 31, 14, 33, -18, -32, 22, 36, 58, -34, -23, 24, 23, 22, -35, -93, 89, -31, -27, -26, 18, 32, -21};
int OUT_BIAS = 79;
int ft_raw[] = {
    -4, 0, 3, -1, 0, 0, 1, 0, -4, 4, 2, 0, 3, -3, 1, 4, 4, 0, 3, 3, 4, 0, 0, 2, -4, -4, 3, 3, 0, 3, 0, 3, -2, -3, 0, -1, -4, 4, 4, -3, 0, 0, 4, 3, -2, 1, 0, 0, 4, 0, 0, -2, 4, 2, 4, -2, -2, 2, 2, 2, 1, 2, -2, -2, 2, 1, -2, -3, 0, -4, 3, 2, -3, 2, 3, 2, 4, 4, -3, 3, -4, -3, -4, -1, 1, 1, 2, 2, 1, 4, 2, 2, -4, -1, 0, 2, 3, -2, -1, 4, 4, -2, 1, -3, -1, -3, 4, 2, 2, 0, 4, -2, -1, 1, -4, 1, 1, 4, -1, 3, 1, -1, 4, 1, 0, -1, -2, -2, 0, 2, 11, 25, -44, -61, -31, -12, 4, -16, 13, 40, 28, -4, -14, 17, -1, 0, -7, 105, -34, 26, -35, -7, 2, -13, 17, 39, 29, -24, -12, 7, -11, 0, 15, 32, -31, -53, -26, -11, 3, -10, 14, 40, 30, 34, -10, -11, 5, -6, 31, -26, -18, -1, -14, -10, 9, -10, 22, 16, 17, -68, -15, -47, -27, -4, 21, -19, -1, -14, -11, -6, 12, -14, 27, 18, 13, 87, -19, -4, -4, 2, 6, 2, -6, -25, -12, 2, 18, -13, 20, 13, 11, -85, -2, 10, -25, 3, -5, 14, 4, 31, -11, 2, 13, -17, 20, 16, 15, 58, 16, 11, -15, 1, 8, 12, 15, -26, 4, 3, 4, -18, 23, -1, -3, -67, 27, 4, 3, 3, 5, 29, -47, -58, -21, -20, 2, -16, 10, 31, 25, -1, -9, 13, -9, 0, -1, 57, -27, 46, -28, -14, 2, -12, 21, 37, 32, -28, -13, 9, 3, 0, 19, 57, -20, -54, -20, -20, 7, -13, 23, 28, 24, 47, 0, -25, -14, -3, 31, -4, -17, 22, -8, -11, 7, -10, 33, 11, 9, -69, -7, -60, 2, -2, 19, -36, -16, -17, -13, 2, 11, -16, 31, 18, 12, 101, -12, -8, -22, 3, 4, 1, -6, -18, 5, 8, 14, -13, 34, 5, 3, -119, -3, 19, -2, 1, 0, 13, -10, 32, -8, 9, 14, -19, 26, 17, 13, 68, 20, 10, -16, 3, 6, 14, 21, -31, 5, 5, 3, -16, 24, 2, -1, -72, 32, 10, -1, 2, 5, 19, -34, -51, -20, -65, 3, -18, 13, 17, 24, -6, -10, 13, -1, -2, 3, 44, -24, 44, -21, -63, 4, -16, 24, 17, 28, -27, -10, 7, -15, 2, 16, 18, -17, -69, -25, -40, 4, -19, 31, 20, 26, 29, 1, -17, 16, -2, 30, 16, -15, 31, -14, -16, 8, -15, 33, 11, 11, -55, 1, -41, -28, -1, 20, -5, -9, -11, -16, 2, 5, -22, 49, 25, 17, 80, -4, -12, 8, 4, 29, -4, -11, -3, 2, 13, 10, -17, 41, 9, 4, -94, -3, 16, -15, -3, 22, 17, -9, 29, 0, 21, 6, -23, 41, 14, 12, 49, 12, 19, -11, -2, 22, 14, 11, -24, 7, 10, 4, -18, 21, 3, 2, -61, 32, 14, 3, 4, -3, 16, -22, -49, -33, -129, 4, -17, 9, 25, 45, -6, -6, 17, -13, 3, 8, 20, -26, 44, -38, -123, 4, -19, 16, 30, 54, -21, -5, 4, 2, 4, 24, 5, -13, -99, -35, -84, 1, -25, 22, 37, 51, 16, -1, 13, -15, -1, 28, 5, -11, 25, -19, -35, -2, -16, 35, 21, 24, -39, 11, -4, 8, 0, 56, 3, -21, -8, -21, -6, -2, -28, 51, 33, 32, 38, -7, 10, -11, 4, 45, 4, -7, 12, -7, 18, -1, -19, 34, 24, 19, -81, 0, 14, 2, -6, 45, 13, -26, 31, -18, 16, 3, -26, 31, 35, 25, 32, 33, 26, -17, -6, 41, 21, -4, -18, -3, 11, 1, -18, 19, 17, 12, -56, 40, 18, -10, 4, -6, 3, -25, -45, -53, -197, 7, -17, -9, 46, 78, -3, -2, 20, -9, 5, 16, 3, -28, 32, -50, -176, 2, -26, -13, 46, 84, -16, -10, 17, -22, 14, 43, 2, -19, -186, -44, -132, -6, -25, 2, 49, 74, 12, -10, 33, 2, 10, 62, -6, -23, -7, -33, -80, -8, -21, 9, 48, 57, -14, 1, 24, -28, 7, 76, -20, -42, -25, -35, -46, -17, -28, 42, 57, 59, 28, -11, 46, 8, -8, 88, -3, -34, 12, -20, -2, -12, -26, 15, 45, 38, -89, -13, 29, -24, -20, 73, 5, -52, 37, -24, 14, -12, -28, 32, 43, 37, 36, 51, 41, -8, -18, 54, 16, -18, -26, -19, 10, -4, -20, -2, 41, 31, -59, 68, 23, 14, 0, 5, 16, -41, -176, -69, -202, 7, -24, -52, 34, 92, 37, -48, 6, -232, 0, 6, 20, -45, 23, -66, -233, -3, -32, -54, 30, 96, -9, -41, -7, 11, 13, 58, 21, -30, -174, -54, -167, -20, -37, 8, 33, 85, 31, -65, 61, -107, 12, 55, -4, -38, -5, -46, -116, -24, -30, 16, 40, 77, -20, -61, 45, 23, -32, 97, -22, -31, -111, -38, -76, -56, -35, 57, 45, 67, 45, -108, 71, -161, -138, 66, -35, -21, -13, -28, -77, -55, -30, 41, 28, 47, -218, -66, 32, 14, -251, 81, -33, -33, -6, -39, -10, -57, -49, 18, 40, 63, 45, 152, 36, -224, -251, 28, -49, -7, -91, -16, 5, -27, -31, -1, 20, 32, -251, 34, 23, -3, -3, -2, 1, -2, 4, -4, 3, -3, -4, 3, 2, 0, -1, 4, -3, 0, 4, -4, -1, 1, 2, 0, 0, -4, -1, -2, -2, -4, 4, -1, -2, -1, 4, 1, 1, 3, 0, 3, 3, -1, -4, 3, -4, 4, -2, 2, 0, -2, -4, 3, -4, 3, 2, 1, -4, 0, 2, 0, 0, -1, -3, 3, 3, 1, -4, -1, 1, 2, -3, 2, 1, 1, 4, -4, 2, 3, -4, 0, -3, -4, 0, 5, -3, -2, 0, -3, -2, 2, 4, -4, -2, 0, -1, -2, -2, -4, 0, -2, -3, 1, 0, 4, 3, 4, -4, -2, 1, 3, 1, -4, 2, 3, -2, 0, 2, -3, 1, 1, 4, -3, -2, 2, 0, 4, 0, -4, 5, -7, -22, -17, 16, -34, -13, -26, 52, 23, -26, 63, 25, 23, -25, -19, -20, -13, -24, -27, 24, -31, -25, -15, 58, 26, -34, 55, 16, 14, -40, -25, 2, -14, -24, -14, 31, -40, -12, -28, 46, 26, -21, 48, 31, 29, -14, -23, -29, -16, -21, -6, 27, -39, -21, -21, 41, 26, -23, 61, 25, 30, -31, -19, 14, -21, -20, -1, 29, -31, -15, -22, 45, 29, -22, 55, 25, 25, -15, -18, -31, -23, -18, 1, 36, -23, -16, -17, 41, 29, -23, 56, 18, 23, -26, -20, 9, -18, -19, 2, 30, -15, -11, -7, 62, 28, -32, 53, 3, 11, -22, -16, -22, -21, -16, 3, 25, -17, -1, -6, 56, 20, -43, 64, 1, 11, -36, -15, -11, -8, -26, -19, 28, -31, -36, -17, 35, 23, -24, 60, 33, 25, -27, -21, 0, -18, -26, -6, 54, -29, -16, -20, 18, 27, -23, 52, 30, 29, -35, -20, 4, -14, -25, -3, 37, -42, -23, -38, 25, 23, -20, 54, 38, 37, -9, -20, -13, -21, -23, 12, 20, -37, -17, -26, 30, 27, -23, 47, 32, 32, -30, -22, 2, -22, -20, 15, 22, -29, -19, -30, 38, 28, -25, 52, 29, 31, -11, -19, -12, -27, -15, 14, 30, -29, -19, -20, 42, 30, -24, 53, 21, 27, -34, -17, 4, -22, -19, 12, 39, -24, -18, -11, 53, 30, -25, 54, 18, 20, -15, -25, -5, -26, -15, 15, 32, -14, -18, -11, 50, 25, -25, 53, 15, 18, -32, -28, -21, -14, -27, -12, 37, -31, -30, -21, 26, 25, -22, 54, 31, 31, -26, -21, 17, -16, -28, -1, 31, -44, -12, -35, 14, 25, -18, 44, 43, 42, -20, -20, -19, -21, -23, 8, 38, -35, -29, -40, 10, 26, -22, 49, 41, 41, -22, -19, 29, -21, -24, 25, 31, -37, -22, -37, 22, 29, -20, 34, 41, 37, -18, -23, -39, -26, -21, 31, 23, -38, -27, -33, 25, 28, -22, 55, 36, 37, -14, -22, 28, -20, -20, 23, 25, -28, -20, -31, 43, 30, -22, 32, 34, 26, -13, -18, -18, -27, -17, 27, 30, -33, -12, -21, 46, 27, -23, 53, 28, 29, -12, -20, 19, -19, -21, 13, 36, -20, -12, -19, 66, 26, -25, 38, 18, 17, -25, -20, -21, -16, -31, -5, 16, -42, -32, -32, 8, 21, -19, 47, 35, 33, -26, -23, 20, -21, -36, 14, 37, -45, -19, -37, -6, 21, -17, 35, 46, 41, -21, -25, -13, -19, -30, 35, 31, -47, -33, -40, -6, 23, -19, 39, 51, 44, -13, -20, 17, -22, -28, 42, 25, -42, -25, -40, 4, 26, -20, 32, 45, 46, -28, -24, -25, -26, -23, 49, 18, -45, -26, -31, 18, 23, -22, 38, 39, 36, -9, -23, 21, -26, -22, 42, 25, -34, -30, -38, 33, 30, -21, 20, 37, 36, -27, -23, -2, -24, -19, 46, 30, -27, -28, -21, 53, 23, -20, 30, 31, 28, -13, -29, 23, -24, -21, 40, 37, -21, -19, -24, 53, 24, -21, 29, 28, 24, -26, -18, -15, -10, -37, 6, 19, -43, -33, -34, 1, 21, -16, 32, 39, 36, -18, -18, 7, -17, -35, 16, 30, -50, -17, -37, -3, 19, -19, 35, 43, 43, -27, -19, 27, -24, -38, 33, 29, -52, -39, -41, -1, 22, -17, 23, 48, 47, -10, -20, 1, -22, -29, 48, 22, -50, -19, -42, 4, 19, -16, 33, 47, 47, -43, -25, 26, -23, -30, 49, 21, -41, -31, -42, 13, 24, -21, 8, 46, 43, 9, -21, -4, -23, -19, 59, 27, -34, -28, -33, 29, 21, -18, 39, 38, 38, -32, -28, 31, -20, -25, 42, 28, -27, -20, -33, 37, 24, -24, 2, 37, 36, -7, -27, 7, -18, -15, 42, 30, -35, -15, -26, 47, 20, -21, 35, 33, 34, -31, -20, 11, -7, -42, 6, 4, -42, -33, -36, -15, 16, -21, 19, 44, 45, -22, -13, -7, -17, -34, 14, 30, -55, -6, -41, -2, 15, -19, 32, 48, 47, -39, -13, 39, -8, -39, 31, 19, -46, -40, -42, -11, 14, -15, 20, 54, 55, -8, -23, -1, -20, -31, 46, 17, -50, -10, -40, -2, 13, -16, 29, 51, 51, -26, -12, 24, -13, -23, 40, 14, -49, -15, -47, 11, 14, -19, 17, 60, 56, -5, -22, 9, -25, -14, 46, 21, -38, -19, -39, 33, 15, -17, 29, 38, 44, -42, -49, 29, -14, -20, 31, 21, -44, -6, -46, 29, 18, -19, 17, 47, 41, 5, -9, 2, -22, -16, 63, 21, -26, -14, -23, 43, 15, -22, 31, 33, 31, -44, -20, 29, -13, -37, 7, 13, -39, -10, -35, -34, 12, -21, 30, 33, 39, -32, -19, 23, -12, -32, 25, 17, -38, -29, -32, -11, 13, -23, 30, 33, 35, -21, -21, 19, -20, -32, 35, 20, -49, -5, -34, -10, 10, -19, 15, 50, 47, -43, -28, 15, -12, -28, 42, 15, -55, -25, -42, -4, 10, -17, 21, 53, 45, -17, -34, 5, -17, -25, 58, 16, -43, -12, -38, 2, 14, -19, 19, 45, 44, -25, -30, 17, -6, -24, 31, 17, -37, -16, -38, 20, 7, -20, 22, 52, 46, -2, 10, 11, -21, -46, 64, 11, -23, -17, -16, 13, 8, -23, 35, 15, 22, -47, -19, 29, -17, -20, 49, 22, -26, -15, -18, 38, 9, -24, 17, 29, 22, -34, -32, 17, -3, -16, 22, -1, -38, -22, -49, -155, 4, -20, -40, 31, 55, -47, -22, 35, -30, -35, 26, -4, -23, -19, -18, -52, 12, -26, 12, 21, 21, -22, -16, 20, -31, -36, 53, 16, -13, -32, -7, -39, 8, -22, 15, 10, 14, -43, -39, 42, -17, -29, 61, 8, -29, -31, -21, -17, 8, -22, 15, 23, 23, -19, -36, 19, -30, -27, 56, 22, -36, -7, -26, 3, 9, -20, 28, 35, 28, -34, -32, 39, -23, -79, 91, -25, -7, -43, -5, -29, -6, -30, -5, 1, 14, -25, -48, 22, -29, -71, 71, 2, -10, -21, 2, -16, -1, -22, 28, -1, 8, -26, -28, 39, -29, -53, 61, 26, -31, -44, -26, -4, -15, -24, -24, 24, 31, -35, -4, 12, 48, -25, -7, -93, -51, -14, -53, 64, 15, -36, 30, 59, 51, -11, -35, 39, -84, -16, 9, 34, -48, -11, -32, 58, 27, -30, 40, 48, 39, -19, -29, 11, 47, -32, -4, 35, -48, -30, -30, 40, 20, -45, 36, 31, 33, -12, -31, 9, -96, -21, 7, 36, -47, -10, -31, 33, 28, -32, 45, 35, 36, -22, -22, -3, 44, -31, -6, 25, -41, -31, -28, 27, 22, -41, 51, 30, 33, -25, -26, 19, -97, -26, -6, 33, -23, -2, -27, 17, 27, -31, 39, 28, 34, -18, -26, 13, 42, -31, -10, 29, -37, -29, -25, 14, 16, -46, 47, 20, 35, -17, -22, 15, -114, -24, 9, 26, -33, 6, -29, -5, 23, -45, 41, 19, 39, -9, -23, 4, -80, -14, 6, 38, -43, -9, -46, 51, 23, -32, 28, 59, 49, -22, -19, 24, 46, -24, -10, 22, -43, -24, -48, 52, 18, -38, 22, 54, 48, -10, -23, 29, -95, -16, 18, 48, -42, -1, -44, 34, 26, -27, 28, 53, 46, -24, -27, 11, 47, -30, 10, 25, -41, -34, -38, 24, 22, -37, 34, 43, 48, 2, -25, -1, -93, -23, 9, 26, -35, -8, -38, 19, 29, -29, 38, 39, 36, -34, -19, 15, 49, -32, -6, 24, -41, -23, -41, 12, 25, -36, 37, 41, 47, 7, -22, 26, -96, -28, 3, 33, -33, -2, -41, 13, 30, -30, 27, 39, 46, -14, -15, 16, 45, -31, -8, 32, -36, -14, -36, 12, 17, -43, 38, 32, 41, -12, -24, 9, 44, -31, -3, 21, -45, -36, -42, 37, 17, -38, 22, 52, 47, -16, -26, 20, -93, -16, 19, 41, -43, -6, -47, 30, 27, -27, 17, 61, 50, -17, -22, 24, 48, -26, 13, 39, -39, -27, -49, 21, 23, -35, 23, 61, 57, -2, -30, 29, -102, -22, 34, 37, -36, -12, -46, 16, 29, -28, 27, 50, 45, -22, -27, -5, 50, -32, 10, 15, -44, -30, -47, 7, 23, -36, 36, 46, 50, -1, -28, 26, -105, -26, 20, 29, -41, -16, -44, 12, 32, -29, 25, 51, 49, -16, -16, 17, 45, -33, 5, 28, -40, -14, -41, 17, 24, -37, 30, 47, 52, 2, -21, 19, -96, -29, 20, 36, -28, 3, -33, 28, 26, -31, 18, 38, 35, -22, -25, 14, -89, -26, 14, 36, -44, -4, -42, 20, 23, -30, 22, 57, 46, -22, -14, 21, 44, -31, 15, 38, -47, -36, -45, 16, 19, -35, 23, 55, 53, -15, -28, 26, -98, -22, 37, 45, -53, -19, -44, 5, 27, -28, 14, 55, 49, -21, -25, 11, 46, -29, 30, 26, -51, -34, -54, 0, 23, -34, 22, 64, 61, -27, -33, -3, -108, -23, 43, 26, -50, -9, -44, 11, 29, -27, 23, 52, 51, 1, -21, 6, 45, -34, 16, 19, -39, -34, -47, 17, 25, -35, 25, 47, 49, -9, -25, 25, -103, -26, 34, 30, -35, -7, -27, 33, 26, -29, 20, 40, 34, -31, -17, 18, 48, -32, 19, 27, -36, -16, -35, 42, 18, -43, 31, 40, 38, -9, -22, 21, 50, -35, 6, 18, -42, -36, -37, 19, 15, -38, 23, 44, 48, -13, -23, 30, -96, -26, 21, 41, -52, -6, -37, 1, 26, -27, 26, 51, 46, -28, -19, 21, 45, -32, 21, 30, -49, -45, -50, -6, 20, -33, 19, 58, 57, -6, -22, 19, -108, -23, 45, 30, -53, 1, -47, -2, 24, -25, 18, 62, 57, -39, -28, 13, 47, -33, 41, 22, -50, -38, -48, 12, 18, -34, 14, 63, 61, 5, -30, 19, -107, -21, 52, 34, -39, -9, -37, 26, 25, -25, 19, 50, 39, -36, -21, 29, 47, -33, 26, 27, -35, -30, -43, 35, 20, -37, 21, 49, 44, -7, -23, 22, -97, -24, 35, 30, -37, -2, -30, 37, 24, -31, 15, 45, 35, -35, -15, 18, -99, -39, 18, 14, -37, -21, -27, 7, 18, -25, 21, 40, 40, -35, -21, 23, 54, -37, 7, 25, -45, -36, -50, -12, 19, -34, 23, 55, 58, -11, -18, 24, -118, -31, 28, 26, -49, -14, -49, -14, 21, -27, 17, 55, 56, -36, -13, 20, 55, -32, 26, 22, -48, -22, -55, 5, 17, -32, 17, 66, 63, -24, -20, 17, -112, -22, 45, 29, -50, -10, -45, 20, 19, -27, 13, 63, 51, -30, -18, 30, 58, -25, 41, 27, -52, -33, -51, 37, 10, -32, 25, 60, 48, -8, -22, 32, -109, -15, 42, 42, -51, 1, -34, 42, 23, -28, 19, 45, 41, -31, -32, 22, 49, -27, 30, 18, -48, -25, -43, 30, 14, -39, 15, 46, 43, -9, -37, 20, 59, -32, -20, 0, -46, -40, -50, -9, 17, -42, 22, 52, 57, -10, -21, 10, -121, -30, 7, 25, -40, 8, -42, -27, 24, -30, 19, 54, 54, -42, -13, 8, 60, -31, 15, 18, -42, -48, -42, -13, 22, -40, 22, 53, 53, -13, -27, 30, -112, -27, 35, 30, -42, 0, -32, 5, 18, -31, 25, 48, 43, -46, -19, 20, 60, -32, 33, 17, -43, -38, -39, 19, 10, -39, 16, 52, 42, -21, -29, 39, -123, -18, 44, 36, -45, -18, -36, 37, 16, -27, 28, 50, 41, -47, -28, 29, 77, -34, 30, 31, -56, -23, -39, 66, 9, -38, 20, 61, 44, -2, -25, 18, -116, -10, 35, 24, -41, 0, -29, 71, 19, -31, 32, 46, 35, -44, -26, 13, -97, -30, 16, -2, -43, -40, -40, -5, 21, -31, -10, 36, 38, -37, -11, 34, 25, -31, 17, 7, -36, -52, -22, -8, 25, -35, 6, 35, 30, -17, -17, 25, -120, -30, 39, 11, -31, -28, -19, -5, 24, -31, 10, 30, 25, -37, -16, 33, 39, -35, 30, 24, -30, -45, -14, 4, 16, -43, 31, 29, 25, -37, -22, 48, -106, -29, 34, 32, -37, -18, -22, 19, 20, -33, 14, 44, 32, -43, -19, 27, 25, -52, 46, 12, -35, -52, -15, 15, 4, -42, 8, 29, 19, -37, -26, 31, -92, -31, 37, 29, -37, -18, -19, 39, 16, -31, 7, 41, 29, -33, -41, 34, 49, -23, 25, 8, -63, -38, -37, 45, 14, -40, -10, 43, 41, -25, -30, 16, -37, -58, 25, 0, -64, -56, -37, 0, 41, -75, 52, 33, 44, -38, -56, 15, -32, -59, 28, -28, -63, -21, -37, 12, 41, -70, 47, 42, 48, -32, -52, 17, -38, -57, 17, 2, -50, -58, -34, 21, 40, -68, 37, 43, 48, -19, -49, 30, -35, -55, 15, 30, -31, -30, -35, 27, 40, -67, 37, 41, 43, -31, -50, 55, -40, -54, 21, 42, -36, -28, -39, 32, 39, -70, 29, 44, 51, -5, -44, 25, -37, -56, 36, 39, -36, -39, -36, 36, 35, -70, 40, 36, 38, -51, -57, 17, -48, -45, 53, 32, -37, -3, -37, 36, 37, -76, 30, 44, 45, 3, -50, 14, -39, -46, 40, 36, -24, -37, -32, 26, 43, -75, 42, 32, 38, -51, -41, 20, -32, -53, 24, -33, -48, -62, -35, 1, 43, -73, 67, 38, 41, -38, -52, 13, -41, -55, 23, -5, -41, -24, -32, 7, 44, -72, 48, 40, 46, -34, -48, 22, -35, -54, 24, 11, -33, -59, -30, 16, 42, -67, 43, 43, 46, -21, -45, 35, -38, -52, 19, 41, -28, -33, -25, 20, 44, -65, 49, 35, 41, -29, -48, 61, -37, -51, 31, 60, -29, -34, -30, 28, 42, -68, 37, 42, 40, -3, -49, 28, -43, -49, 43, 55, -26, -26, -24, 34, 39, -69, 47, 38, 37, -50, -51, 22, -40, -42, 57, 43, -36, -7, -30, 44, 40, -71, 36, 42, 39, -2, -48, 15, -46, -45, 54, 40, -25, -32, -18, 30, 42, -72, 47, 31, 35, -49, -42, 18, -34, -55, 16, -5, -41, -52, -37, 19, 40, -72, 54, 47, 48, -30, -51, 28, -37, -57, 21, 0, -39, -30, -40, 20, 40, -68, 41, 52, 53, -25, -46, 28, -43, -57, 26, 25, -34, -56, -32, 18, 43, -68, 38, 43, 41, -19, -47, 33, -37, -54, 30, 33, -31, -39, -29, 20, 43, -67, 41, 37, 38, -22, -47, 60, -47, -53, 32, 39, -33, -30, -26, 30, 43, -70, 30, 46, 42, -3, -55, 28, -37, -50, 44, 51, -34, -32, -26, 38, 40, -70, 37, 40, 38, -33, -51, 31, -45, -44, 49, 47, -40, -10, -31, 46, 40, -70, 32, 48, 43, -5, -46, 21, -41, -49, 48, 46, -28, -30, -33, 39, 40, -72, 45, 40, 40, -36, -39, 16, -32, -54, 24, 6, -44, -55, -36, 31, 43, -72, 47, 55, 47, -28, -49, 34, -45, -59, 22, 24, -47, -34, -37, 21, 44, -69, 35, 54, 46, -31, -53, 31, -38, -57, 32, 25, -42, -57, -36, 17, 46, -66, 38, 54, 41, -15, -52, 31, -49, -55, 34, 36, -42, -45, -32, 20, 46, -66, 35, 42, 37, -24, -53, 35, -41, -54, 39, 39, -39, -40, -29, 32, 44, -68, 30, 40, 38, -6, -52, 26, -49, -47, 44, 40, -33, -34, -24, 46, 45, -70, 36, 42, 36, -44, -49, 36, -44, -45, 46, 39, -36, -29, -24, 52, 42, -73, 27, 39, 35, -14, -42, 26, -46, -49, 41, 39, -36, -34, -32, 39, 45, -73, 36, 41, 38, -45, -31, 24, -42, -57, 38, 17, -47, -58, -37, 45, 46, -73, 36, 54, 43, -29, -58, 27, -40, -58, 32, 33, -56, -40, -34, 25, 46, -68, 36, 55, 42, -31, -54, 16, -47, -57, 45, 29, -49, -55, -35, 27, 48, -65, 31, 49, 37, -25, -57, 34, -37, -57, 46, 33, -40, -44, -34, 26, 43, -65, 32, 40, 38, -25, -58, 13, -53, -52, 53, 34, -42, -46, -32, 37, 45, -66, 23, 38, 33, -19, -54, 33, -36, -48, 54, 36, -42, -40, -24, 47, 44, -67, 29, 39, 35, -38, -52, 26, -54, -43, 55, 34, -39, -32, -26, 55, 44, -71, 23, 40, 34, -21, -50, 24, -40, -49, 49, 38, -39, -33, -32, 48, 46, -74, 33, 41, 38, -42, -27, 26, -31, -59, 57, 16, -47, -63, -36, 49, 49, -69, 23, 57, 43, -30, -57, 32, -46, -60, 46, 36, -60, -36, -37, 35, 48, -63, 23, 51, 40, -31, -53, 15, -33, -61, 59, 22, -45, -64, -33, 28, 45, -60, 21, 48, 40, -31, -60, 39, -50, -57, 60, 32, -47, -40, -38, 32, 42, -60, 18, 44, 43, -28, -58, 10, -30, -54, 62, 30, -42, -47, -28, 37, 40, -61, 16, 39, 38, -31, -59, 43, -52, -47, 70, 33, -40, -39, -35, 43, 43, -61, 20, 38, 37, -41, -61, 26, -38, -49, 64, 31, -35, -41, -33, 39, 43, -66, 17, 34, 32, -34, -55, 26, -53, -56, 69, 31, -33, -41, -30, 37, 48, -69, 19, 38, 33, -47, -37, 29, -35, -58, 68, 10, -54, -53, -40, 40, 53, -65, 7, 58, 45, -31, -60, 41, -36, -61, 64, 26, -50, -42, -36, 22, 50, -61, 9, 53, 43, -27, -60, 32, -39, -60, 70, 10, -45, -56, -34, 22, 50, -57, 1, 49, 45, -29, -62, 46, -34, -62, 69, 19, -43, -46, -38, 23, 45, -58, 12, 52, 46, -23, -65, 27, -49, -61, 74, 23, -34, -48, -32, 32, 46, -59, -2, 44, 38, -29, -72, 50, -34, -56, 78, 30, -32, -45, -27, 41, 46, -61, 24, 40, 35, -40, -75, 39, -50, -54, 78, 21, -29, -45, -17, 37, 51, -64, 3, 32, 31, -34, -66, 40, -42, -57, 79, 19, -29, -46, -33, 32, 52, -65, 7, 38, 36, -40, -38, 45, -25, -57, 63, 8, -54, -66, -43, 49, 38, -62, 13, 59, 48, -19, -57, 46, -55, -63, 56, 24, -57, 11, -47, 22, 38, -60, 9, 59, 60, -36, -51, 26, -26, -61, 56, 1, -55, -54, -55, 10, 37, -57, 0, 65, 69, -25, -57, 48, -46, -62, 58, 13, -52, -17, -52, 10, 33, -57, 2, 61, 61, -31, -52, 29, -30, -64, 58, 12, -51, -35, -53, 10, 32, -60, -5, 56, 63, -23, -55, 50, -49, -64, 67, 12, -46, -33, -48, 11, 33, -58, 14, 52, 60, -53, -63, 24, -30, -62, 56, 16, -46, -21, -48, 10, 38, -60, 13, 54, 60, 3, -43, 23, -50, -80, 69, 26, -38, -51, -41, 4, 39, -58, 10, 43, 52, -59, -44, 40, -64, -135, 47, -11, -86, -80, -53, 79, 80, -121, 46, 53, 66, -80, -90, 65, -79, -130, 56, 40, -78, -55, -51, 87, 82, -121, 46, 53, 66, -71, -85, 64, -65, -128, 47, 74, -78, -72, -53, 87, 80, -121, 50, 53, 67, -70, -84, 64, -80, -124, 43, 80, -72, -63, -57, 103, 82, -121, 49, 51, 58, -67, -82, 63, -74, -127, 43, 86, -66, -66, -53, 96, 76, -118, 47, 56, 65, -68, -81, 59, -86, -126, 59, 91, -49, -66, -45, 90, 75, -116, 53, 49, 61, -81, -80, 59, -75, -118, 67, 88, -51, -59, -44, 82, 69, -124, 53, 39, 55, -61, -78, 49, -94, -117, 83, 93, -46, -58, -44, 76, 81, -125, 42, 40, 58, -85, -87, 57, -77, -137, 54, 28, -67, -71, -59, 89, 82, -115, 36, 62, 65, -74, -78, 69, -69, -132, 43, 38, -73, -58, -60, 88, 79, -116, 43, 69, 71, -69, -75, 72, -79, -126, 50, 69, -73, -65, -65, 101, 81, -113, 38, 68, 72, -71, -77, 74, -70, -123, 46, 85, -70, -62, -64, 98, 80, -114, 52, 62, 69, -70, -81, 69, -87, -123, 58, 89, -60, -62, -66, 93, 81, -112, 41, 64, 72, -62, -73, 68, -74, -118, 57, 95, -60, -63, -62, 89, 78, -112, 52, 65, 70, -77, -69, 57, -87, -114, 78, 89, -59, -48, -62, 99, 77, -114, 42, 67, 68, -55, -79, 55, -76, -110, 80, 98, -60, -58, -56, 80, 77, -121, 38, 58, 65, -92, -80, 46, -67, -140, 47, 44, -68, -64, -59, 88, 81, -117, 36, 65, 66, -72, -74, 73, -83, -129, 47, 63, -72, -66, -67, 91, 83, -113, 30, 76, 74, -65, -74, 76, -69, -126, 55, 72, -68, -68, -68, 80, 83, -114, 35, 76, 74, -70, -75, 81, -89, -121, 68, 82, -64, -60, -69, 85, 84, -113, 38, 74, 77, -72, -75, 71, -70, -120, 63, 79, -68, -67, -64, 86, 83, -113, 38, 73, 74, -61, -73, 71, -89, -120, 78, 87, -64, -65, -70, 87, 83, -112, 34, 78, 80, -61, -73, 70, -74, -117, 75, 97, -69, -57, -65, 88, 80, -113, 33, 78, 77, -73, -77, 59, -84, -116, 92, 92, -60, -53, -64, 96, 78, -117, 28, 73, 75, -74, -83, 54, -80, -141, 49, 62, -74, -66, -62, 92, 84, -117, 31, 68, 69, -68, -71, 76, -73, -140, 55, 62, -69, -71, -67, 69, 83, -117, 29, 76, 72, -73, -67, 78, -89, -130, 77, 71, -77, -70, -69, 69, 85, -113, 23, 81, 82, -75, -71, 73, -75, -125, 80, 75, -75, -76, -74, 63, 85, -115, 33, 82, 80, -68, -75, 70, -91, -121, 96, 78, -73, -71, -68, 75, 87, -112, 26, 80, 80, -71, -71, 67, -74, -119, 90, 83, -70, -72, -67, 83, 84, -116, 28, 78, 75, -66, -73, 73, -87, -119, 99, 89, -66, -66, -60, 95, 82, -114, 21, 75, 74, -76, -81, 66, -74, -119, 99, 94, -71, -63, -68, 90, 79, -119, 26, 74, 75, -78, -80, 61, -71, -152, 57, 53, -68, -68, -60, 93, 84, -116, 23, 71, 72, -73, -66, 74, -87, -144, 69, 66, -77, -66, -64, 63, 85, -117, 28, 75, 75, -77, -68, 77, -73, -143, 86, 67, -74, -73, -69, 56, 87, -117, 22, 75, 74, -80, -68, 82, -94, -137, 99, 72, -76, -66, -71, 59, 85, -112, 9, 93, 81, -83, -66, 67, -77, -129, 112, 74, -76, -80, -68, 63, 85, -114, 4, 86, 81, -75, -70, 84, -87, -120, 121, 83, -69, -76, -67, 67, 86, -114, 8, 83, 79, -78, -73, 74, -77, -120, 112, 91, -71, -72, -65, 88, 81, -118, 15, 79, 74, -70, -80, 67, -80, -123, 106, 90, -66, -69, -68, 97, 78, -117, 11, 84, 75, -86, -76, 67, -84, -158, 72, 51, -68, -74, -64, 87, 83, -115, 13, 72, 73, -84, -66, 77, -70, -162, 74, 60, -71, -68, -68, 64, 85, -118, 12, 76, 79, -81, -51, 76, -91, -169, 99, 62, -77, -80, -67, 56, 86, -115, 4, 81, 83, -82, -52, 81, -69, -147, 104, 73, -77, -60, -79, 57, 87, -119, 2, 86, 86, -90, -55, 69, -94, -129, 116, 81, -78, -76, -76, 61, 85, -115, -14, 85, 83, -85, -60, 80, -73, -118, 119, 88, -78, -68, -72, 56, 81, -118, -4, 87, 90, -77, -85, 71, -83, -120, 122, 92, -75, -62, -68, 74, 80, -119, -1, 79, 79, -83, -99, 74, -77, -116, 123, 96, -67, -76, -65, 82, 74, -117, 7, 72, 80, -82, -80, 61, -68, -162, 73, 50, -71, -72, -65, 75, 82, -113, 1, 74, 78, -76, -61, 77, -89, -158, 96, 61, -73, -63, -65, 53, 84, -117, -7, 80, 77, -97, -56, 75, -69, -150, 103, 70, -74, -85, -71, 49, 88, -118, -13, 80, 76, -85, -54, 79, -91, -149, 123, 69, -79, -71, -74, 50, 84, -113, -24, 86, 79, -86, -62, 75, -69, -133, 124, 76, -77, -83, -66, 49, 86, -118, -30, 76, 69, -87, -75, 87, -85, -122, 117, 84, -81, -66, -72, 60, 81, -109, -10, 83, 79, -93, -99, 77, -73, -116, 108, 75, -77, -62, -76, 29, 85, -112, -15, 84, 86, -80, -92, 72, -89, -112, 111, 88, -69, -70, -70, 64, 81, -117, -4, 82, 83, -95, -72, 71, -84, -160, 93, 24, -77, -80, -80, 46, 75, -115, -37, 65, 73, -77, -78, 69, -78, -156, 92, 56, -75, -64, -83, 38, 85, -113, -61, 74, 79, -88, -70, 61, -82, -159, 107, 66, -86, -68, -75, 43, 82, -111, -24, 89, 81, -88, -71, 70, -80, -149, 108, 71, -83, -65, -82, 56, 81, -112, -41, 89, 84, -71, -53, 63, -77, -138, 120, 72, -83, -66, -85, 54, 74, -109, -22, 91, 83, -75, -63, 72, -70, -143, 120, 92, -76, -66, -83, 36, 76, -108, -62, 81, 79, -88, -97, 71, -83, -137, 124, 80, -67, -69, -76, 42, 78, -112, -66, 67, 76, -79, -123, 59, -80, -129, 127, 86, -83, -94, -63, 31, 73, -119, -54, 60, 82, -83, -43, 70, 11, 31, -51, 15, -8, 17, -25, 50, -9, 24, -50, 63, 34, 20, 7, 4, 16, 29, -38, 39, -5, 8, -13, 32, -4, 22, -42, 36, 24, 10, 9, -5, 7, 29, -35, 14, 0, 18, -2, 29, 3, 15, -33, 20, 14, -5, 10, -5, 17, 28, -18, -25, -10, 8, 0, 23, 8, 3, -7, 16, 10, -13, 15, -29, 14, 42, -27, -21, 5, 19, -7, 30, 22, -1, -6, 20, 12, -19, 31, -5, 16, 38, -11, -27, 10, -4, 15, 40, 29, 5, -6, 4, 1, -14, 25, -2, 11, 39, -22, -25, -1, 0, 5, 42, 25, 16, -25, 1, 3, -12, 16, 2, 24, 44, -10, -20, -3, -2, 5, 43, 23, 20, -33, 8, 12, 0, 27, 5, 21, 20, -35, 76, 1, 21, -27, 1, 1, 22, -48, 65, 44, 24, 2, -5, 10, 20, -35, 61, -2, 10, -24, -11, 5, 17, -31, 61, 40, 9, 4, -13, 12, 20, -10, 18, -7, 15, -9, -9, 12, 13, -12, 41, 24, -2, 2, -15, 10, 26, -10, -26, -6, 2, 11, 3, 18, 8, -3, 14, 7, -8, 11, -35, 5, 32, 3, -37, 4, -7, 15, 20, 26, 8, 5, 9, 4, -11, 13, -4, 2, 35, -6, -30, 9, -13, 20, 31, 35, 8, -1, 3, 1, 2, 16, 3, 8, 40, 1, -21, 5, -12, 20, 40, 37, 10, -13, 2, 0, -2, 19, 15, 6, 42, -1, -21, 11, -11, 13, 41, 28, 10, -20, 4, 6, -9, 22, 16, 6, 6, -37, 78, -3, 7, -3, -37, 7, 15, -34, 31, 20, 11, -4, 1, 9, 6, -14, 63, -18, 12, -15, -42, 10, 15, -17, 51, 33, 5, -3, -7, 9, 6, -5, 16, -14, 3, -1, -40, 17, 10, 2, 32, 19, 7, 2, -18, 0, 12, 13, -14, 7, -10, 17, -14, 19, 7, 14, 7, 3, 1, 4, -22, 5, 19, 9, -39, 14, -17, 26, 6, 25, 5, 17, 2, -5, 0, 6, -10, -9, 24, 21, -39, 27, -23, 37, 31, 34, 4, 19, -6, -12, -1, 15, 21, -5, 30, 13, -34, 34, -18, 40, 49, 37, 4, 5, -7, -13, 4, 23, 26, 4, 30, 21, -30, 37, -26, 41, 60, 32, 4, -8, -12, -18, -5, 22, 32, 12, -4, -10, 79, 1, 19, 0, -71, 5, 11, -21, 16, 13, 5, -2, 12, 6, -10, -9, 73, -6, 13, 1, -74, 5, 10, -1, 26, 23, 0, -6, -5, -2, -8, 12, 32, 0, 9, 1, -64, 7, 7, 17, 22, 22, 10, 0, -14, 8, -2, 15, 0, 10, -8, 13, -41, 10, 4, 30, 6, 7, -8, -6, -13, -11, 4, 30, -29, 27, -14, 28, -4, 15, 2, 39, -1, -7, 13, 0, -8, -4, 12, 20, -41, 42, -26, 41, 26, 23, 1, 36, -7, -14, -2, 5, 26, -10, 12, 27, -43, 50, -21, 53, 53, 24, 3, 22, -12, -22, 14, 4, 35, -6, 7, 25, -44, 53, -26, 58, 59, 26, 0, 9, -17, -25, 4, -3, 44, 4, -13, -8, 91, 11, 30, 3, -100, -4, 16, -5, 0, 21, 11, 7, 21, 1, -25, 6, 94, 9, 39, 3, -86, -8, 18, 11, 9, 20, 3, -10, 31, 10, -26, 16, 61, 5, 28, 0, -85, -5, 12, 27, 13, 26, 1, -6, -18, -9, -19, 37, 18, 21, 26, 12, -49, -4, 11, 48, 2, 19, -17, -6, -4, 4, -15, 36, -28, 31, -21, 22, -24, 3, 8, 59, -2, 2, 23, -8, 4, -17, -13, 42, -42, 46, -35, 37, 6, 6, 12, 55, -10, -15, 23, -14, 32, 2, -11, 38, -49, 59, -41, 51, 33, 5, 9, 55, -14, -21, 35, -21, 46, 2, -11, 35, -47, 56, -36, 56, 54, 9, 9, 37, -16, -28, 22, -28, 51, 16, -31, -2, 92, 13, 20, 1, -110, -15, 20, 4, -5, 24, 11, -18, 33, 20, -43, -4, 93, 8, 72, -6, -123, -17, 28, 25, 5, 38, -4, -9, 33, -9, -44, 17, 75, 6, 58, -11, -96, -16, 21, 29, 9, 43, 1, -14, 9, 14, -45, 52, 33, 15, 82, -2, -76, -14, 17, 63, 7, 40, -8, -15, 6, -13, -38, 69, -21, 21, -18, 11, -29, -14, 25, 74, 2, 23, 44, -20, 35, 4, -39, 66, -46, 40, -43, 27, -8, -8, 23, 67, -9, -6, 65, -46, 43, -18, -34, 63, -44, 51, -43, 37, 12, -6, 27, 71, -8, -12, 100, -70, 53, 12, -18, 55, -46, 56, -46, 50, 26, -4, 19, 55, -14, -25, 10, -70, 49, 59, -49, -31, 84, 5, -1, -13, -166, -139, 24, 3, 0, 39, 39, -16, 32, 5, -65, -24, 79, -5, 122, -29, -159, -130, 27, 16, 15, 64, 5, -17, 42, 40, -54, 16, 95, -2, 71, -23, -152, -74, 23, 29, 15, 59, 21, -14, 51, -5, -62, 65, 44, 10, 125, -15, -102, -56, 24, 64, 8, 52, -56, -20, 31, 14, -69, 71, -18, 17, -17, -3, -70, -42, 21, 68, 2, 38, 102, -34, 43, -15, -73, 90, -33, 42, -30, 18, -52, -28, 41, 84, -13, 6, 19, -78, 41, 4, -44, 85, -37, 35, -28, 18, -23, -15, 33, 72, -9, 6, 199, -121, 35, -15, -59, 68, -46, 58, -59, 36, -30, -19, 29, 77, -20, -7, -53, -251, 68, 160, -25, -16, 72, -3, -2, -22, -118, -54, 27, 0, 14, 43, 48, -19, 41, 27, -56, -5, 53, -1, 73, -20, -182, -67, 33, 7, 3, 47, -73, -13, 60, 30, -50, 13, 55, -7, 122, -21, -134, -60, 17, -3, 13, 53, 19, -14, 35, 5, -56, 52, 33, 6, 66, -13, -139, -59, 17, 33, 4, 38, 45, -38, 34, 7, -74, 55, 5, 6, 41, -10, -112, -60, 10, 58, 2, 36, 85, -30, 41, -8, -78, 64, -25, 28, -23, 11, -75, -70, 31, 56, -13, 18, 122, -55, 43, 19, -32, 92, -10, 23, -14, 11, -31, -28, 33, 57, -18, 8, 178, -59, 45, -11, -23, 73, -26, 34, -44, 18, -56, -33, 39, 49, -17, 1, -94, -240, 53, 1, -3, 1, -4, -1, 1, 3, 1, -4, 4, 1, 0, 0, 5, 3, -1, -4, 1, -1, -1, -3, 3, 5, 0, 1, -4, -3, 2, 4, -3, -1, -3, -4, 4, -2, -4, -4, -1, -3, 3, 0, -2, 4, 1, -1, -3, 3, 1, 2, 5, 1, -1, -1, 2, -3, -2, 3, 0, -2, -2, 2, 4, -4, 4, 2, -2, 4, 4, 2, -3, 3, -3, 2, 4, 3, 3, -2, -5, -2, 2, 3, -3, -3, 3, 1, 0, -3, 1, 1, 1, -2, 4, -5, -5, -4, -4, -3, 3, -1, 1, 0, 1, 0, -2, 4, -2, 3, 3, 3, -2, 4, 3, 4, -2, 0, -4, -4, -1, 4, -4, 3, -2, 3, 1, 4, -1, 3, 2, -31, 8, -58, -12, 109, 44, 81, 48, -21, 18, -42, -66, -57, 6, 21, 6, 35, 3, -47, 56, 105, 21, 81, 50, -26, -11, -29, -63, -59, 18, 18, -149, -31, 3, -67, -13, 95, 47, 71, 47, -22, -7, -14, -55, -44, -7, 4, -60, 41, -5, -21, -54, 76, 27, 67, 51, -7, -10, 21, -49, -38, 24, -4, -251, -7, -20, -75, -80, 74, 44, 63, 54, 6, 10, 12, -39, -36, -18, -19, -29, 60, -35, -32, -24, 49, 49, 40, 70, 14, 15, 11, -29, -25, 38, -8, -34, 6, -44, -74, 3, 54, 69, 46, 68, -4, 33, -46, -44, -36, 33, -17, -41, 57, -32, -18, -5, 28, 47, 22, 52, 5, 35, -52, -28, -13, 48, -34, 6, -4, 17, -23, 40, 79, 51, 65, 31, -1, 15, -24, -53, -43, -2, 21, 12, -1, 19, -43, 83, 95, 0, 76, 19, -3, 0, -27, -48, -45, 9, 21, -41, 28, 18, -6, 33, 83, 27, 68, 18, 1, -12, -7, -42, -39, -15, 16, 36, -2, 11, 4, -20, 57, 20, 52, 24, -2, -11, -2, -33, -29, 20, 11, -251, 44, 4, -7, -51, 52, 34, 56, 58, 2, -11, 15, -28, -34, 3, 1, 67, 9, -11, -14, -42, 15, 59, 40, 63, 9, -2, -10, -8, -22, 64, -16, -8, 46, -22, -26, -29, -2, 59, 33, 77, -6, 13, -7, -17, -27, 12, -11, 8, 37, -20, -12, -31, -11, 50, 34, 74, -6, 25, -7, -13, -21, 55, -3, 3, 3, 18, -4, 16, 36, 37, 39, 17, -4, 14, -25, -44, -28, 8, 14, 10, 15, 15, -4, 50, 50, -3, 47, 0, -6, 2, -19, -44, -32, 10, 13, -29, -2, 18, 14, 30, 43, 10, 44, -8, 1, -3, -7, -40, -30, 4, 12, 62, 21, 8, 24, 9, 24, 2, 23, -6, -3, -8, -7, -19, -15, 39, 6, -251, -11, 7, -5, -23, 19, 25, 28, 13, -4, -9, 5, -17, -21, 19, 1, 70, 28, -2, -1, -28, 1, 34, 14, 31, 1, -4, -5, 1, -9, 54, -13, -26, 15, -7, -22, -21, -4, 38, 29, 38, -5, 7, -1, -14, -19, 28, -3, 21, 26, -9, -11, -26, -27, 43, 14, 45, -6, 17, -10, -1, -4, 48, 8, 1, 1, 18, 7, 7, 17, 25, 24, 37, -6, 10, -23, -25, -16, 9, 10, 9, 6, 18, 0, 35, 23, 13, 25, 12, -7, 4, -14, -28, -18, 12, 12, -36, 12, 16, 20, 7, 14, -6, 28, -2, -2, 1, -11, -26, -22, 11, 7, 45, -10, 11, 8, -2, 13, -4, 13, -4, -4, -2, 6, -13, -11, 32, 3, -121, 17, 7, 9, -10, 22, 14, 17, -7, -3, -6, 3, -13, -16, 26, -8, 42, 0, 4, -10, -20, 11, 30, 3, 0, -1, -3, 8, 5, 0, 28, -14, -26, 19, -4, -24, -24, -12, 37, 7, 7, -5, 4, -7, 2, -1, 38, 19, 12, 21, -2, -19, -28, -12, 28, 2, 11, -2, 11, -16, 9, 7, 30, 40, 0, 4, 18, 15, 0, 12, 21, 27, 90, -6, 7, -21, -15, -21, 4, 4, 4, 10, 24, 7, 29, 4, 10, 31, 71, -9, 4, -5, -25, -28, 9, 1, -7, -8, 19, 14, 4, 17, -10, 22, 32, -3, 3, -7, -16, -21, 16, 4, 2, 7, 14, -4, -2, 22, -13, 14, 7, -5, 2, 14, -5, -9, 37, 3, -24, 0, 12, -23, -11, 13, 17, 17, -10, -2, -1, -12, -10, -13, 19, -14, -3, 20, 3, -10, -10, 7, 28, 5, -16, -2, -1, 34, 7, 6, 20, -12, 2, 2, -7, -37, -25, 10, 27, 12, -16, -1, 4, -11, -9, -8, 21, 30, -4, 15, -3, -20, -33, 2, 15, -1, -5, -2, 8, -4, 9, 7, 29, 59, 4, 5, 18, 8, 7, 4, 22, 33, 132, -4, 8, -19, -14, -30, 4, 10, 0, 6, 25, 7, 19, 8, 18, 32, 107, -5, 4, -2, -22, -34, 6, -3, -6, 8, 27, 6, 5, 18, -17, 29, 65, 0, 4, -6, -20, -24, 15, 0, -7, 8, 20, -12, 4, 13, 0, 12, 18, -7, 6, 28, -11, -13, 19, -1, -21, 11, 10, -27, -2, 19, 10, 14, -5, 1, 4, -7, -7, -11, 31, -8, -11, 1, -4, -24, -9, 11, 25, 11, -20, -6, 2, 57, -11, -12, 2, -5, 0, 14, -15, -41, -22, 10, 20, 13, -20, 1, 5, -4, -12, -12, 21, 46, -11, 13, 1, -32, -31, 11, 9, -5, -4, 1, 9, 3, 9, 6, 28, 62, 8, 2, -2, 0, 1, -3, 2, 1, 2, -1, -3, -4, 3, 1, -3, 1, 0, -3, -1, -1, 1, -4, -1, 2, -2, -1, -3, -4, 0, -2, 4, -3, 2, 1, -1, -2, 0, 2, -1, -1, 0, 4, 3, -4, 1, 4, 0, 1, -4, 4, 2, 4, -2, -3, 0, -3, 1, -3, 3, 0, 2, 3, -1, -3, 3, 1, 2, 4, -4, -4, 3, -2, -4, -3, 3, 0, -2, -3, -4, 3, 3, 1, 4, 1, 0, 0, 0, 2, -4, 5, -3, 2, -1, 1, -1, 3, 2, -1, 3, -1, 0, 2, 1, -3, -2, 0, -2, -2, -4, 4, -1, -4, 0, 1, 4, -3, 4, -2, -1, -2, -4, 0, -3, -4, -2, -1, 2, -3, -2, 14, -12, -11, -90, 67, 40, 52, 7, -54, 2, -60, -69, -45, -7, 0, 17, 4, 15, -34, -63, 30, 22, 23, -21, -61, 9, -68, -28, -23, 38, 23, 20, 32, 17, -29, -70, 18, 31, 13, -25, -59, 8, -74, -10, -13, 5, 36, -18, 12, 14, -32, -95, 24, 39, 25, -31, -54, 4, -59, -14, -21, 37, 32, 4, 28, 8, -9, -46, 24, 28, 28, -45, -46, -1, -55, -21, -29, -5, 26, 8, 21, 0, -26, -54, -5, 63, 6, -38, -54, 7, -59, -8, -5, 43, 29, -13, 51, -3, -17, -32, -8, 40, 6, -35, -53, 13, -85, -8, -8, -25, 18, -32, -8, -30, 2, -24, 23, 47, 32, -23, -40, 10, -65, -30, -29, 15, -20, -1, -4, 16, -10, -12, 43, 29, 32, -23, -39, 2, -57, -40, -37, 8, 16, 7, 22, 24, -13, -34, 36, 11, 30, -16, -40, 3, -61, -33, -38, 31, 27, 29, 12, 13, -6, -34, 34, 22, 42, -29, -40, 2, -58, -34, -43, -1, 24, -9, 29, 16, -10, -47, 43, 17, 52, -33, -36, -1, -43, -37, -49, 19, 27, 12, 15, 16, -21, -53, 36, 33, 40, -36, -38, 2, -43, -33, -43, -16, 21, 8, 20, 5, -16, -56, 40, 28, 43, -50, -42, 1, -49, -38, -48, 23, 25, 10, 9, 4, -25, -44, 10, 32, 13, -44, -40, 11, -62, -13, -16, -11, 25, 1, 38, -2, -12, -33, 8, 26, 25, -50, -41, 3, -48, -19, -22, 16, 11, 8, 19, 25, -6, -31, 45, 5, 42, -16, -33, -1, -50, -34, -43, 41, 25, 20, 11, 21, 7, -35, 40, 7, 46, -20, -34, -2, -55, -42, -46, 6, 14, 4, 9, 26, -14, -41, 51, 21, 56, -23, -33, -1, -39, -42, -47, 29, 30, 7, 23, 23, -15, -43, 45, 22, 52, -28, -33, -6, -33, -46, -49, 1, 28, -18, 10, 15, -25, -49, 44, 30, 53, -40, -34, -5, -37, -44, -50, 21, 21, 10, 27, 12, -20, -49, 23, 34, 33, -46, -37, -4, -35, -33, -40, 4, 19, 10, 13, 7, -23, -39, 32, 33, 39, -46, -38, 0, -40, -40, -47, 19, 17, -4, 12, 8, -22, -29, 17, 18, 24, -41, -41, 5, -31, -21, -26, -18, 17, 8, 5, 23, -8, -36, 43, -8, 41, -11, -32, 5, -46, -33, -36, 40, 22, -2, 17, 24, -15, -22, 41, 35, 37, -4, -31, 2, -37, -37, -42, -1, 23, -22, 20, 25, -23, -28, 44, 15, 45, -7, -30, 0, -28, -39, -44, 45, 28, 10, 18, 22, -30, -29, 39, 27, 41, -10, -33, -3, -25, -39, -43, -11, 24, -30, 23, 21, -45, -30, 39, 36, 40, -18, -30, -3, -25, -39, -46, 59, 23, 6, 18, 16, -42, -28, 26, 32, 34, -29, -34, -2, -23, -28, -41, -30, 23, -14, 16, 14, -38, -34, 21, 37, 29, -31, -32, 1, -21, -23, -35, 42, 26, -11, 26, 7, -18, -31, 12, -4, 29, -38, -35, 8, -29, -25, -35, -30, 19, -2, 19, 23, -7, -22, 32, 2, 34, -3, -31, 7, -51, -31, -35, 29, 16, 8, 13, 29, -23, -24, 46, 29, 42, 5, -31, 6, -35, -32, -40, 14, 25, -12, 11, 25, -27, -24, 49, 8, 40, 12, -31, 4, -31, -39, -43, 33, 27, -13, 22, 24, -39, -22, 45, 30, 42, 4, -28, 6, -29, -35, -43, 5, 22, -26, 19, 22, -43, -32, 34, 22, 32, -6, -31, 2, -27, -33, -40, 37, 20, -16, 23, 18, -44, -32, 27, 34, 29, -21, -27, 5, -28, -30, -38, -5, 13, -12, 29, 12, -38, -27, 11, 26, 25, -25, -35, 5, -26, -12, -24, 32, 22, -8, 6, 8, -31, -37, 23, 6, 20, -30, -31, 13, -34, -18, -30, 1, 22, -10, 3, 20, -8, -25, 35, 4, 21, 22, -29, 11, -56, -19, -29, 30, 14, -7, 14, 24, -15, -29, 40, 9, 40, 21, -31, 14, -37, -33, -38, 28, 16, -20, 14, 23, -17, -26, 35, 10, 35, 10, -28, 13, -32, -37, -41, 16, 10, -2, 14, 25, -38, -31, 36, 17, 39, 9, -30, 13, -28, -30, -41, 38, 20, -14, 17, 19, -34, -28, 38, 11, 29, -2, -29, 8, -34, -26, -36, 5, 12, -11, 16, 17, -29, -35, 30, 25, 25, -15, -31, 15, -20, -28, -33, 33, 19, -16, 11, 9, -31, -36, 22, 5, 27, -23, -30, 14, -31, -22, -28, 4, 15, -5, 15, 12, -36, -22, 5, 13, 16, -34, -30, 17, -28, -16, -17, 21, 20, 3, 10, 20, -12, -42, 20, 12, 23, 26, -30, 15, -64, -13, -22, 28, 8, 16, 9, 22, -18, -31, 29, 1, 24, 18, -31, 13, -59, -17, -22, 44, 12, -14, 13, 25, -18, -30, 35, 10, 37, 21, -29, 17, -40, -29, -35, 12, 11, -8, 9, 23, -24, -25, 34, -1, 26, 10, -29, 15, -38, -24, -32, 42, 16, -6, 17, 19, -33, -26, 25, 15, 32, -5, -28, 17, -38, -24, -30, 4, 14, -6, 9, 10, -26, -36, 25, 13, 24, -20, -31, 16, -23, -16, -27, 40, 5, -9, 17, 10, -28, -35, 13, 9, 17, -23, -30, 17, -44, -10, -18, 2, 26, 1, 5, 3, -25, -34, 18, -2, 15, -28, -31, 16, -43, -7, -14, 38, 22, -13, 0, 19, 1, -38, 11, 12, 23, 36, -28, 17, -56, -13, -26, 29, 4, 6, 7, 17, 0, -22, 26, -18, 12, 16, -29, 10, -60, -6, -24, 30, 8, 10, 10, 23, -20, -28, 22, 12, 26, 23, -29, 19, -47, -16, -28, 26, 9, -4, 13, 18, -18, -22, 23, -5, 24, 2, -30, 19, -30, -18, -24, 32, 7, 8, 6, 15, -21, -27, 17, 6, 23, -6, -29, 22, -38, -18, -27, 23, 13, -12, 10, 10, -31, -28, 14, 1, 21, -19, -29, 17, -31, -15, -21, 24, 18, 0, 5, 14, -28, -33, 17, -11, 6, -42, -29, 15, -42, 2, -5, 16, 34, 1, 10, 5, -12, -27, -4, -16, -1, -54, -31, 16, -36, -9, -7, 35, 8, 10, -6, 16, 3, -24, 40, 42, 33, -11, -30, 25, -47, -38, -34, -17, 16, -43, 38, 19, -48, -46, 33, 12, 34, -4, -43, 24, -56, -18, -29, 30, 29, -42, 7, 18, -23, -62, 22, 41, 25, -13, -41, 23, -57, -11, -22, 5, 32, -17, 38, 19, -53, -37, 25, 36, 25, -2, -49, 18, -55, -8, -21, 20, 33, -42, 2, 25, -8, -29, 27, 48, 30, 14, -38, 18, -50, -12, -34, 22, 30, -23, 39, 25, -35, -43, 1, 41, 26, 24, -52, 23, -54, -10, -23, 18, 32, -43, 9, 27, -4, -43, 16, 47, 30, 24, -39, 24, -43, -4, -30, -3, 13, -31, 51, 11, -19, -47, 29, 12, 35, 13, -34, 29, -44, -34, -44, 33, 0, -22, 29, 23, -30, -13, 52, 3, 56, -15, -29, 18, -37, -46, -48, 24, 18, -34, -6, 16, 6, -21, 53, 37, 52, -24, -30, 18, -46, -41, -44, 6, 21, -20, 33, 20, -40, -49, 49, 18, 51, -22, -30, 14, -46, -41, -44, 27, 31, -5, 7, 19, -7, -39, 32, 46, 44, -8, -35, 15, -44, -26, -39, 1, 30, -16, 37, 24, -38, -48, 34, 28, 43, 0, -39, 13, -53, -31, -47, 20, 31, -13, 5, 21, 18, -45, 26, 35, 37, 8, -37, 19, -44, -25, -41, -3, 20, -17, 33, 8, -22, -47, 19, 27, 41, 12, -44, 21, -50, -27, -50, 34, -3, -24, -9, 10, -2, -40, 19, 14, 35, 5, -32, 25, -44, -19, -35, 5, 4, -15, -3, 24, 3, -25, 36, 27, 35, -21, -29, 18, -46, -28, -37, 15, 28, -25, 24, 23, -28, -45, 49, 26, 49, -22, -28, 15, -38, -47, -49, 18, 28, -43, 0, 22, 8, -34, 50, 28, 51, -15, -30, 11, -37, -41, -53, 16, 30, -4, 32, 26, -32, -26, 56, 23, 61, -10, -30, 6, -37, -51, -58, 18, 28, -26, 5, 20, 1, -43, 40, 42, 49, 2, -33, 8, -40, -41, -51, 10, 22, 9, 43, 15, -33, -44, 28, 27, 47, -7, -42, 9, -35, -41, -55, 9, 24, -35, 5, 13, 3, -46, 28, 42, 39, 0, -35, 15, -36, -28, -44, 19, 20, -14, 44, 15, -30, -42, 25, 6, 45, -15, -39, 13, -35, -35, -48, 3, 28, -17, 30, 26, -23, -32, 41, 12, 46, -12, -34, 13, -46, -33, -43, 22, 19, -23, -2, 24, 1, -22, 47, 42, 40, -2, -29, 13, -38, -36, -45, 18, 24, -30, 31, 27, -28, -29, 57, 23, 57, -3, -33, 11, -34, -44, -53, 24, 29, -19, 3, 22, -4, -28, 52, 39, 60, 0, -30, 7, -26, -39, -51, 7, 24, -33, 43, 23, -47, -34, 49, 33, 53, -6, -32, 6, -21, -41, -55, 39, 21, -9, 7, 15, -14, -47, 32, 42, 41, -4, -30, 13, -34, -30, -46, 2, 21, -22, 42, 17, -43, -40, 20, 30, 39, -18, -34, 12, -31, -37, -45, 25, 25, -15, -4, 15, 1, -38, 36, 19, 38, -11, -32, 16, -41, -27, -38, 0, 28, -12, -7, 22, 11, -13, 44, 29, 49, 16, -31, 15, -46, -37, -47, 14, 19, -16, 33, 28, -23, -23, 44, 27, 47, 18, -35, 14, -37, -37, -51, 19, 24, -26, -2, 23, 0, -33, 47, 23, 49, 9, -29, 14, -33, -41, -49, 8, 20, -37, 42, 26, -46, -30, 51, 23, 60, 6, -33, 12, -8, -48, -55, 19, 23, -15, 0, 21, -14, -34, 42, 33, 43, -7, -24, 14, -27, -37, -51, 23, 21, -43, 36, 20, -50, -42, 34, 29, 48, -15, -31, 13, -23, -42, -51, 21, 20, -16, 0, 17, -14, -48, 31, 37, 31, -18, -28, 17, -37, -21, -34, 19, 33, -15, 38, 11, -36, -40, 27, 9, 39, -25, -34, 13, -34, -32, -41, 15, 27, -9, 37, 24, -15, -34, 32, 22, 47, 16, -34, 13, -47, -36, -46, 15, 17, -27, -6, 25, 10, -34, 40, 30, 49, 27, -32, 18, -29, -39, -55, 8, 14, -22, 36, 27, -30, -29, 41, 10, 55, 12, -34, 16, -19, -43, -53, 11, 14, -48, 1, 21, -5, -28, 42, 19, 46, -2, -30, 22, -18, -39, -49, 23, 17, -4, 30, 22, -45, -32, 42, 25, 44, -7, -32, 18, -30, -44, -48, 22, 16, -49, 1, 18, 4, -31, 42, 21, 42, -16, -27, 19, -13, -40, -44, 9, 19, -16, 33, 16, -34, -48, 39, 20, 42, -23, -30, 17, -21, -40, -45, 22, 32, -26, -7, 14, -2, -46, 37, 19, 32, -24, -28, 16, -33, -26, -37, 13, 36, -8, -14, 15, 21, -54, 26, 35, 51, 47, -33, 21, -48, -29, -48, 12, 8, -20, 39, 24, -15, -45, 27, 7, 47, 19, -36, 19, -37, -40, -52, 13, 5, -30, -3, 25, 4, -38, 33, 8, 47, 19, -31, 24, -31, -34, -43, 17, 13, -8, 27, 21, -36, -34, 36, 7, 43, -2, -34, 23, -37, -39, -44, 24, 15, -25, 0, 17, -3, -31, 40, 21, 34, -9, -30, 22, -34, -35, -40, 18, 13, -14, 26, 12, -30, -41, 43, 19, 42, -24, -33, 20, -26, -43, -42, 15, 18, -37, -5, 6, 10, -38, 34, 11, 37, -26, -30, 21, -24, -40, -48, 8, 31, -20, 30, 12, -17, -54, 40, -6, 41, -35, -33, 22, -34, -37, -36, 33, 30, -15, 37, 18, -7, -41, 11, 0, 49, 54, -35, 22, -43, -39, -59, 17, 3, -24, -7, 10, 11, -51, 15, 27, 38, 35, -32, 29, -41, -21, -36, 17, 7, -8, 19, 14, -35, -37, 32, 4, 28, 5, -34, 21, -49, -30, -39, 23, 14, -21, -2, 16, -1, -36, 27, 14, 28, 10, -30, 25, -43, -24, -31, 23, 16, -19, 23, 14, -36, -40, 25, 11, 32, -10, -35, 23, -32, -31, -34, 27, 19, -22, 0, 14, -7, -36, 27, 21, 27, -20, -30, 19, -47, -26, -30, 22, 36, -14, 24, 13, -34, -49, 28, 6, 29, -36, -35, 24, -23, -28, -30, 35, 39, -33, -14, 12, 19, -36, 36, 1, 31, -65, -28, 24, -40, -36, -36, 11, -9, -19, 38, 50, -20, -32, 52, 19, 44, 17, -65, 27, -56, -36, -54, 20, 33, 4, 22, 47, -16, -7, 52, 70, 52, 2, -63, 28, -48, -42, -57, 4, 37, -43, 32, 46, -11, -50, 60, 23, 55, -10, -62, 29, -56, -48, -61, 18, 35, 17, 31, 40, -10, -38, 62, 52, 59, -22, -62, 28, -54, -49, -56, -6, 41, -36, 33, 36, -19, -50, 58, 40, 52, -31, -61, 26, -61, -50, -58, 23, 42, 10, 32, 31, -22, -47, 48, 33, 48, -39, -62, 29, -54, -49, -54, -10, 33, -10, 37, 30, -38, -45, 45, 42, 52, -35, -61, 31, -62, -47, -55, 27, 40, -25, 33, 29, -21, -38, 43, 26, 45, -45, -59, 29, -55, -41, -43, -18, 51, -5, 39, 57, -19, -11, 41, 14, 43, 35, -55, 28, -53, -27, -47, 24, 39, -22, 29, 54, -25, -28, 39, 79, 41, 17, -55, 29, -51, -30, -44, 10, 43, -35, 39, 55, -19, -45, 42, 28, 43, -10, -51, 29, -54, -28, -46, 27, 47, -26, 34, 50, -26, -55, 45, 52, 39, -21, -52, 29, -51, -27, -45, -3, 47, -47, 44, 46, -31, -54, 35, 48, 29, -28, -51, 29, -50, -19, -40, 28, 44, -20, 41, 39, -36, -51, 29, 43, 27, -43, -52, 30, -59, -25, -39, -16, 38, -24, 45, 42, -41, -52, 22, 67, 24, -43, -52, 27, -54, -14, -28, 39, 39, -29, 38, 39, -40, -47, 31, 27, 29, -43, -51, 28, -51, -27, -41, -25, 51, -22, 32, 53, -25, -13, 36, 8, 38, 45, -58, 33, -51, -18, -49, 28, 42, -29, 28, 50, -26, -20, 39, 60, 38, 21, -53, 33, -46, -31, -49, 18, 43, -43, 30, 50, -28, -38, 38, 24, 36, -3, -53, 35, -53, -28, -43, 31, 48, -28, 34, 42, -31, -38, 42, 52, 33, -17, -51, 35, -49, -29, -40, 3, 48, -55, 38, 38, -45, -56, 36, 36, 31, -29, -55, 33, -48, -23, -44, 38, 50, -16, 36, 35, -42, -55, 29, 39, 33, -31, -53, 36, -54, -20, -40, -6, 43, -29, 39, 36, -49, -55, 25, 45, 26, -37, -54, 32, -51, -22, -39, 38, 49, -28, 33, 35, -43, -50, 30, 20, 30, -36, -51, 33, -50, -20, -36, -21, 52, -25, 33, 48, -22, -1, 40, 8, 36, 38, -56, 37, -46, -18, -44, 29, 40, -33, 23, 47, -28, -16, 43, 49, 39, 29, -54, 39, -39, -27, -53, 16, 44, -52, 30, 47, -30, -19, 41, 21, 39, 9, -53, 39, -42, -27, -47, 26, 44, -31, 28, 40, -40, -33, 39, 44, 32, -11, -53, 41, -41, -23, -46, 8, 47, -73, 36, 38, -49, -45, 33, 36, 30, -18, -52, 37, -36, -21, -40, 27, 46, -29, 38, 34, -56, -50, 27, 31, 30, -26, -53, 39, -39, -24, -36, -7, 41, -41, 35, 35, -52, -54, 23, 29, 30, -25, -52, 39, -37, -14, -34, 26, 46, -35, 26, 32, -43, -49, 32, 15, 34, -22, -53, 37, -36, -21, -39, -9, 42, -30, 27, 44, -22, -3, 40, 15, 46, 35, -57, 43, -43, -24, -45, 25, 37, -30, 26, 42, -27, -3, 47, 42, 42, 27, -55, 43, -32, -26, -47, 16, 40, -46, 27, 42, -29, -12, 44, 22, 43, 14, -55, 44, -32, -31, -47, 23, 42, -52, 31, 37, -35, -25, 40, 35, 33, 1, -54, 44, -28, -27, -39, 11, 40, -68, 33, 37, -53, -42, 33, 34, 32, -11, -54, 44, -27, -21, -36, 24, 43, -49, 36, 33, -49, -41, 30, 28, 29, -13, -53, 45, -23, -19, -35, 3, 35, -38, 35, 33, -56, -41, 27, 24, 31, -20, -53, 44, -34, -15, -35, 23, 45, -39, 29, 30, -36, -42, 38, 9, 37, -20, -54, 42, -29, -25, -38, 4, 21, -29, 28, 38, -21, -4, 39, 22, 39, 14, -56, 44, -48, -32, -41, 28, 36, -17, 23, 38, -25, -7, 45, 31, 45, 10, -58, 46, -34, -34, -48, 20, 39, -25, 33, 40, -24, -13, 44, 37, 40, -2, -55, 44, -32, -28, -39, 22, 41, -31, 25, 36, -31, -27, 38, 35, 33, -5, -56, 46, -30, -25, -37, 11, 39, -65, 40, 32, -33, -40, 36, 28, 38, -8, -55, 47, -32, -26, -37, 16, 38, -25, 32, 30, -44, -40, 36, 21, 30, -7, -55, 48, -27, -21, -33, 18, 38, -28, 35, 27, -43, -37, 44, 5, 39, -12, -53, 44, -31, -28, -41, 12, 26, -28, 25, 23, -43, -30, 39, 6, 33, -24, -54, 46, -37, -26, -33, 10, 0, -23, 25, 28, -20, -11, 42, 15, 36, 20, -59, 46, -57, -33, -37, 36, 37, -16, 28, 33, -23, -6, 48, 35, 38, -1, -57, 43, -44, -32, -39, 26, 39, -30, 25, 39, -16, -17, 47, 39, 36, -7, -57, 45, -36, -32, -41, 24, 40, -25, 36, 32, -24, -25, 37, 41, 34, -12, -55, 45, -29, -23, -30, 10, 35, -63, 26, 32, -30, -35, 37, 29, 36, -14, -55, 49, -28, -29, -31, 27, 40, -27, 38, 27, -37, -38, 41, 14, 29, -13, -54, 48, -23, -23, -30, 26, 39, -28, 29, 26, -51, -46, 40, 13, 35, -10, -56, 45, -33, -28, -37, 26, 17, -22, 26, 28, -51, -51, 30, 18, 29, -17, -53, 45, -41, -25, -30, 19, -147, -24, 28, 22, -26, -27, 49, 20, 31, 21, -60, 40, -57, -39, -43, 30, 31, -24, 24, 27, -24, -21, 51, 27, 43, 15, -60, 43, -43, -38, -43, 25, 36, -27, 31, 33, -16, -22, 43, 42, 39, 0, -57, 43, -41, -38, -42, 22, 34, -26, 24, 31, -28, -29, 26, 39, 34, -6, -58, 45, -32, -41, -41, 9, 33, -54, 31, 28, -28, -37, 34, 22, 39, -12, -57, 47, -33, -39, -42, 19, 35, -27, 25, 30, -38, -38, 33, 15, 34, -6, -57, 47, -18, -36, -39, 26, 34, -28, 31, 27, -54, -47, 40, 11, 38, -18, -55, 43, -42, -36, -38, 23, -6, -26, 21, 21, -43, -54, 39, 19, 30, -24, -57, 44, -52, -33, -33, 13, -191, -23, 40, 74, -76, -74, 78, 106, 59, -35, -136, 69, -121, -70, -75, 32, 83, -58, 82, 73, -64, -63, 79, 82, 67, -42, -132, 67, -122, -77, -86, 38, 75, -73, 69, 77, -64, -64, 78, 84, 70, -44, -126, 67, -122, -81, -90, 11, 75, -74, 91, 71, -74, -52, 80, 85, 77, -45, -127, 65, -114, -79, -91, 20, 77, -77, 74, 67, -81, -50, 79, 79, 77, -46, -130, 73, -118, -76, -96, 41, 84, -71, 91, 57, -92, -41, 81, 68, 69, -65, -134, 65, -133, -80, -88, -7, 79, -69, 77, 58, -95, -40, 71, 73, 59, -71, -133, 65, -120, -78, -90, 27, 73, -77, 113, 45, -86, -45, 79, 72, 63, -55, -137, -86, -118, -86, -91, 36, 87, -78, 82, 75, -70, -65, 76, 57, 64, -32, -127, 73, -111, -64, -85, 50, 77, -74, 59, 80, -68, -51, 69, 111, 67, -25, -128, 82, -116, -69, -84, 40, 80, -75, 89, 81, -76, -71, 73, 71, 67, -35, -123, 79, -115, -68, -87, 54, 86, -72, 81, 79, -79, -61, 75, 86, 68, -23, -126, 83, -112, -61, -88, 13, 87, -80, 94, 75, -101, -64, 74, 77, 66, -32, -126, 82, -115, -56, -84, 56, 86, -74, 77, 63, -80, -63, 75, 72, 68, -41, -129, 85, -141, -63, -92, 2, 72, -66, 89, 63, -96, -59, 72, 77, 76, -44, -136, 79, -148, -66, -89, 46, 86, -74, 63, 55, -75, -61, 70, 38, 73, -49, -130, 72, -122, -77, -88, 17, 85, -73, 57, 73, -60, -69, 73, 72, 60, -33, -125, 80, -112, -53, -72, 50, 83, -69, 83, 79, -68, -59, 74, 85, 63, -42, -123, 82, -111, -67, -83, 45, 80, -80, 64, 82, -67, -68, 71, 84, 69, -30, -122, 84, -107, -65, -89, 47, 87, -76, 89, 81, -89, -54, 76, 77, 74, -26, -122, 86, -111, -72, -87, 25, 82, -75, 73, 72, -88, -53, 73, 81, 70, -24, -129, 86, -118, -58, -90, 47, 76, -67, 90, 68, -100, -47, 75, 60, 73, -36, -130, 77, -110, -67, -94, 20, 89, -75, 65, 63, -82, -48, 62, 56, 67, -46, -128, 80, -111, -66, -82, 27, 80, -70, 91, 53, -78, -56, 54, 34, 68, -38, -134, 77, -114, -62, -89, 23, 75, -75, 80, 72, -68, -59, 74, 66, 60, -34, -125, 80, -111, -52, -71, 49, 78, -73, 55, 73, -70, -66, 78, 92, 65, -25, -123, 87, -105, -57, -77, 45, 85, -79, 89, 78, -86, -59, 79, 67, 62, -27, -122, 88, -103, -65, -84, 47, 85, -76, 71, 75, -88, -52, 77, 85, 74, -18, -124, 91, -100, -67, -87, 36, 85, -78, 90, 77, -111, -53, 75, 75, 67, -26, -124, 82, -91, -62, -83, 39, 86, -75, 70, 72, -104, -59, 69, 65, 67, -33, -123, 86, -98, -61, -84, 17, 85, -78, 92, 65, -92, -57, 60, 57, 63, -32, -125, 83, -93, -57, -78, 35, 80, -78, 58, 56, -74, -66, 57, 39, 67, -35, -125, 85, -104, -66, -82, 34, 70, -73, 50, 62, -60, -65, 72, 71, 57, -38, -125, 82, -114, -56, -68, 47, 73, -78, 79, 69, -70, -71, 82, 81, 64, -25, -123, 88, -104, -60, -76, 49, 81, -78, 58, 73, -71, -68, 80, 68, 68, -16, -120, 92, -100, -61, -83, 44, 82, -83, 88, 74, -89, -65, 78, 70, 73, -16, -120, 90, -83, -69, -86, 37, 81, -77, 61, 74, -89, -64, 75, 70, 70, -26, -118, 94, -90, -60, -81, 47, 80, -88, 90, 69, -92, -66, 71, 61, 62, -28, -121, 88, -91, -65, -83, 32, 77, -76, 58, 64, -82, -64, 55, 58, 63, -33, -122, 90, -97, -59, -76, 41, 80, -76, 84, 61, -74, -68, 62, 34, 64, -31, -123, 84, -98, -64, -81, 37, 73, -67, 78, 58, -60, -71, 73, 72, 63, -46, -125, 83, -116, -58, -63, 50, 73, -69, 54, 60, -59, -84, 73, 73, 66, -30, -122, 87, -106, -62, -74, 46, 72, -70, 82, 67, -73, -75, 77, 62, 64, -31, -122, 91, -94, -62, -77, 48, 73, -77, 55, 64, -74, -69, 74, 64, 66, -30, -120, 96, -93, -64, -79, 45, 73, -68, 83, 67, -80, -68, 76, 61, 59, -33, -120, 93, -96, -63, -78, 51, 75, -76, 55, 64, -70, -69, 70, 53, 67, -35, -121, 94, -89, -66, -78, 36, 75, -73, 80, 62, -71, -71, 70, 43, 67, -34, -120, 89, -93, -68, -78, 45, 75, -74, 47, 62, -71, -75, 69, 43, 62, -46, -122, 88, -104, -58, -70, 46, 61, -64, 48, 47, -48, -77, 66, 70, 58, -46, -125, 86, -124, -58, -67, 51, 74, -68, 80, 53, -59, -77, 73, 70, 60, -33, -124, 88, -112, -59, -70, 52, 72, -76, 53, 56, -59, -80, 66, 62, 61, -37, -123, 89, -107, -62, -69, 49, 67, -64, 78, 58, -72, -72, 63, 63, 58, -37, -123, 91, -104, -60, -67, 46, 64, -68, 44, 59, -71, -68, 70, 56, 60, -43, -121, 92, -102, -61, -73, 58, 74, -73, 75, 57, -74, -79, 74, 42, 64, -47, -122, 93, -97, -59, -70, 49, 73, -75, 43, 62, -73, -87, 66, 39, 63, -49, -122, 93, -102, -57, -69, 51, 62, -70, 76, 58, -76, -93, 59, 37, 56, -71, -123, 86, -109, -60, -64, 56, 26, -62, 75, 46, -52, -77, 68, 57, 54, -41, -127, 84, -127, -59, -58, 52, 68, -66, 47, 44, -53, -80, 64, 66, 51, -49, -125, 87, -122, -57, -63, 51, 71, -69, 70, 47, -59, -75, 63, 62, 52, -43, -124, 83, -119, -58, -65, 53, 72, -66, 47, 45, -67, -70, 68, 62, 51, -41, -121, 81, -114, -57, -74, 43, 71, -69, 72, 52, -71, -76, 63, 54, 52, -50, -123, 89, -112, -56, -61, 58, 72, -67, 45, 59, -78, -82, 54, 50, 45, -66, -123, 91, -109, -53, -52, 54, 81, -71, 75, 65, -87, -93, 52, 47, 42, -95, -123, 90, -105, -54, -49, 64, 60, -67, 40, 57, -85, -102, 49, 51, 46, -90, -124, 86, -119, -54, -49, 45, -3, -65, 25, -39, 50, -128, 53, -20, 36, -94, -31, 24, 49, -13, -12, 38, -28, 60, -22, -11, 69, -64, 61, 29, 39, -93, -32, 31, 111, -17, -9, 16, -31, 92, 23, -25, 44, -56, 61, 25, 40, -90, -43, 19, 60, -19, -14, 10, -6, 160, -10, -36, 35, -46, 48, -2, 31, -74, -49, 31, 58, -23, -4, 4, 7, 184, 36, -50, 15, 34, 42, 4, 26, -79, -46, 2, 81, -31, -2, 23, 0, 113, 51, -53, 22, 25, 27, 39, 4, -91, -42, 29, 114, -15, 23, 15, -9, 37, 56, -88, 21, 45, 14, 59, 4, -125, -34, 20, 106, -4, 16, 34, -19, 2, 21, -69, 53, 24, 8, 40, -8, -94, -23, 16, 100, 0, 26, -8, -16, 10, 19, -8, 60, -130, 51, -42, 30, -59, -30, 24, 71, -14, -2, 24, -23, 70, -35, -13, 64, -66, 80, 11, 48, -67, -38, 16, 80, -12, -15, 38, -20, 54, 2, -3, 36, -92, 76, -24, 45, -64, -42, 6, 37, -13, -11, 39, -5, 181, 2, -12, 35, -23, 63, -4, 37, -52, -48, 5, 40, -17, -3, 23, 9, 166, 39, -29, 12, 20, 44, 29, 22, -68, -52, 2, 30, -17, 6, 24, -3, 169, 26, -54, 35, 51, 20, 51, -1, -82, -103, 8, 31, -6, 32, 29, -10, 18, 44, -79, 28, 46, 9, 68, -7, -106, -62, 14, 35, -5, 30, 63, -22, -13, 21, -102, 38, 52, -5, 69, -23, -93, -35, 17, 120, 6, 47, 28, -6, -6, -3, 6, 32, -82, 32, -50, 16, -32, -19, 9, 36, -5, 7, 45, -22, 28, -11, -2, 8, -111, 49, -18, 30, -28, -35, 10, 46, -3, 2, 47, -13, 35, -6, -3, 13, -60, 55, -27, 36, -20, -34, 10, 30, -7, -2, 43, -8, 123, 6, -5, -6, -19, 47, -10, 25, -27, -34, 0, 5, -10, 5, 45, -3, 123, 27, -23, -1, 12, 22, 18, 12, -43, -36, -1, 9, 2, 14, 36, -7, 120, 26, -37, 4, 36, 1, 59, -9, -57, -34, 2, -2, 16, 35, 35, -6, -14, 40, -55, 19, 35, -12, 77, -19, -69, -32, 8, 12, 23, 45, 37, 5, -30, 44, -60, 29, 15, -19, 53, -28, -62, -23, 12, 25, 37, 52, 28, 12, -25, 6, 22, 2, -46, 26, -32, 14, 32, -14, 9, 34, 0, 8, 23, -16, 5, -11, 11, -7, -32, 25, -16, 19, 44, -20, 12, 22, 0, 8, 45, -13, 25, 13, 6, -9, -22, 30, -16, 23, 37, -21, 11, 12, -2, 2, 37, -5, 54, 3, 1, -15, -5, 19, -7, 10, 12, -23, 11, 4, 5, 17, 53, -5, 63, 35, -25, -29, 8, 11, 25, 1, -13, -20, 8, 0, 13, 27, 32, -2, 51, 14, -40, -17, 14, -15, 47, -16, -33, -19, 10, -7, 29, 41, 39, 0, -19, 42, -52, -12, 18, -26, 50, -26, -40, -16, 15, 3, 40, 55, 24, 14, -10, 16, -59, 11, 13, -25, 49, -28, -41, -10, 17, 9, 51, 55, 23, 13, -22, -16, 63, -2, -16, 14, -32, 14, 94, 2, 8, 42, 0, 5, 16, -24, 2, 14, 51, -3, -1, 23, -19, 24, 115, 3, 7, 27, 3, 0, 19, -17, 5, -8, 36, -5, 9, 21, -6, 21, 102, -1, 13, 11, 7, 3, 27, -8, -6, 25, 22, -20, 18, 11, -3, 8, 51, 2, 14, 11, 12, 15, 30, -6, 15, 0, -10, -24, 17, -3, 24, -9, 9, 0, 17, -2, 26, 29, 25, -4, -15, 34, -36, -41, 19, -20, 30, -18, -19, 0, 14, 3, 36, 42, 18, -2, -7, 4, -47, -30, 6, -23, 53, -25, -31, -1, 15, -1, 51, 51, 15, 10, -21, 30, -56, -6, 16, -30, 24, -29, -37, 1, 13, -7, 62, 57, -7, 21, -10, 12, 95, 4, -13, 22, -22, 21, 133, 22, 3, 52, 8, -4, 1, -35, 0, -17, 85, 1, 9, 30, -12, 37, 170, 17, 8, 46, 0, -16, 2, -21, 6, 14, 73, -6, 19, 17, -17, 23, 146, 18, 12, 21, 9, -5, 19, -14, -18, -14, 57, -10, 26, 7, -5, 3, 73, 18, 19, 6, 25, 16, 15, -6, -10, 29, 10, -25, 23, -1, 9, -6, 22, 17, 16, -5, 29, 29, 16, -10, -30, -5, -26, -27, 24, -12, 19, -12, -12, 12, 18, -2, 37, 34, 0, -1, -15, 24, -44, -26, 19, -18, 24, -14, -38, 15, 11, -7, 42, 38, -1, 9, -18, -9, -57, -3, 14, -19, 11, -18, -45, 13, 15, -16, 45, 38, -18, 42, -13, -20, 105, 1, -17, 35, -8, 48, 159, 33, 4, 86, -9, -28, -12, -24, 9, 10, 95, 7, -10, 27, -14, 47, 161, 34, 5, 51, -5, -25, -3, -28, 7, -17, 94, 0, 2, 18, -23, 27, 146, 32, 13, 18, 6, -14, 6, -16, -5, 16, 72, 0, 12, 9, -15, 5, 71, 32, 16, -15, 14, 8, 2, -18, 5, -16, 10, 0, 20, 5, -1, 4, 19, 26, 18, -26, 17, 15, 10, -16, -13, 17, -29, 2, 18, 4, 4, 0, -25, 23, 13, -19, 17, 19, -16, -9, -13, -10, -51, 3, 11, 0, 8, 0, -40, 24, 13, -20, 19, 21, -13, 21, -12, 11, -57, 13, 13, 6, -11, 4, -53, 28, 8, -7, 12, 17, -24, 48, -1, 1, 100, 8, -19, 27, -19, 35, 144, 41, 8, 56, 4, -31, -9, -38, 13, -14, 88, 2, -18, 0, -4, 26, 86, 36, 11, 36, 1, -10, -18, -30, 2, 4, 78, 6, -15, -6, -24, 14, 65, 36, 10, -1, 6, -2, -7, -28, 5, -14, 54, 13, 13, -2, -13, 11, 51, 38, 18, -30, 6, 4, -3, -20, 14, 4, -7, 18, 5, 15, -21, 12, 4, 34, 15, -36, -1, -2, 0, -33, 7, -16, -29, 15, 11, -2, -6, 1, -26, 31, 17, -42, 14, 13, -14, 18, -2, 2, -52, 21, 7, -2, -9, 1, -50, 33, 10, -24, 4, 12, -13, 63, -1, -12, -57, 20, 7, 11, -22, 10, -56, 35, 13, -15, 5, 7, -32, 65, -1
};

int FLIP[120];

#ifdef OPENBENCH
// Deterministic PRNG for openbench build consistency
uint32_t rng_32() {
    static uint64_t RNG_STATE = 0xcafef00dd15ea5e5;
    // Pcg32
    uint64_t old = RNG_STATE;
    RNG_STATE = old * 6364136223846793005ull + 0xa02bdbf7bb3c0a7ull;
    uint32_t xorshifted = ((old >> 18u) ^ old) >> 27u;
    uint32_t rot = old >> 59u;
    return (xorshifted >> rot) | (xorshifted << ((-rot) & 31));
}
uint64_t rng() {
    return (uint64_t) rng_32() << 32 | rng_32();
}
#endif

struct Zobrist {
    uint64_t pieces[25][SQUARE_SPAN];
    uint64_t ep[120];
    uint64_t castle_rights[4];
    uint64_t stm;
} ZOBRIST;

void init_tables() {
    int *ft_data = ft_raw;

    for (int c : {WHITE, BLACK}) {
        for (int p = PAWN; p <= KING; p++) {
            for (int rank = 0; rank < 8; rank++) {
                for (int file = 0; file < 8; file++) {
                    for (int i = 0; i < 16; i++) {
                        FT_WEIGHTS[c | p][rank*10+file][i] = *ft_data++;
                    }
                }
            }
        }
    }

    for (int r = 0; r < 120; r+=10) {
        for (int f = 0; f < 10; f++) {
            FLIP[r+f] = 110-r+f;
        }
    }

    // Zobrist keys
#ifdef OPENBENCH
    for (int i = 0; i < 25; i++) {
        for (int j = 0; j < SQUARE_SPAN; j++) {
            ZOBRIST.pieces[i][j] = rng();
        }
    }
    for (int i = 0; i < 120; i++) {
        ZOBRIST.ep[i] = rng();
    }
    ZOBRIST.castle_rights[0] = rng();
    ZOBRIST.castle_rights[1] = rng();
    ZOBRIST.castle_rights[2] = rng();
    ZOBRIST.castle_rights[3] = rng();
    ZOBRIST.stm = rng();
#else
    auto rng = fopen("/dev/urandom", "r");
    fread(&ZOBRIST, sizeof(ZOBRIST), 1, rng);
#endif
}
