int FT_WEIGHTS[25][SQUARE_SPAN][16];
int FT_BIAS[16] = {29, 19, 39, 15, -31, 63, -33, -8, 91, 233, -6, 38, -37, 49, -3, -41};
int OUT_WEIGHTS[32] = {-24, 16, 22, 23, -37, -12, -29, -17, 61, 27, 11, 17, -13, -12, 16, 16, 25, -15, -21, -23, 46, 12, 30, 17, -62, -32, -10, -17, 13, 13, -16, -15};
int OUT_BIAS = 1924;
int ft_raw[] = {
    -3, -3, -1, 4, 1, -1, -2, -2, 3, 2, -2, -3, 1, 4, 2, -3, -2, 3, -3, -1, 3, -4, 3, 4, 3, -2, 3, 2, -2, 2, -1, 3, -3, -5, -1, -2, 1, -1, 1, 0, 0, 3, -1, -3, 3, 3, 0, 3, 3, 4, 2, -2, 4, 0, 1, -3, -2, 5, 3, -4, -4, 2, 2, -1, 1, 1, 3, 1, -2, -1, -1, -2, -2, -2, -2, 4, -5, -4, -4, 0, 4, -1, 2, -2, -3, 1, -4, -1, 3, -2, 4, 0, -2, 1, 4, -4, 2, -1, 0, -4, 2, -1, -4, -4, 3, 2, -2, 2, -1, 1, 0, 3, 1, 3, 0, -4, 3, 3, -3, 4, 4, -1, -4, 3, 1, 0, 2, 3, -29, 21, 9, 56, -10, -99, 226, -34, 7, 109, 32, 28, -23, -20, 33, 10, -24, 29, 15, 78, -4, 55, 145, -11, 2, 88, 175, 15, 34, -72, 19, 37, -27, 21, 20, 70, 12, -76, 30, -15, 9, 51, 39, -3, -34, -15, 12, 47, -5, 15, 15, 39, 0, 33, -14, -8, 21, 18, -78, -43, 80, -39, 26, 58, 29, 25, 17, 9, -16, -35, -27, -37, 18, 22, -75, 12, -88, -20, 27, 73, 28, 15, 17, -22, -65, -11, -29, -15, 4, 38, -12, 24, 59, 43, 55, 30, 102, 31, 17, -28, -189, -5, -22, 7, 5, 32, 29, 22, -105, -26, 29, 22, 27, 12, 16, 13, -193, -49, 4, 12, 6, 22, 17, 4, 29, 76, 8, 15, -39, 21, 5, 57, -8, -102, 163, -20, 6, 78, 50, 24, -22, -28, 31, 7, -23, 29, 21, 79, -5, 71, 76, -4, 5, 61, 81, 15, 45, -83, 15, 21, -25, -7, 18, 54, 7, -99, 14, 5, 11, 32, 98, -21, -44, -32, 25, 92, 4, 6, 25, 31, -1, 43, -17, 6, 16, 28, -41, -63, 77, -33, 10, 92, 6, 2, 21, 16, -16, -36, -17, -17, 7, 25, -120, 12, -121, -42, 42, 60, 29, 51, 31, 8, -32, -43, -23, -13, 1, 22, -34, 34, 126, 52, 44, 40, 77, 3, 13, -11, -128, 4, -14, 21, 4, 28, 23, 22, -120, -36, 40, 24, 7, 16, 16, 3, -137, -61, 1, 19, 4, 20, 19, 9, 42, 90, 4, 11, -29, 20, -5, 59, -22, -101, 58, -22, 9, 40, 34, 22, -15, -29, 31, 22, -22, 29, 2, 59, -29, 62, 24, -8, 7, 44, 66, 13, 31, -59, 32, 44, -20, 34, 9, 53, -21, -125, 2, 3, 8, 35, 4, -14, -32, -41, 9, 59, -7, -27, 21, 29, -12, 30, 0, 13, 8, 40, 0, -44, 72, -27, 36, 101, 3, 34, 33, 23, -19, -32, 7, -1, 0, 38, -60, 2, -101, -57, 32, 68, 42, 0, 21, 23, -18, -60, -7, -9, -1, 33, -47, 29, 123, 23, 65, 35, 45, 22, 20, 18, -55, 26, 14, 16, 4, 24, -1, 21, -114, -40, 35, 18, 16, 26, 13, 16, -72, -76, -1, 31, 8, 2, 10, 13, 38, 38, 15, 12, -30, 34, -21, 54, -41, -94, 24, -13, 11, 72, 34, 27, -20, -15, 33, 29, -23, 56, -23, 56, -55, 50, 12, -4, 5, 98, 21, 8, 23, -39, 27, 47, -16, 22, -52, 58, -47, -183, 5, -6, 7, 63, -10, 12, -22, -57, 26, 61, -16, 49, 0, 34, -31, -15, 8, 18, 2, 53, -34, -7, 57, -24, 22, 65, 10, -26, -21, 34, -36, -16, 24, -2, 2, 77, -43, 9, -63, -91, 44, 66, 43, 51, 3, 29, -20, -65, 14, -4, -4, 67, -36, 19, 139, 19, 60, 32, 30, 3, -3, 24, -29, 20, 30, 60, 5, 66, -14, 25, -69, -48, 33, 15, 15, 24, 4, 27, -37, -65, -1, 50, 12, 15, 9, 7, 38, -13, 22, 4, -25, 34, -51, 50, -58, -79, 20, -9, 10, 130, 32, 30, -30, 4, 36, 47, -9, 60, -97, 76, -73, 35, 17, -30, -1, 146, -13, 27, -2, -33, 57, 64, -9, 111, -146, 79, -66, -212, 5, -42, 2, 86, -47, 28, -45, -31, 23, 64, -11, 27, -91, 57, -60, -7, 16, -2, 2, 82, -52, 14, -15, -13, 69, 62, 28, 93, -106, 55, -56, -4, 23, -8, -2, 91, -92, 32, -44, -107, 12, 67, 63, 32, -96, 36, -45, -73, 13, -31, -4, 112, -48, 24, 150, -46, 105, 25, 29, 44, -63, 30, -37, 26, 27, 66, -2, 79, -24, 15, -47, -89, 9, 19, 5, 43, -23, 18, -39, -49, -2, 94, 17, 61, 8, -3, 26, -27, 13, -10, -23, -10, -39, 50, -70, -152, 13, -172, 4, 94, 101, 64, -238, 27, 85, 81, -5, 137, -68, 69, -79, -28, 18, -239, -17, 108, -22, 21, -80, -12, 61, 66, 7, 35, -131, 98, -82, -206, 7, -251, -11, 37, -59, 98, -188, -47, 105, 86, 31, 148, -150, 76, -80, -4, 14, -169, -12, 50, -122, 50, -36, 5, 87, 47, 63, 54, -217, 20, -103, -113, -4, -203, -11, 62, -93, 84, -105, -145, 63, 81, 41, 130, -173, 28, -94, -66, 11, -49, -18, 45, -113, 22, 127, -53, -29, 69, 11, -20, -126, -1, -103, -32, 14, 94, -9, 51, -17, 11, -70, -116, 40, -10, -28, 74, -53, -17, -87, -186, -6, 40, 1, 31, 13, -1, 38, -24, -38, -15, 1, 2, 2, 2, -1, 2, 0, -2, -3, 2, 2, -1, 2, 1, 2, -2, 3, 4, 3, 1, 3, -2, 0, 2, -1, 0, 1, -1, -2, 4, -3, 1, -3, -2, -3, 0, -4, 3, 1, 2, 1, 0, 2, -2, -5, -1, 1, -3, -2, -1, 3, 2, -4, 3, -2, 3, -1, -1, -1, -5, -4, 0, 2, 4, 2, 0, -3, 2, 2, 3, 0, -4, 2, 3, 3, -2, -1, -3, -3, -3, -3, 4, -2, 0, 2, -4, -1, 3, -3, -4, 4, -2, 1, 1, -4, 4, 4, 1, -4, -1, 0, -5, 3, -2, -2, -2, -2, 0, 3, -4, 3, -2, -3, 1, 3, -1, -2, -3, 4, 3, 1, 3, 4, 0, -3, 4, 1, -1, -89, -15, 69, 31, -2, -46, 108, -38, 26, 70, 40, -5, -45, -50, 12, 67, -90, 0, 86, 25, -19, -48, 63, -55, 21, 36, 33, 28, -24, -57, 19, 63, -66, 11, 73, 40, -10, -28, 3, -46, 38, 32, 52, -7, -60, -59, 37, 54, -61, 9, 84, 30, -12, -34, -37, -37, 43, 19, 32, 41, -39, -48, 16, 76, -44, 0, 86, 21, -42, -44, -48, -36, 42, 19, 44, -10, -53, -40, 50, 61, -37, -3, 81, 13, -71, -32, -54, -46, 41, 13, 45, 38, -63, -17, 16, 81, -33, -10, 99, 24, -99, -52, -44, -38, 25, 8, 28, 5, -48, -17, 49, 57, -44, -17, 101, 22, -206, -38, -32, -43, 25, -2, 21, 13, -53, -50, -11, 74, -84, 17, 65, 46, -14, -68, 39, -50, 32, 36, 33, 26, -51, -68, 15, 56, -76, 20, 72, 57, -16, -43, -5, -43, 32, 11, 72, 28, -38, -57, 62, 74, -72, 16, 56, 49, -9, -32, -10, -35, 42, 44, 56, 5, -61, -45, 13, 79, -54, 13, 62, 43, -27, -36, -38, -39, 43, 27, 15, 24, -33, -52, 52, 81, -37, 20, 68, 33, -48, -44, -48, -39, 44, 31, 2, 11, -65, -34, 29, 71, -38, 8, 74, 12, -61, -29, -58, -37, 41, 27, 28, 31, -44, -21, 66, 80, -35, 13, 79, 13, -68, -36, -62, -52, 40, 13, 41, 16, -67, -37, 30, 62, -45, -14, 78, 7, -99, -42, -66, -68, 35, 3, 50, -1, -52, -16, 49, 67, -86, -1, 54, 37, -10, -50, 29, -49, 35, 45, 55, 38, -45, -42, 15, 80, -70, 37, 52, 46, -7, -19, -14, -33, 37, 47, 45, -2, -44, -62, 54, 68, -63, 18, 42, 44, -7, -42, -35, -38, 45, 48, 53, 52, -43, -40, 12, 83, -38, 31, 53, 43, -18, -24, -50, -41, 44, 56, 26, -27, -54, -36, 92, 72, -47, 14, 45, 32, -24, -29, -57, -45, 44, 48, -6, 61, -66, -18, 9, 107, -37, 30, 68, 30, -37, -39, -67, -33, 43, 34, 20, 0, -46, -40, 91, 47, -35, -3, 65, 14, -63, -18, -66, -43, 43, 32, 27, 48, -78, -22, 16, 94, -29, 7, 91, 22, -85, -35, -58, -43, 36, 25, 26, -2, -57, -28, 58, 38, -89, 38, 43, 52, -1, -49, -18, -43, 29, 51, 1, 42, -45, -62, 28, 55, -60, 33, 5, 64, 2, -22, -45, -49, 39, 60, 51, -3, -42, -64, 42, 76, -60, 17, 14, 54, 1, -35, -50, -43, 41, 70, 19, 31, -63, -41, 49, 94, -47, 43, 14, 41, -10, -14, -58, -48, 45, 72, 8, -16, -49, -22, 54, 89, -45, 26, 21, 39, -13, -13, -65, -49, 43, 70, -16, 42, -81, -15, 56, 99, -41, 39, 35, 27, -25, -27, -71, -46, 39, 69, -4, 19, -62, 13, 77, 48, -45, 39, 44, 29, -26, -30, -73, -60, 38, 54, 5, 43, -79, -10, 61, 74, -38, -14, 64, 23, -47, -38, -64, -41, 38, 51, 29, 3, -58, 7, 66, 42, -78, 18, 18, 51, 4, -69, -42, -37, 31, 50, 17, 21, -52, -60, 55, 66, -76, 37, -4, 51, 6, -18, -51, -39, 36, 64, 32, 39, -44, -52, 16, 60, -58, 52, 11, 51, 12, -58, -65, -43, 35, 79, 20, 13, -57, -43, 84, 78, -57, 20, -6, 47, 2, -1, -74, -48, 37, 84, 0, 35, -34, -30, 13, 86, -36, 49, 12, 36, 0, -36, -74, -39, 36, 89, 1, 8, -98, -26, 116, 58, -31, 9, 11, 44, -6, -34, -80, -65, 37, 87, -19, 46, -52, 17, 14, 91, -28, 27, 23, 24, -18, -22, -70, -52, 37, 78, 22, 24, -74, -12, 107, 23, -44, 20, 53, 29, -21, -44, -71, -37, 36, 60, 12, 32, -42, -22, 2, 79, -83, 54, 6, 60, 7, -59, -33, -13, 23, 72, -19, 8, -50, -52, 53, 53, -92, 15, 1, 54, 12, -40, -53, -21, 24, 92, 27, 53, -12, -72, 7, 60, -74, 27, -11, 69, 19, -62, -73, -41, 29, 91, 0, 5, -58, -56, 68, 61, -68, 41, -18, 48, 14, -22, -79, -21, 32, 98, -11, 34, -47, -32, 27, 85, -51, 18, -11, 33, 5, -43, -86, -46, 30, 131, -14, 17, -69, -32, 66, 54, -51, 34, -15, 41, 0, -40, -86, -101, 28, 90, -26, 43, -45, -6, 12, 73, -46, 15, 4, 37, -9, -46, -83, -24, 26, 96, 6, 5, -78, -51, 61, 27, -51, -10, 7, 43, -10, -35, -72, -41, 34, 62, -25, 43, -36, -15, 2, 69, -90, -2, -18, 49, 28, -50, -38, -34, 25, 46, 4, 44, -44, -51, 32, 53, -88, 54, -1, 62, 6, -71, -41, -47, 29, 50, -3, 32, -65, -51, 56, 48, -94, 27, -25, 36, 11, -34, -62, -44, 30, 106, 12, 25, -19, -56, 36, 47, -74, 63, -8, 50, 10, -54, -76, -51, 27, 111, -19, 17, -59, -67, 57, 68, -69, 19, -32, 44, 1, -29, -74, -44, 37, 94, -27, 30, -57, -19, 47, 55, -80, 38, -9, 28, -3, -59, -81, 70, 27, 97, 9, 16, -95, -40, 45, 46, -73, -9, -13, 33, -19, -46, -74, -42, 32, 41, -36, 40, -35, -17, 20, 56, -59, 53, 29, 25, -30, -42, -74, -59, 20, 59, -16, 16, -34, -60, 54, 29, -98, 96, -108, -2, 6, -19, -40, -83, 11, 49, -20, 64, -67, -18, 45, -2, -87, 28, -34, 50, 11, -46, -63, -43, 34, 10, -21, 32, -109, -34, 89, 37, -89, 72, -75, 60, 6, -86, -74, -87, 40, -4, -16, 57, -81, -48, 33, 74, -75, 36, -48, 43, 1, -39, -76, -70, 32, 29, -48, 23, -116, -61, 114, 56, -85, 56, -40, 40, 1, -43, -87, -52, 30, 55, -50, 57, -42, -57, 19, 73, -100, 53, -146, 49, -15, -66, -69, -68, 31, -6, -83, 19, -102, -75, 107, -8, -117, 39, -39, 23, -47, -31, -73, -65, 27, -16, -67, 40, -69, -65, -11, 49, -106, -12, -99, -9, -28, -65, -53, 0, 12, 30, 3, 6, -96, -59, 78, -33, -72, 46, 78, 37, -14, -54, 103, -63, 37, 121, -202, 64, -55, -104, 1, -76, -75, -27, 55, 12, -23, -40, 63, -70, 48, 85, 80, 33, -52, -43, 55, 29, -61, 16, 70, 24, -26, -60, -1, -64, 42, 70, 73, 22, -65, -83, 6, 25, -61, -19, 63, 27, -46, -38, -23, -51, 50, 43, 68, 16, -37, -43, 46, 43, -52, 26, 80, 28, -63, -55, -41, -51, 47, 46, 49, 36, -55, -77, 8, 25, -38, -14, 54, 31, -79, -42, -49, -59, 39, 32, 60, 35, -34, -43, 47, 31, -55, 19, 66, 39, -117, -44, -28, -50, 45, 62, 63, 27, -72, -68, -16, 18, -30, -46, 27, 42, -207, -57, -49, -65, 48, 42, 47, 6, -47, -89, 13, 31, -81, -32, 37, 34, -21, -49, 86, -46, 44, 114, 85, 44, -41, -53, 57, 9, -72, 68, 65, 62, -19, -64, 27, -43, 38, 107, 19, 50, -59, -89, 9, -29, -65, -20, 48, 53, -24, -8, -9, -50, 51, 88, 90, 30, -29, -41, 52, 40, -55, 43, 61, 44, -25, -69, -39, -43, 52, 76, 37, 14, -69, -79, 22, 38, -53, -9, 42, 30, -48, -35, -52, -39, 50, 54, 38, 36, -14, -38, 49, 48, -45, 51, 54, 12, -59, -44, -57, -39, 48, 66, 49, 45, -76, -92, 31, 28, -36, -14, 30, 3, -106, -46, -60, -40, 50, 65, 77, 32, -22, -53, 36, 32, -42, 43, 57, 28, -164, -50, -43, -47, 46, 61, 71, 19, -58, -114, -12, 33, -77, 69, 36, 54, -21, -63, 44, -50, 39, 115, 36, 29, -65, -90, 11, 6, -76, -15, 20, 51, -21, -17, 1, -39, 49, 96, 72, 42, -33, -55, 63, 30, -55, 65, 53, 60, -14, -47, -21, -49, 49, 115, 46, 49, -57, -72, 22, 27, -48, -9, 30, 39, -28, -19, -43, -51, 57, 91, 57, 10, -32, -30, 64, 69, -38, 55, 44, 41, -34, -56, -52, -50, 51, 90, 10, 48, -65, -76, 22, 52, -43, 3, 25, 27, -68, -37, -56, -36, 53, 83, 46, 35, -28, -38, 63, 38, -11, 58, 39, 27, -100, -48, -55, -36, 49, 91, 52, 31, -58, -86, 19, 39, -37, -24, 22, 23, -116, -18, -51, -57, 46, 60, 66, 32, -34, -38, 53, 39, -77, -18, 8, 46, -34, -37, 2, -33, 42, 96, 61, 35, -35, -55, 54, 33, -70, 70, 25, 64, -19, -66, -17, -51, 44, 93, 54, 38, -52, -105, 29, 32, -68, -12, 8, 48, -23, -28, -38, -51, 51, 95, 60, 27, -38, -35, 62, 49, -47, 84, 24, 46, -24, -22, -34, -51, 52, 137, 19, 9, -43, -77, 26, 71, -34, -12, 11, 36, -47, -30, -50, -52, 52, 113, 22, 28, -57, -9, 69, 75, -31, 72, 32, 33, -48, -51, -52, -47, 46, 100, 22, 41, -73, -56, 43, 38, -44, -12, 14, 33, -72, -33, -55, -44, 48, 75, 36, 33, -34, -7, 65, 36, -40, 56, 55, 29, -83, -53, -41, -43, 40, 85, 28, 37, -64, -84, 12, 36, -68, 64, 23, 62, -38, -93, -28, -46, 42, 82, 16, 42, -59, -102, 16, 10, -74, 2, -1, 50, -33, -22, -43, -42, 44, 80, 59, 37, -27, -47, 68, 55, -64, 67, 6, 61, -31, -67, -36, -46, 45, 115, 40, 29, -66, -83, 30, 46, -51, -2, -21, 46, -45, -9, -49, -58, 47, 123, 26, 18, -8, -39, 47, 67, -36, 87, 11, 48, -38, -54, -41, -50, 44, 142, 1, 30, -89, -70, 49, 51, -46, 0, 0, 38, -45, -29, -46, -54, 45, 97, 23, 43, -31, 3, 70, 48, -39, 68, 40, 38, -42, -52, -45, -45, 42, 110, 26, 33, -82, -58, 34, 24, -52, -16, 12, 32, -43, -49, -43, -40, 47, 72, 49, 37, -23, -27, 65, 29, -72, -3, -11, 54, -41, -66, -39, -53, 47, 68, 16, 32, -25, -47, 47, 25, -64, 52, 11, 50, -46, -61, -46, -40, 43, 102, 40, 38, -64, -83, 23, 37, -72, 9, -21, 45, -66, -46, -50, -38, 42, 104, 47, 35, -12, -48, 57, 55, -55, 73, -5, 61, -46, -68, -43, -42, 41, 127, 13, 22, -44, -80, 32, 36, -62, 2, -19, 51, -45, -37, -35, -44, 39, 111, 19, 39, -40, -34, 68, 39, -52, 62, 9, 58, -28, -84, -35, -45, 37, 141, -7, 39, -85, -77, 14, 21, -57, -3, 0, 43, -33, -16, -39, -66, 47, 87, 46, 31, -33, -56, 64, 29, -42, 76, 37, 38, -24, -68, -52, -63, 44, 96, 9, 35, -55, -122, 11, 27, -61, 59, 46, 45, -46, -84, -31, -30, 44, 104, -2, 22, -55, -73, 6, 5, -70, -8, -6, 33, -71, -41, -51, -34, 44, 102, 60, 30, -1, -41, 46, 45, -53, 73, 21, 50, -70, -93, -44, -52, 41, 102, 12, 47, -65, -76, 43, 39, -68, 14, -6, 44, -62, -28, -37, -47, 45, 92, 36, 35, -26, -17, 73, 37, -64, 67, 4, 61, -43, -96, -35, -59, 42, 104, -6, 50, -74, -99, 21, 20, -82, -9, -4, 63, -32, -41, -18, -63, 45, 93, 26, 39, -24, -40, 45, 18, -84, 42, 22, 39, -35, -73, -8, -55, 43, 128, 37, 29, -69, -138, 6, 19, -62, -49, 25, 29, -44, -33, -30, -68, 50, 86, 38, 28, -5, -33, 28, 31, -59, -1, -42, 5, -94, -95, -36, -47, 58, 43, 61, 47, -48, -50, 29, 2, -56, 82, 30, 38, -67, -90, -42, -51, 57, 73, 21, 36, -93, -69, 32, 21, -72, 8, 4, 39, -80, -36, -40, -53, 52, 53, 17, 50, -62, -2, 65, 28, -75, 72, 7, 51, -58, -92, -38, -64, 47, 53, 18, 65, -78, -78, 28, 27, -91, 5, 1, 42, -52, -39, -33, -43, 51, 49, 45, 43, -33, -65, 103, 24, -107, 66, -14, 71, -27, -88, -11, -52, 52, 35, -8, 30, -70, -117, 17, -11, -83, 10, -7, 53, -40, -7, -14, -81, 60, 45, 54, 35, -43, -65, 52, 3, -69, 83, 63, 30, -58, -67, -13, -74, 51, 75, -36, 42, -59, -116, 44, -49, -119, 39, 75, 15, -67, -106, 44, -112, 99, 63, 1, 44, -75, -97, 52, 69, -118, 31, 58, 15, -71, -41, 5, -90, 108, 65, -39, 40, -62, -115, 49, 59, -119, 58, 55, 37, -57, -114, -26, -90, 102, 39, 16, 59, -68, -99, 69, 36, -109, 34, 68, 43, -62, -63, -26, -89, 99, 40, 78, 86, -55, -91, 56, 15, -99, 44, 72, 39, -63, -60, -30, -82, 103, 57, 109, 48, -76, -84, 56, 20, -80, 11, 78, 55, -75, -71, -30, -105, 103, 58, 71, 37, -40, -54, 31, 50, -50, 24, 81, 62, -101, -36, -26, -101, 103, 69, 31, 44, -128, -75, 59, 51, -101, 25, 81, 37, -129, -74, -22, -94, 102, 36, 50, 57, -65, -34, 67, 79, -125, 35, 74, 29, -66, -110, 31, -100, 107, 54, -78, 37, -66, -103, 53, 74, -120, 48, 54, 27, -61, -42, -15, -86, 106, 49, 8, 47, -56, -102, 59, 66, -117, 45, 59, 58, -54, -110, -32, -86, 104, 34, 19, 68, -63, -101, 79, 35, -99, 61, 68, 50, -51, -68, -31, -92, 102, 26, 76, 94, -52, -88, 61, 34, -87, 33, 72, 55, -52, -61, -30, -98, 107, 49, 119, 54, -84, -84, 78, 32, -63, 41, 81, 49, -55, -75, -39, -99, 107, 54, 82, 50, -28, -48, 40, 78, -39, 21, 86, 58, -59, -33, -40, -97, 104, 64, 44, 45, -115, -75, 65, 60, -50, 20, 88, 58, -96, -89, -25, -95, 105, 49, 41, 50, -66, -29, 70, 77, -117, 40, 64, 54, -49, -97, 22, -101, 105, 68, -7, 52, -64, -93, 45, 46, -109, 37, 55, 47, -45, -53, -8, -88, 108, 75, 11, 52, -66, -104, 56, 34, -103, 64, 55, 56, -41, -107, -24, -92, 107, 47, 54, 64, -71, -96, 71, 41, -94, 38, 57, 56, -45, -68, -34, -95, 106, 36, 62, 94, -71, -98, 61, 32, -86, 67, 68, 45, -53, -54, -37, -103, 108, 53, 72, 57, -86, -94, 72, 27, -73, 32, 75, 49, -64, -63, -44, -100, 110, 61, 81, 62, -47, -63, 47, 60, -57, 38, 89, 41, -73, -36, -40, -90, 105, 80, 63, 54, -89, -72, 53, 58, -62, 21, 91, 43, -94, -83, -39, -84, 105, 67, 55, 47, -61, -58, 63, 75, -116, 39, 68, 65, -42, -98, 63, -97, 107, 96, 5, 64, -75, -83, 52, 43, -105, 48, 54, 57, -34, -54, 15, -98, 108, 78, 58, 58, -63, -103, 57, 45, -100, 43, 68, 64, -33, -91, -21, -98, 107, 68, 50, 65, -76, -104, 63, 56, -94, 51, 61, 53, -40, -58, -39, -98, 108, 51, 58, 61, -69, -85, 64, 53, -79, 48, 72, 57, -48, -51, -43, -99, 106, 68, 59, 56, -91, -64, 74, 43, -71, 43, 82, 50, -67, -50, -46, -97, 107, 72, 46, 70, -47, -34, 52, 51, -66, 32, 91, 51, -107, -43, -45, -94, 105, 80, 43, 61, -88, -60, 60, 44, -72, 42, 96, 42, -111, -74, -44, -75, 104, 63, 53, 61, -48, -59, 68, 66, -117, 42, 69, 75, -40, -99, 84, -107, 106, 110, 7, 56, -74, -83, 56, 45, -104, 46, 50, 67, -35, -65, 19, -107, 106, 86, 62, 42, -72, -104, 70, 58, -99, 44, 62, 70, -28, -91, -24, -108, 106, 73, 51, 69, -70, -98, 72, 69, -94, 44, 49, 62, -36, -70, -43, -110, 105, 67, 42, 36, -79, -80, 76, 55, -84, 50, 55, 53, -44, -61, -49, -107, 106, 73, 48, 64, -94, -51, 78, 61, -74, 41, 73, 57, -63, -68, -53, -106, 104, 83, 27, 55, -70, -34, 67, 49, -71, 39, 75, 55, -93, -46, -48, -113, 105, 89, 37, 57, -80, -37, 66, 53, -76, 26, 91, 49, -122, -71, -43, -77, 101, 74, 41, 60, -57, -58, 68, 58, -117, 36, 49, 89, -32, -96, 92, -110, 104, 122, -5, 56, -81, -73, 66, 42, -106, 49, 29, 76, -24, -75, 11, -112, 103, 80, 61, 38, -70, -99, 80, 60, -110, 42, 48, 81, -25, -93, -30, -115, 104, 66, 19, 70, -77, -100, 82, 64, -106, 56, 24, 63, -28, -75, -46, -113, 104, 64, 31, 33, -79, -69, 84, 54, -92, 63, 28, 58, -38, -71, -55, -119, 103, 75, 31, 73, -80, -71, 83, 63, -91, 42, 35, 59, -54, -75, -61, -119, 104, 82, 20, 52, -73, -43, 77, 45, -99, 47, 37, 64, -85, -62, -50, -119, 101, 78, 19, 56, -74, -54, 67, 62, -89, 44, 58, 53, -111, -79, -53, -100, 103, 71, 20, 64, -61, -51, 84, 45, -117, 54, 17, 97, -21, -97, 68, -115, 106, 113, -7, 59, -74, -77, 68, 38, -107, 48, -8, 90, -22, -81, -3, -119, 105, 72, 38, 50, -76, -115, 84, 54, -116, 65, 20, 85, -18, -100, -35, -118, 104, 76, 0, 70, -72, -95, 91, 57, -111, 52, 0, 80, -25, -78, -45, -124, 105, 89, 3, 43, -85, -94, 75, 48, -101, 72, 4, 70, -36, -74, -54, -145, 107, 76, 9, 73, -77, -74, 95, 46, -93, 50, 10, 78, -52, -93, -59, -148, 103, 78, 5, 59, -68, -63, 60, 47, -101, 67, 7, 70, -79, -72, -56, -137, 104, 71, 4, 57, -76, -58, 93, 44, -94, 53, 22, 66, -102, -87, -55, -104, 100, 75, 0, 74, -67, -45, 87, 41, -135, 48, 11, 93, -27, -86, 30, -103, 96, 111, -29, 59, -95, -62, 63, 30, -117, 27, 1, 78, -25, -49, -15, -120, 96, 139, 57, 42, -56, -106, 59, 49, -131, 43, 16, 80, -25, -91, -35, -104, 89, 121, -9, 72, -70, -112, 61, 42, -134, 47, 2, 73, -27, -55, -42, -98, 88, 117, 0, 47, -66, -77, 63, 27, -132, 54, -3, 60, -40, -55, -45, -110, 89, 113, -2, 73, -80, -87, 65, 36, -127, 38, 13, 58, -49, -56, -61, -124, 89, 118, -13, 49, -53, -54, 66, 30, -126, 52, 12, 55, -69, -25, -56, -93, 92, 109, 1, 50, -96, -84, 51, 56, -130, 49, 27, 52, -78, -96, -57, -98, 90, 97, -1, 69, -42, -65, 78, 46, -251, 136, 130, 30, -114, -166, -98, -171, 186, 67, 19, 124, -138, -173, 106, 62, -251, 75, 131, 21, -109, -119, -109, -157, 191, 80, 121, 125, -138, -150, 120, 82, -247, 125, 147, 42, -63, -140, -109, -157, 179, 85, 170, 122, -130, -147, 110, 79, -228, 72, 143, 39, -89, -125, -99, -160, 156, 96, 188, 124, -133, -137, 109, 75, -231, 119, 153, 71, -72, -133, -110, -158, 185, 88, 200, 114, -145, -126, 99, 67, -217, 50, 150, 99, -64, -147, -114, -164, 185, 79, 199, 119, -138, -94, 94, 81, -207, 110, 158, 139, -76, -137, -99, -166, 183, 87, 185, 103, -179, -109, 84, 70, -205, 57, 137, 95, -77, -153, -104, -188, 186, 88, 184, 122, -158, -94, 119, 99, -250, 94, 107, 34, -89, -160, -97, -144, 196, 95, 111, 129, -130, -160, 130, 69, -244, 148, 129, 52, -55, -127, -87, -138, 195, 113, 105, 134, -130, -151, 113, 64, -236, 92, 136, 67, -67, -128, -88, -141, 189, 117, 166, 138, -125, -138, 129, 63, -223, 140, 148, 79, -70, -127, -96, -153, 193, 107, 189, 133, -131, -133, 101, 76, -210, 69, 135, 81, -76, -134, -109, -142, 197, 110, 198, 130, -142, -125, 123, 79, -208, 123, 146, 80, -77, -133, -113, -139, 196, 115, 207, 117, -133, -114, 85, 91, -191, 44, 137, 102, -85, -121, -112, -161, 202, 116, 176, 113, -168, -131, 109, 81, -203, 124, 148, 99, -86, -161, -105, -166, 198, 122, 172, 109, -131, -117, 103, 103, -241, 146, 108, 67, -63, -141, -91, -137, 198, 109, 118, 129, -125, -152, 109, 65, -232, 102, 111, 69, -84, -130, -77, -137, 199, 132, 155, 134, -131, -141, 128, 61, -219, 157, 126, 89, -67, -133, -84, -142, 203, 139, 164, 144, -129, -134, 123, 74, -205, 93, 126, 81, -77, -119, -94, -146, 208, 134, 186, 131, -130, -118, 127, 83, -203, 154, 133, 88, -87, -136, -100, -145, 206, 128, 171, 136, -143, -131, 123, 83, -196, 86, 123, 91, -67, -138, -103, -139, 210, 137, 183, 131, -133, -130, 123, 85, -195, 137, 137, 86, -105, -131, -101, -144, 206, 143, 195, 119, -127, -136, 103, 93, -196, 59, 129, 95, -101, -137, -103, -159, 202, 130, 173, 117, -133, -133, 123, 100, -242, 96, 104, 72, -69, -136, -77, -138, 199, 119, 152, 135, -134, -143, 124, 72, -233, 161, 95, 87, -91, -138, -76, -132, 209, 132, 150, 136, -129, -142, 119, 81, -221, 108, 100, 95, -80, -130, -87, -135, 211, 146, 158, 133, -129, -132, 145, 81, -201, 169, 110, 97, -64, -125, -91, -142, 213, 156, 155, 128, -140, -127, 119, 106, -191, 105, 107, 95, -78, -134, -101, -141, 217, 160, 158, 131, -134, -109, 145, 98, -196, 165, 122, 89, -100, -140, -98, -145, 211, 150, 161, 136, -146, -113, 122, 98, -198, 85, 122, 87, -105, -132, -98, -160, 209, 153, 162, 129, -143, -103, 132, 88, -206, 136, 145, 83, -97, -138, -99, -150, 205, 147, 161, 123, -134, -124, 110, 99, -237, 156, 95, 93, -64, -150, -80, -129, 207, 121, 124, 129, -126, -146, 106, 73, -231, 114, 73, 91, -82, -134, -90, -133, 212, 134, 151, 132, -127, -139, 142, 92, -220, 177, 88, 109, -68, -140, -96, -130, 214, 139, 137, 141, -125, -138, 130, 98, -206, 133, 72, 93, -71, -132, -102, -128, 220, 174, 150, 118, -126, -138, 144, 89, -203, 169, 82, 92, -70, -144, -107, -140, 216, 178, 135, 145, -149, -100, 138, 107, -201, 110, 99, 90, -86, -132, -100, -151, 215, 177, 142, 134, -158, -78, 160, 92, -203, 154, 118, 84, -79, -135, -104, -160, 213, 165, 146, 124, -158, -99, 118, 92, -210, 82, 121, 75, -89, -154, -99, -142, 205, 163, 161, 127, -140, -100, 129, 86, -245, 109, 63, 100, -70, -146, -74, -124, 209, 121, 119, 129, -118, -138, 131, 72, -242, 165, 72, 112, -71, -152, -89, -101, 216, 149, 127, 125, -121, -140, 128, 80, -227, 124, 56, 122, -57, -158, -99, -86, 218, 165, 126, 132, -118, -138, 146, 86, -215, 184, 75, 112, -70, -143, -93, -106, 220, 167, 138, 124, -122, -143, 132, 93, -223, 130, 66, 99, -75, -155, -100, -127, 217, 172, 134, 144, -155, -129, 172, 95, -208, 170, 76, 101, -70, -143, -99, -174, 210, 179, 111, 129, -152, -123, 133, 88, -211, 102, 84, 95, -56, -152, -110, -188, 210, 166, 134, 136, -124, -135, 137, 90, -220, 156, 121, 84, -83, -172, -104, -158, 202, 153, 136, 124, -148, -116, 123, 87, -244, 161, 57, 104, -59, -143, -87, -110, 211, 128, 106, 120, -129, -132, 104, 64, -237, 114, 27, 112, -64, -161, -96, -103, 224, 153, 136, 122, -102, -158, 130, 74, -235, 181, 61, 108, -67, -173, -99, -111, 217, 157, 125, 135, -133, -145, 150, 90, -232, 142, 39, 105, -61, -143, -98, -121, 220, 171, 108, 128, -140, -134, 150, 87, -223, 196, 67, 98, -76, -159, -95, -159, 221, 159, 107, 152, -157, -124, 165, 89, -243, 140, 63, 79, -52, -149, -111, -194, 215, 169, 130, 141, -139, -129, 132, 80, -226, 183, 69, 82, -69, -171, -116, -205, 212, 164, 125, 135, -161, -137, 151, 75, -230, 114, 103, 72, -65, -158, -102, -198, 203, 167, 141, 142, -129, -88, 143, 80, -251, 103, -123, 94, -16, -162, -100, -155, 200, 117, 103, 113, -166, -119, 145, 84, -251, 167, 33, 95, -6, -150, -122, -124, 207, 145, 129, 110, -134, -139, 132, 93, -251, 121, 41, 109, -17, -128, -121, -130, 201, 157, 100, 125, -134, -131, 155, 89, -244, 179, 59, 88, -42, -134, -110, -132, 198, 175, 112, 101, -151, -99, 144, 102, -248, 141, 61, 80, -47, -122, -119, -145, 199, 192, 105, 126, -152, -109, 160, 112, -226, 158, 98, 117, -67, -138, -107, -182, -121, 194, 110, 143, -121, -87, 173, 106, -221, 154, 86, 108, -82, -130, -106, -198, -120, 161, 114, 135, -149, -85, 175, 101, -240, 208, 108, 95, -72, -173, -107, -151, -125, 133, 96, 147, -149, -90, 170, 99, 213, 16, -2, 155, 111, -40, 240, 43, 6, 210, 97, 0, -3, 25, -34, -55, 218, -26, 9, 160, 102, -45, 177, 30, 8, 168, 122, -4, 5, -7, -22, -59, 157, 3, 34, 108, 76, -39, 110, 29, 10, 101, 60, 1, 19, -18, -26, -48, 60, -49, 36, 31, 30, -48, 37, 45, 19, 34, -21, -26, 39, -41, -16, -21, 15, -3, 56, -52, -33, -15, -15, 59, 17, 10, -7, 10, 46, -21, -15, -1, -10, -50, 49, -79, -121, -32, -47, 40, 16, -20, -24, 6, 23, -21, 2, -12, -27, -1, 30, -121, -180, -5, -71, 30, 6, -2, 18, 5, 50, -19, -19, -26, -13, -39, 30, -132, -232, 17, -81, 50, 8, 20, 26, 6, 31, -24, -19, -35, 234, -19, -7, 218, 112, -17, 251, 28, 11, 209, 145, -5, -9, 53, -14, -21, 204, 41, 8, 194, 91, -29, 250, 23, 13, 181, 111, -8, 6, 8, -23, 3, 139, -39, 24, 145, 75, 0, 141, 20, 22, 99, 42, -9, 17, -22, -1, 13, 64, 32, 48, 27, 37, -23, 20, 30, 27, 16, -29, -32, 30, -42, -14, 12, 11, -46, 40, -4, -17, -23, -29, 28, 26, -26, -58, 6, 30, -40, 23, 14, -28, 33, 47, -69, -132, 4, -54, 25, 17, -32, -35, 12, 15, -28, 9, 4, -36, -30, 28, -105, -244, 9, -66, 21, 12, -6, 4, 24, 22, -6, 19, -3, -44, 12, 36, -116, -251, 34, -69, 26, 4, 7, 16, 19, 38, 1, -8, -17, 147, 80, -7, 159, 99, -11, 201, 3, 19, 109, 103, 10, -18, 55, -22, 11, 107, -11, -10, 167, 92, 31, 207, 4, 23, 122, 90, -2, 2, -1, 7, 30, 45, 50, 27, 109, 72, 27, 103, 13, 29, 43, 42, -17, 6, -1, -2, 39, 14, -35, 28, 57, 45, 20, 11, 10, 37, -11, -10, -24, 9, -9, 10, 33, -10, 50, 51, -8, -7, 11, -27, 6, 31, -34, -67, -1, 12, 3, 10, 24, -39, -33, 39, -39, -109, 23, -46, 11, 27, -39, -65, 25, 5, 14, 27, 4, -43, 28, 36, -74, -251, 25, -57, 12, 17, -16, -46, 27, -2, 37, 9, -16, -75, -59, 34, -101, -219, 38, -53, 5, 16, -5, -24, 26, 16, 48, 11, -38, 59, 10, -18, 112, 96, 21, 118, 2, 23, 48, 99, 23, -20, 73, 18, 31, 31, 87, -4, 93, 84, 56, 106, -14, 20, 36, 93, 12, -6, 15, 13, 55, -4, 4, -2, 81, 72, 56, 48, -2, 26, 6, 44, -15, -12, 27, 33, 50, -22, 67, 22, 15, 50, 57, -7, -11, 34, -18, 1, -9, 8, 17, 17, 59, -44, -16, 23, -22, 18, 42, -20, -12, 31, -20, -46, -4, -29, 68, 47, 36, -55, 53, 30, -51, -38, 44, -36, -14, 22, -30, -71, 38, -15, 74, 28, 13, -69, -31, 14, -60, -85, 52, -39, -23, 18, -18, -70, 36, -37, 104, 44, -21, -92, 37, 28, -89, -97, 40, -39, -33, 18, -40, -52, 42, 12, 60, 5, -27, 30, 86, -23, 58, 90, 40, -54, 0, 15, -55, 92, 48, -26, 51, 31, 62, -1, 40, -16, 74, 84, 101, -12, -26, 2, -12, 116, 69, -11, 31, 62, 60, -36, 102, -10, 42, 74, 106, -18, -20, 12, -11, 73, -2, -22, 24, 36, 85, -57, 18, 3, 11, 65, 112, -24, -22, 11, -8, 2, 11, -12, 89, 69, 86, -80, 80, 8, -36, 35, 68, -24, -39, 14, -7, -54, 10, -63, 95, 41, 57, -90, -7, -3, -46, 17, 33, -34, -60, 7, -3, -72, 44, -47, 143, 53, 29, -108, 82, -13, -72, 6, 59, -42, -65, 7, -25, -48, 44, -66, 101, 26, 1, -114, 2, -7, -78, 23, 57, -34, -92, 13, -13, -37, 54, -2, 81, 30, -32, -16, 59, -43, 56, 99, 57, -65, 20, 2, -43, 89, 65, -36, 60, 64, 69, -27, 85, -66, 33, 94, 125, -76, -21, 1, -29, 123, 80, -13, 22, 77, 114, -50, 68, -70, 24, 91, 129, -61, -27, 2, -12, 72, 80, -42, 48, 62, 122, -80, 84, -49, 8, 70, 122, -34, -55, 3, 3, -17, 35, -36, 116, 73, 121, -112, 42, -51, -34, 65, 82, -38, -75, 4, 21, -81, 63, -116, 162, 56, 98, -124, 53, -48, -50, 56, 42, -44, -124, 3, -2, -118, 52, -111, 138, 49, 51, -128, 43, -83, -69, 66, 51, -46, -150, 1, 3, -44, 57, -111, 116, 38, 1, -124, 72, -34, -78, 63, 56, -44, -159, 4, 3, 11, 58, 31, 73, 20, -8, -62, 70, -161, 34, 117, 74, -94, 147, 7, -29, 79, 49, -65, 70, 60, 62, -50, 52, -193, 24, 121, 127, -109, 59, -1, -7, 110, 96, -19, -7, 67, 120, -91, 108, -150, 35, 114, 128, -72, -13, 4, 10, 31, 100, -57, 59, 75, 124, -130, 73, -151, 5, 96, 135, -55, -56, 11, 25, -61, 79, -47, 162, 74, 133, -140, 105, -170, -20, 95, 56, -49, -107, 1, 24, -137, 82, -147, 167, 74, 106, -156, 27, -196, -50, 95, 72, -53, -173, 2, 16, -139, 66, -100, 156, 67, 64, -138, 73, -164, -75, 102, 52, -60, -251, 1, 40, -80, 42, -174, 97, 15, -3, -152, -53, -155, -64, 82, 63, -62, -225, 3, 38, -45, 75, 20, 109, 27, -8, -9, 89, -124, 35, 112, 17, -105, 98, -13, 25, 22, 88, -37, 92, -5, 94, -47, 61, -225, 35, 144, 70, -116, 90, 21, 41, 57, 123, -99, 37, 81, 116, -101, 91, -141, -6, 129, 120, -91, 38, 12, 29, -2, 81, -82, 82, 64, 114, -123, 89, -150, -35, 110, 70, -82, -54, 15, 21, -74, 68, -61, 79, 42, 107, -102, 69, -195, -23, 123, 53, -67, -66, 3, 43, -117, 69, -163, 128, 47, 75, -122, 54, -135, -37, 136, 62, -61, -105, 15, 6, -85, 61, -139, 143, 54, 48, -120, 47, -245, -64, 138, 12, -74, -166, 22, 64, -44, 61, -160, 122, -5, 24, -130, 68, -151, -63, 93, -55, -56, -223, -10, 47, -61, 45, 52, 77, 42, -2, 1, -2, 1, 4, 4, 0, 2, 2, 4, -3, -2, 1, -2, 0, -1, -1, 0, 4, 4, 1, -4, -4, -4, 4, -3, -2, -2, 2, 0, -2, -4, 1, 4, -1, -1, 4, -5, 1, 0, -4, 0, 0, 2, 3, -4, 0, -3, 1, -4, -1, -1, 0, 0, -3, 1, 2, 3, 1, 4, 2, 4, 0, 3, 3, -2, -1, 3, 0, -3, -3, 0, -3, -3, -2, 3, -3, -3, 4, -2, 2, 2, -4, 4, 5, 3, -3, 3, -3, -5, -3, -1, 3, -2, 2, -4, 2, 2, -3, 3, 4, 3, 4, 4, -3, 4, -2, 3, -3, 0, 0, 0, -3, 2, -1, 2, -3, 3, -2, -1, -1, 4, -1, 3, -2, -2, 1, 4, 2, -20, -13, -8, 27, 13, 87, -251, 33, -23, -172, -31, -25, 56, -21, -251, -105, -113, -149, -115, 6, -3, 17, -203, 67, -26, -158, 178, -189, 5, 150, 4, -53, -181, -19, 55, 22, 22, 93, -86, 29, -28, -108, 11, -41, 22, 157, -251, -46, -106, -251, 23, 29, 53, 61, -22, -9, -28, -122, -91, -251, -29, 121, 34, -65, -75, 3, 83, -126, 119, 64, 15, -33, -30, -82, -150, 10, 2, 118, -251, 70, -28, -249, 25, -159, 170, 47, 34, 44, -34, -66, -146, -44, -24, 62, 53, -99, -19, -17, -27, -251, 251, 15, 18, 13, -38, -72, 14, -13, -26, 0, -232, -2, 16, -135, -49, -223, 251, -10, -3, 45, -31, -64, 55, -1, -11, 11, -16, -77, 30, -20, 10, 39, -8, 45, -251, 40, -19, -150, 12, 10, 29, 7, -31, -40, -5, 11, -19, 44, -5, -47, -168, 27, -28, -158, 170, -55, 3, 71, 2, -22, -22, -77, 38, 62, -5, 9, -53, 30, -25, -94, 58, 57, 22, 74, -79, 41, -38, 3, 22, 32, 24, -10, 10, 18, -19, -78, -68, -251, -6, 55, 11, -6, -40, -107, 18, 1, 82, 7, 52, 18, -20, -78, -126, 113, 29, 19, -82, 71, -9, 21, 29, -33, 136, -24, 52, 13, -26, -70, -91, -15, 11, -24, 76, -112, 13, -66, -21, -16, 222, -9, 45, 50, -20, -35, -21, 4, 45, -57, -59, -5, 23, -26, 15, -13, 239, -8, 26, 69, -26, -27, -30, -7, -14, -68, -9, -57, 24, -3, 3, 25, -2, 49, -165, 34, -15, -92, -10, 10, 16, 27, -26, -35, 17, -9, -32, 35, 1, -13, -96, 17, -22, -97, 96, -36, 3, 51, 16, -3, 11, -14, 16, 29, -7, 13, -29, 17, -20, -55, 15, 77, 9, 61, -43, 41, 7, -27, -30, 0, 4, 3, 19, 16, -9, -31, 11, -251, -17, 11, 27, 31, 4, 5, -16, -3, 49, 8, 34, 9, -17, -48, -75, 103, 48, -4, -60, 74, 18, -14, -10, 10, 88, 18, 41, 1, -23, -36, -72, -50, 20, -42, 51, -89, 27, 6, -36, -11, 153, 24, 27, 30, -19, -32, -16, 14, 43, -45, -48, 20, 29, -39, -3, -16, 169, 30, 20, 71, -22, 5, -30, -12, -8, -53, -14, -53, 14, -18, 6, 21, 4, 49, -67, 26, -18, -36, -15, 4, 11, 32, -22, -38, 17, 3, -27, 12, -1, 26, -34, 22, -20, -36, 67, -45, 12, 39, -8, -3, 13, -46, 18, 21, 0, 15, -8, 16, -21, -18, -21, 53, 3, 26, 4, 12, 12, 32, -13, -3, 8, -2, 13, 10, -14, -19, -22, -142, 6, 12, -24, 16, 27, -58, -19, -3, 26, 31, 23, -6, -17, -10, -36, 62, 29, 12, 17, 73, 44, 20, -7, 9, 41, 46, 31, -9, -23, 3, -54, -49, 46, 11, -26, -49, 46, -20, -46, -13, 84, 39, 23, 51, -20, -1, -14, 2, 20, -44, -8, -6, 25, -18, -16, -23, 99, 31, 15, 98, -20, 15, -27, -10, 0, -13, -24, -40, 6, -14, 15, 21, 9, 56, 0, 15, -17, -34, -34, -3, 16, 25, -15, -43, 14, -28, -17, 21, 5, 27, 8, 9, -19, -39, 45, -12, 15, 10, -17, -6, 14, 0, 46, 14, 11, -18, 5, 9, -23, 1, -27, 5, 19, 13, 33, 9, 9, -55, -14, 0, 12, 3, 18, 5, -15, -7, -10, -41, -17, 10, -67, 3, 20, 21, 17, -8, 9, 57, 24, -18, -22, 0, -17, 9, 23, 27, 46, 16, 57, -64, -16, 9, 15, 38, 22, -9, -18, 22, -26, -7, 46, 16, -88, 8, 44, 19, -38, -12, 29, 37, 23, 51, -21, -2, -21, -20, 15, 39, 17, -23, 26, -25, -25, -12, 44, 18, 10, 123, -16, 12, -27, 0, -13, 13, -40, -17, 3, -18, 21, 14, 17, 55, 11, 27, -17, -53, -15, -6, 20, 21, -21, -46, 16, -17, 7, 14, 17, 27, 10, -3, -18, -53, 19, -11, 29, -1, -23, -8, 1, -34, 61, 13, 18, -12, 9, 3, -25, -26, -13, 5, 0, 16, 33, -4, -3, -18, 17, -7, 14, 36, 25, -1, -21, -7, -8, -39, 6, 39, -79, 2, 13, -42, 19, -19, 10, 38, 22, -16, -25, -4, 7, 5, -2, 20, 58, 7, 45, -28, 4, 11, 16, 32, 20, -5, -21, -4, -28, -15, 60, 38, -104, 27, 28, -32, -42, -13, 23, 33, 16, 76, -17, -12, -11, -28, 3, 40, 16, -23, 17, -18, -23, -21, 39, 16, 6, 123, -15, 4, -20, 3, -15, 33, -45, -11, 2, -3, 0, 4, 0, -3, 3, -2, 1, -3, 1, -1, 4, -3, -4, -1, 1, 2, 3, -1, -4, -2, -4, 4, -2, 3, -1, -2, 4, 4, 0, 1, 3, 3, -2, -2, 0, -3, -3, -4, 1, 0, -3, -1, -4, -4, -3, -4, -1, 2, -2, 1, -4, 3, -3, -1, -2, -1, -4, -2, 1, -1, 2, 2, -2, -1, -3, -2, -2, 1, 4, -2, 3, -1, 2, -4, -3, 4, -3, 4, -3, -2, 0, -2, 0, 4, 2, -3, 2, -4, -2, 1, 2, -2, 4, 1, 2, -2, -2, 2, 0, -1, -3, -1, -3, -1, 3, 0, 1, -2, -1, 0, 2, 1, 0, -3, -2, 4, -3, -2, -3, 3, -2, 4, 2, -4, -3, -4, 5, -21, -77, -34, -55, 4, -130, 11, -41, -113, -130, -22, 26, -18, -87, -194, 1, -38, -115, -50, -53, 9, 14, 43, -71, -6, -28, -28, 1, 48, -115, -145, -9, -50, -104, -64, -32, 24, 35, 86, -67, 35, -19, -61, 39, -20, -86, -154, 3, -33, -90, -37, -14, 14, 66, 65, -64, 16, -118, -22, 15, 22, -105, -147, 0, -41, -80, -27, -6, 30, 76, 77, -58, -5, -62, -28, 72, -29, -42, -133, -8, -41, -90, -113, 20, 6, 47, 111, -73, 30, -71, -26, -10, -79, -104, -124, 3, -39, -109, -97, 54, 17, 59, 76, -62, 28, -10, -65, 80, -15, -62, -137, -19, -58, -83, -66, 59, -10, 69, 0, -52, -40, -21, -39, -9, -74, -71, -127, 39, -17, -75, -46, -35, 49, 31, 26, -56, -39, 8, -19, 19, 87, -57, -91, 32, -23, -75, -37, -27, 13, 53, 41, -57, -25, -25, 9, -11, 60, -71, -111, 17, -22, -81, -37, -19, 7, 51, 39, -55, -41, -45, -33, 46, 25, -34, -104, 7, -28, -51, -29, -10, 12, 66, 68, -51, -31, -68, -5, 26, 13, -60, -96, 3, -15, -74, -38, -6, 23, 73, 61, -53, -52, -73, -15, 79, 4, -43, -98, 16, -20, -83, -20, -3, 11, 109, 56, -54, -45, -71, -23, 18, 7, -75, -75, 10, -9, -88, -82, 21, 28, 69, 59, -61, -7, -44, -16, 84, 13, -55, -116, -2, -11, -76, -16, 14, 27, 94, 62, -56, -21, -28, -16, 26, -54, -57, -72, 61, -12, -49, -49, -45, 0, 47, 35, -55, -38, -41, 9, -26, 84, -59, -100, 51, -20, -70, -48, -41, 10, 53, 26, -54, -59, -41, -18, 32, 22, -28, -80, 35, -23, -33, -50, -27, 4, 56, 55, -52, -51, -52, -6, 17, 48, -64, -87, 17, -31, -50, -49, -23, 17, 74, 51, -50, -64, -58, -47, 53, 12, -45, -85, 11, -18, -60, -32, -13, 6, 83, 42, -49, -67, -52, -5, 42, -4, -58, -80, 18, -29, -71, -12, 6, 32, 114, 56, -48, -55, -51, -16, 61, -41, -48, -97, 42, -12, -75, -14, 1, -2, 101, 45, -54, -42, -31, -30, 44, -8, -53, -81, -5, -23, -74, -15, -3, 40, 116, 56, -61, -28, -31, -19, 79, -23, -35, -89, 74, -23, -42, -55, -39, -21, 54, 28, -48, -20, -44, -20, -16, 92, -62, -87, 65, -33, -35, -52, -36, 41, 63, 45, -54, -31, -11, -44, 54, 36, -56, -81, 49, -51, -18, -61, -30, -17, 68, 48, -54, -41, -24, -3, 14, 39, -58, -77, 26, -41, -27, -40, -19, 24, 78, 55, -54, -58, -28, -56, 82, 10, -67, -89, 32, -38, -26, -44, -16, 2, 84, 48, -58, -63, -21, -9, 33, -6, -62, -62, 12, -32, -36, -25, -7, 34, 102, 58, -57, -42, -18, -34, 122, -1, -57, -93, 31, -26, -49, -30, -15, 13, 100, 55, -58, -42, -32, -27, 37, -33, -65, -66, 0, -22, -57, -14, -4, 23, 98, 50, -56, -26, -31, -30, 106, 19, -51, -79, 73, -35, -39, -46, -31, 20, 48, 31, -49, -30, -24, -8, 10, 61, -58, -93, 66, -44, -28, -57, -38, 34, 57, 42, -52, -18, -19, -32, 45, 66, -62, -91, 54, -39, -19, -40, -29, -1, 69, 47, -56, -42, -21, -30, 21, 38, -61, -82, 47, -42, -21, -44, -19, 23, 77, 42, -55, -50, -11, -40, 70, 29, -68, -79, 32, -41, -26, -35, -9, 28, 89, 44, -57, -50, -27, -33, 33, -7, -52, -82, 42, -39, -31, -33, -7, 20, 92, 39, -56, -43, -27, -29, 111, 8, -63, -70, 18, -38, -37, -29, 5, 50, 114, 60, -55, -9, -13, -30, 43, -30, -66, -68, 31, -31, -58, -30, 4, 7, 92, 49, -54, -23, -29, -33, 89, 15, -55, -83, 80, -25, -43, -50, -19, 22, 48, 23, -48, -36, -13, -26, 20, 59, -43, -81, 68, -37, -33, -43, -28, 32, 61, 24, -53, -33, -35, -41, 17, 89, -60, -75, 69, -40, -29, -36, -20, 34, 61, 25, -57, -45, -29, -20, 41, 36, -50, -60, 57, -38, -30, -36, -15, 19, 76, 31, -54, -37, -31, -39, 35, 48, -65, -82, 49, -46, -30, -34, -7, 46, 86, 33, -55, -31, -21, -28, 69, 31, -49, -74, 60, -39, -32, -24, -7, 40, 82, 42, -58, -27, -53, -38, 49, 25, -59, -63, 31, -41, -52, -32, -3, 58, 90, 34, -55, -25, -36, -28, 64, 31, -46, -69, 55, -21, -59, -31, 1, 29, 70, 46, -51, -29, -9, -21, 71, -11, -78, -61, 83, -26, -50, -60, -16, 75, 38, 13, -42, -16, -49, -5, 21, 65, -67, -96, 73, -34, -54, -49, -4, 23, 55, 19, -50, -2, -31, -39, 12, 84, -64, -93, 69, -27, -22, -39, -10, 49, 62, 22, -53, -35, -34, -29, 39, 63, -45, -74, 63, -44, -39, -37, -10, 32, 73, 30, -54, -24, -23, -27, 3, 60, -62, -80, 55, -34, -37, -35, -8, 53, 71, 32, -55, -34, -21, -28, 71, 40, -47, -82, 61, -51, -49, -20, -2, 58, 79, 17, -52, -22, -45, -34, 30, 31, -76, -65, 66, -35, -54, -33, -5, 37, 73, 47, -52, -3, -40, -25, 78, 33, -61, -86, 48, -41, -59, -28, 6, 46, 77, 41, -51, 1, -25, -40, 15, 43, -57, -87, 76, -17, -55, -43, -8, 89, 32, -3, -44, -65, -41, -18, 13, 71, -42, -85, 81, -27, -59, -51, 2, 45, 61, 9, -52, -25, -17, -11, 7, 61, -55, -89, 67, -27, -39, -44, -8, 59, 54, 3, -52, -30, -21, -29, 22, 74, -55, -96, 66, -37, -35, -35, -9, 51, 60, 9, -53, -21, -17, -13, 8, 60, -77, -74, 68, -37, -46, -36, -3, 52, 58, 17, -52, -16, -22, -38, 39, 64, -49, -83, 60, -39, -55, -31, -15, 52, 68, 38, -50, -14, -17, -25, 27, 41, -67, -75, 64, -22, -67, -33, -15, 54, 47, 63, -55, -12, -27, -20, 55, 36, -56, -84, 47, -28, -85, -30, 6, 61, 47, 15, -43, -25, -33, -20, -20, 25, -80, -71, 68, -166, -108, -70, -37, 34, 16, 24, -59, -60, -13, -72, 26, 55, -36, -40, 44, 80, -53, -76, -11, 38, 26, 63, -69, -24, -31, -74, 2, 2, -113, -60, 21, -225, -105, -60, 1, 61, 41, 81, -69, 6, -85, -43, 53, 54, -52, -89, 29, 102, -61, -72, 8, 74, 44, 78, -77, 7, -42, -76, 32, 1, -110, -108, 23, -216, -88, -45, 2, 61, 59, 68, -70, 1, -43, -44, 36, 37, -29, -99, 9, 38, -51, -87, 17, 66, 50, 92, -83, 8, -72, -78, 16, -29, -118, -111, 34, -176, -86, -46, 19, 61, 71, 40, -67, -7, -65, -57, 51, 31, -37, -90, -7, 87, -30, -41, 26, 92, 54, 8, -67, -69, -112, -44, -21, -17, -98, -106, 66, 130, -19, -44, -26, 48, 22, 23, -74, -79, -60, -53, -19, 76, -88, -41, 52, -205, -116, -57, -21, 59, 12, 37, -65, -72, -15, -41, 34, 59, 37, -30, 45, 136, -35, -55, -14, 35, 36, 61, -71, -66, -98, -20, 5, 52, -100, -62, 23, -222, -107, -49, 1, 57, 58, 63, -65, -29, -42, -41, 49, 56, 4, -80, 14, 149, -52, -60, 8, 66, 66, 66, -71, -44, -74, -47, 9, 13, -106, -85, 32, -229, -106, -22, 19, 45, 68, 51, -59, -47, -61, -52, 63, 31, 0, -89, 26, 151, -58, -51, 49, 50, 66, 18, -69, -62, -104, -52, 4, -19, -109, -71, 27, -224, -104, -30, 36, 53, 73, 12, -64, -55, -45, -35, 36, 43, 15, -61, 55, -192, -98, -73, -15, 28, 52, 44, -55, -41, -11, -39, 11, 73, -16, -40, 67, 132, -35, -65, -16, 41, 28, 46, -65, -75, -103, -69, 19, 39, -91, -41, 58, -224, -90, -51, -8, 18, 37, 51, -59, -65, -43, -19, 32, 49, -8, -48, 41, 137, -35, -45, -9, 16, 62, 55, -66, -94, -54, -54, 21, 31, -74, -83, 25, -221, -110, -36, 12, 35, 78, 52, -58, -72, -40, -12, 55, 6, -21, -66, 12, 129, -40, -34, 19, 42, 78, 57, -64, -78, -73, -78, 38, -31, -102, -85, 38, -225, -103, -12, 23, 41, 82, 55, -56, -59, -59, -39, 43, -5, -23, -70, 9, 113, -38, -39, 5, 19, 70, 51, -71, -58, -80, -42, 40, 21, -90, -77, 50, 122, -44, -54, -15, 31, 56, 29, -66, -63, -61, -47, -1, 48, -90, -63, 60, -191, -74, -37, -11, 46, 53, 51, -63, -45, -29, -50, 37, 57, -4, -54, 53, 107, -18, -41, -11, 13, 43, 56, -69, -86, -64, -36, 24, 25, -84, -64, 36, -210, -76, -32, -5, 27, 60, 54, -61, -83, -34, -58, 55, 16, -6, -63, 31, 111, -13, -48, 17, 21, 72, 47, -68, -94, -59, -26, 28, -9, -97, -46, 37, -202, -89, -41, 23, 36, 78, 54, -58, -58, -45, -44, 74, 5, -16, -71, 37, 115, -39, -57, 17, 44, 69, 55, -70, -72, -57, -41, 37, -18, -94, -49, 27, -192, -108, -43, 6, 27, 76, 49, -61, -45, -38, -37, 51, 56, -8, -63, 58, -171, -92, -35, -15, 31, 48, 33, -60, -73, -8, -42, 30, 66, -4, -49, 45, 99, -25, -42, -3, 48, 64, 49, -70, -59, -47, -50, 26, 32, -95, -61, 41, -193, -59, -27, -4, 19, 57, 44, -65, -72, -52, -59, 50, 37, 5, -54, 36, 98, -1, -35, 2, 33, 56, 45, -71, -104, -71, -29, 32, 13, -127, -43, 41, -196, -63, -47, 10, 40, 61, 47, -62, -77, -30, -60, 44, 20, 35, -37, 58, 110, -24, -59, 12, 35, 64, 41, -70, -78, -70, -35, 41, 22, -105, -44, 48, -190, -87, -53, 8, 51, 75, 69, -62, -35, -55, -36, 39, 26, 2, -68, 28, 125, -56, -61, 13, 40, 76, 57, -69, -61, -70, -36, 36, 12, -93, -48, 45, 98, -42, -46, 1, 52, 73, 32, -66, -84, -57, -54, 8, 44, -86, -64, 43, -195, -78, -13, -1, 54, 73, 32, -62, -69, -58, -43, 44, 59, -8, -38, 34, 116, -11, -31, 9, 32, 62, 33, -74, -87, -72, -70, 33, 36, -74, -33, 41, -207, -72, -31, 16, 36, 58, 34, -63, -71, -36, -22, 33, 47, -14, -41, 52, 125, -9, -51, 4, 58, 46, 37, -74, -81, -60, -73, 30, 32, -71, -64, 69, -211, -75, -42, 5, 31, 55, 35, -61, -57, -46, -33, 53, 67, -18, -2, 64, 110, -32, -55, -1, 44, 66, 54, -71, -70, -98, -50, 14, 36, -65, -52, 44, -181, -102, -57, 2, 40, 75, 61, -58, -39, -59, -29, 26, 61, -7, -53, 44, -153, -110, -23, 7, 76, 68, 20, -53, -88, -85, -48, 36, 56, -4, -48, 27, 102, -34, -37, 17, 79, 70, 14, -69, -91, -87, -55, 0, 58, -80, -54, 40, -195, -84, -19, 16, 38, 56, 22, -60, -73, -55, -29, 33, 54, -10, -49, 41, 114, -22, -48, 11, 46, 51, 26, -73, -79, -60, -50, 12, 45, -68, -63, 68, -197, -82, -35, 5, 57, 50, 25, -64, -50, -37, -34, 31, 67, -18, -55, 76, 119, -31, -52, -2, 46, 43, 31, -71, -66, -82, -64, 35, 60, -75, -41, 61, -188, -93, -52, -3, 46, 51, 46, -60, -54, -61, -42, 18, 91, -10, -23, 58, 109, -61, -51, 8, 33, 47, 43, -63, -63, -108, -46, -19, 46, -84, -58, 23, 97, -43, -49, 22, 125, 69, 11, -58, -111, -76, -52, -20, 75, -73, -68, 44, -184, -95, -34, 25, 97, 71, 11, -58, -61, -64, -31, 34, 58, -18, -60, 49, 111, -40, -58, 26, 42, 50, 14, -75, -71, -48, -52, 3, 40, -87, -80, 59, -199, -82, -39, 12, 63, 52, 28, -63, -40, -38, -41, 21, 69, -13, -62, 69, 103, -40, -53, 3, 60, 45, 34, -71, -49, -67, -53, 9, 48, -106, -62, 75, -191, -96, -47, 1, 63, 34, 73, -61, -37, -34, -33, 29, 56, -1, -73, 68, 103, -48, -44, -11, 36, 29, 66, -71, -59, -89, -71, -9, 42, -105, -38, 68, -205, -117, -45, -2, 36, 39, -8, -51, -55, -64, -47, 5, 59, 2, -32, 61, -34, -135, -63, 2, -30, 127, 81, -123, -86, -64, -24, 40, 61, -108, -104, 73, -56, -154, -93, -4, 62, 82, 68, -122, -117, -8, -85, 74, -1, 83, -85, 53, -39, -122, -80, 0, -3, 78, 81, -117, -97, -91, -3, 51, 26, -106, -82, 37, -57, -138, -83, -5, 40, 80, 93, -118, -102, -85, -81, 83, 30, -5, -104, 29, -27, -151, -102, -5, 32, 80, 93, -115, -105, -102, -10, 51, 18, -98, -65, 32, -51, -146, -95, 0, 28, 80, 84, -118, -98, -98, -40, 87, 29, -28, -103, 50, -24, -137, -97, 1, 35, 87, 103, -118, -86, -72, -38, 54, 1, -102, -68, 28, -47, -140, -118, -28, 12, 88, 103, -118, -78, -53, -28, 101, 24, -42, -85, 100, -48, -119, -66, -28, -40, 124, 78, -123, -73, -34, -52, 52, 28, -86, -91, 89, -54, -111, -88, -33, 61, 94, 88, -121, -50, -39, -73, 92, -10, -92, -94, 73, -66, -110, -88, -29, -17, 94, 95, -116, -50, -77, -54, 63, 4, -94, -83, 56, -41, -112, -98, -33, 30, 101, 102, -113, -40, -97, -80, 93, 16, -87, -86, 49, -72, -120, -105, -19, 11, 114, 103, -114, -26, -94, -48, 63, -10, -91, -77, 49, -24, -129, -92, -11, 9, 115, 93, -116, -43, -81, -53, 121, 1, -73, -100, 69, -60, -137, -89, -20, 21, 116, 99, -120, -31, -77, -52, 53, -68, -87, -72, 45, -38, -135, -102, -36, -20, 118, 103, -120, -40, -70, -47, 132, 8, -65, -82, 92, -44, -114, -72, -26, -3, 126, 74, -126, -58, -34, -63, 49, 53, -98, -78, 92, -75, -109, -88, -25, 71, 95, 75, -121, -47, -37, -80, 77, 18, -88, -76, 70, -57, -95, -92, -19, 11, 90, 86, -118, -37, -71, -59, 63, 24, -108, -85, 57, -80, -101, -88, -20, 51, 102, 92, -119, -38, -74, -94, 96, 31, -70, -81, 43, -38, -109, -91, -19, 29, 117, 96, -118, -34, -91, -48, 58, 2, -110, -78, 50, -68, -111, -82, -15, 26, 113, 87, -122, -31, -78, -65, 104, 9, -62, -99, 45, -35, -119, -87, -24, 51, 112, 103, -121, -43, -90, -56, 51, -22, -92, -67, 44, -58, -121, -108, -44, 6, 113, 87, -127, -19, -81, -53, 117, 20, -59, -81, 97, -65, -106, -70, -20, 22, 105, 66, -129, -49, -23, -69, 40, 80, -89, -63, 105, -68, -89, -83, -22, 79, 82, 71, -127, -21, -51, -91, 65, 63, -94, -70, 86, -84, -81, -81, -18, 20, 85, 74, -125, -26, -44, -66, 61, 52, -93, -61, 74, -56, -79, -82, -16, 60, 87, 89, -126, -21, -71, -109, 79, 50, -93, -70, 60, -87, -90, -83, -9, 35, 101, 88, -127, -24, -88, -60, 67, 28, -88, -55, 51, -35, -88, -84, -3, 42, 101, 79, -129, -32, -84, -75, 93, 22, -82, -72, 45, -68, -106, -78, -7, 54, 114, 80, -130, -18, -90, -64, 60, 9, -73, -63, 44, -41, -109, -95, -23, 45, 105, 62, -131, -26, -92, -61, 94, 42, -70, -68, 104, -53, -96, -64, -4, 49, 80, 57, -130, -39, -32, -67, 38, 113, -86, -74, 103, -80, -90, -78, -14, 71, 72, 66, -132, -28, -26, -82, 56, 81, -90, -58, 90, -68, -66, -75, -9, 48, 73, 70, -130, -17, -42, -88, 52, 89, -87, -56, 85, -90, -71, -74, -11, 58, 78, 75, -132, -13, -74, -104, 72, 71, -91, -52, 68, -55, -70, -80, -1, 53, 85, 79, -133, -26, -98, -76, 62, 53, -79, -52, 53, -68, -79, -76, 5, 71, 103, 73, -137, -20, -89, -70, 77, 52, -70, -65, 40, -50, -94, -79, 1, 61, 95, 76, -135, -27, -79, -68, 61, 19, -67, -58, 42, -58, -102, -87, -2, 61, 93, 26, -131, -26, -82, -62, 78, 58, -67, -72, 105, -52, -92, -65, -1, 52, 61, 56, -131, -48, -27, -52, 30, 93, -77, -80, 95, -57, -94, -71, -9, 58, 63, 55, -130, -51, -28, -63, 45, 88, -77, -65, 94, -76, -87, -73, -11, 60, 72, 62, -131, -19, -42, -63, 55, 89, -84, -54, 86, -62, -93, -75, -1, 68, 74, 65, -128, -10, -73, -110, 68, 77, -94, -51, 66, -75, -97, -80, 10, 53, 85, 66, -131, -21, -98, -53, 62, 73, -69, -46, 46, -45, -83, -73, 16, 55, 89, 71, -136, -33, -93, -60, 58, 50, -66, -80, 32, -56, -107, -67, 10, 45, 98, 37, -128, -53, -72, -63, 69, 39, -55, -68, 33, -48, -114, -83, 20, 60, 84, -2, -126, -50, -50, -58, 76, 39, -73, -74, 112, -51, -96, -61, 1, 48, 47, 64, -129, -45, -32, -54, 33, 104, -89, -86, 107, -62, -105, -66, -15, 56, 58, 56, -134, -41, -34, -67, 45, 88, -72, -64, 96, -59, -83, -60, -1, 77, 71, 68, -130, -23, -59, -57, 50, 103, -77, -53, 100, -59, -96, -66, 5, 80, 78, 64, -127, -9, -75, -102, 73, 87, -76, -41, 80, -48, -97, -69, 24, 43, 82, 68, -130, -29, -91, -56, 54, 73, -70, -31, 50, -62, -103, -69, 30, 51, 93, 69, -130, -36, -82, -67, 45, 57, -68, -65, 37, -46, -127, -59, 24, 46, 89, 25, -129, -56, -79, -65, 63, 12, -82, -73, 51, -52, -128, -77, 30, 69, 79, -146, -127, -48, -74, -60, 84, -5, -75, -88, 98, -60, -112, -75, 3, 52, 38, 48, -129, -69, -48, -69, 41, 86, -99, -93, 95, -52, -105, -72, -4, 50, 60, 54, -130, -67, -43, -67, 38, 88, -85, -78, 95, -71, -82, -68, -2, 83, 73, 54, -132, -36, -60, -59, 41, 98, -74, -60, 87, -54, -98, -69, 6, 76, 71, 53, -130, -46, -77, -95, 59, 78, -87, -50, 75, -58, -101, -70, 21, 42, 82, 57, -133, -54, -86, -56, 38, 76, -63, -42, 51, -58, -93, -71, 23, 59, 88, 66, -134, -61, -84, -68, 21, 55, -101, -60, 38, -51, -137, -65, 21, 42, 88, -7, -129, -72, -73, -68, 65, 8, -63, -78, 62, -37, -125, -77, 42, 67, 84, -251, -127, -50, -87, -54, 78, 37, -76, -84, 116, -142, -220, -251, -49, 75, 185, 120, -251, -116, -82, -117, 110, 91, -166, -184, 105, -119, -205, -251, -73, 54, 161, 130, -251, -133, -64, -133, 125, 25, -160, -173, 76, -135, -190, -251, -49, 79, 179, 138, -249, -131, -81, -131, 158, 51, -146, -178, 53, -117, -191, -251, -43, 89, 202, 149, -249, -122, -62, -135, 149, 52, -144, -157, 15, -111, -203, -249, -31, 79, 201, 144, -240, -133, -40, -130, 147, 41, -150, -149, 8, -76, -190, -235, -32, 115, 183, 212, -242, -154, -26, -115, 199, 53, -124, -133, 25, -108, -200, -207, -26, 115, 187, 214, -245, -145, -42, -124, 191, 3, -164, -144, -19, -107, -202, -196, -19, 120, 170, 213, -246, -142, -45, -142, 169, -29, -167, -173, 143, -102, -196, -251, -28, 13, 214, 118, -250, -112, -103, -126, 91, 99, -151, -154, 113, -142, -220, -251, -43, 107, 165, 135, -251, -128, -51, -130, 124, 48, -138, -148, 82, -103, -196, -251, -42, 62, 174, 149, -245, -118, -105, -130, 122, 63, -161, -153, 53, -148, -202, -251, -43, 89, 188, 162, -246, -106, -78, -144, 152, 57, -145, -168, 25, -90, -202, -248, -48, 74, 195, 166, -245, -102, -82, -136, 139, 33, -176, -158, 17, -118, -229, -211, -20, 83, 199, 132, -238, -121, -73, -128, 176, 34, -143, -185, 25, -84, -234, -190, -25, 96, 196, 163, -240, -114, -71, -132, 112, 27, -164, -174, 12, -129, -230, -185, -94, 80, 196, 151, -240, -144, -75, -132, 162, 21, -139, -154, 135, -137, -198, -251, -42, 73, 223, 130, -251, -90, -86, -124, 99, 123, -144, -148, 131, -98, -196, -251, -48, 87, 181, 136, -251, -119, -73, -129, 119, 79, -145, -123, 108, -154, -188, -251, -43, 70, 177, 150, -250, -123, -99, -125, 120, 69, -142, -144, 83, -91, -193, -250, -44, 81, 186, 141, -250, -132, -63, -139, 159, 56, -151, -155, 47, -149, -205, -218, -39, 91, 199, 142, -247, -117, -33, -133, 142, 32, -158, -180, 19, -90, -200, -202, -47, 86, 224, 161, -250, -128, -49, -133, 155, 36, -161, -149, 22, -120, -213, -196, -49, 103, 207, 142, -251, -129, -61, -131, 152, 41, -144, -158, 14, -104, -196, -190, -90, 87, 200, 142, -246, -127, -69, -145, 154, 17, -151, -168, 139, -106, -190, -248, -77, 86, 204, 129, -250, -95, -76, -129, 104, 113, -144, -132, 120, -146, -187, -240, -67, 120, 175, 139, -249, -95, -95, -134, 118, 127, -140, -145, 107, -107, -170, -236, -47, 72, 178, 146, -249, -113, -82, -131, 122, 104, -157, -149, 85, -155, -183, -227, -47, 102, 183, 143, -247, -123, -56, -133, 137, 67, -149, -154, 52, -102, -166, -220, -36, 94, 202, 146, -246, -122, -45, -137, 147, 56, -156, -153, 40, -133, -188, -213, -42, 97, 196, 149, -241, -129, -56, -136, 163, 61, -155, -149, 37, -104, -187, -207, -38, 119, 210, 146, -249, -110, -59, -141, 144, 24, -152, -137, 27, -119, -196, -212, -66, 111, 200, 124, -243, -135, -72, -139, 134, 61, -149, -150, 128, -135, -186, -231, -73, 120, 182, 125, -250, -103, -85, -137, 104, 134, -136, -149, 118, -111, -178, -233, -58, 120, 174, 137, -247, -109, -95, -134, 108, 117, -145, -140, 100, -148, -177, -215, -43, 96, 175, 142, -245, -118, -96, -141, 123, 114, -134, -137, 84, -121, -152, -209, -35, 117, 179, 140, -244, -126, -94, -132, 132, 102, -164, -131, 78, -145, -170, -210, -36, 114, 192, 140, -241, -123, -81, -148, 134, 85, -129, -127, 67, -106, -170, -207, -33, 119, 195, 136, -241, -122, -83, -137, 144, 80, -151, -132, 60, -135, -188, -202, -35, 120, 190, 141, -240, -123, -74, -140, 134, 59, -145, -146, 35, -106, -193, -206, -54, 113, 187, 128, -241, -133, -82, -133, 130, 52, -145, -140, 125, -100, -189, -229, -46, 123, 175, 124, -247, -110, -94, -128, 100, 122, -142, -147, 109, -139, -180, -214, -60, 133, 177, 129, -243, -125, -123, -128, 110, 121, -134, -141, 95, -104, -169, -210, -44, 116, 174, 129, -244, -118, -110, -136, 113, 126, -145, -134, 93, -147, -184, -204, -44, 127, 177, 128, -239, -131, -87, -128, 126, 108, -140, -132, 87, -105, -171, -207, -38, 128, 181, 130, -238, -122, -85, -137, 115, 108, -142, -133, 77, -149, -181, -198, -26, 115, 185, 129, -238, -132, -94, -136, 133, 103, -138, -126, 69, -113, -185, -194, -33, 115, 181, 128, -234, -136, -97, -142, 115, 74, -148, -140, 42, -130, -206, -204, -46, 125, 190, 107, -235, -131, -94, -131, 117, 78, -135, -153, 125, -125, -191, -223, -23, 123, 166, 127, -243, -101, -117, -129, 104, 136, -137, -155, 99, -110, -183, -225, -29, 155, 169, 129, -244, -110, -102, -137, 93, 140, -138, -143, 98, -131, -177, -212, -43, 138, 168, 121, -242, -131, -111, -121, 107, 127, -137, -149, 99, -103, -175, -210, -41, 146, 170, 117, -239, -124, -89, -129, 120, 111, -140, -148, 93, -140, -187, -206, -45, 124, 176, 129, -238, -128, -76, -136, 99, 118, -139, -138, 85, -108, -189, -200, -29, 118, 175, 126, -233, -124, -103, -143, 105, 108, -145, -141, 71, -135, -213, -193, -24, 120, 174, 105, -232, -130, -111, -140, 101, 83, -144, -143, 55, -99, -213, -190, -15, 133, 161, 49, -239, -126, -129, -135, 106, 41, -152, -169, 103, -116, -186, -231, -37, 152, 159, 120, -247, -102, -103, -131, 83, 157, -160, -173, 102, -132, -193, -223, -48, 151, 158, 123, -248, -109, -96, -129, 107, 135, -134, -156, 95, -101, -174, -219, -40, 148, 156, 128, -247, -115, -95, -124, 100, 119, -138, -157, 104, -134, -173, -216, -26, 145, 168, 123, -245, -119, -76, -130, 113, 125, -139, -157, 95, -107, -190, -217, -37, 128, 165, 135, -241, -115, -83, -130, 86, 107, -148, -148, 87, -127, -203, -218, -20, 132, 157, 144, -239, -111, -90, -139, 96, 108, -156, -150, 85, -94, -214, -201, -14, 124, 150, 114, -244, -117, -115, -140, 91, 58, -158, -147, 78, -132, -231, -210, -31, 141, 131, -30, -245, -137, -120, -133, 134, 53, -152, -172, -141, 37, -53, -31, -8, -62, -48, -3, 3, 46, -251, 154, -119, 86, -47, 12, -101, 87, -96, -110, -6, -41, -81, -29, 50, 12, -153, 71, -57, 79, 110, 43, -142, 63, -77, -93, -19, -28, -32, -7, -23, 27, -165, 175, -72, 60, 89, 20, -124, 61, -133, -74, 3, -47, -3, -19, -14, 16, -76, 205, -56, 93, 110, -2, -59, 98, -103, 9, 38, -32, 44, -37, -27, 2, 68, 174, -44, 78, 88, 22, 0, 39, -133, 112, 70, -36, 40, -19, -6, 16, 82, 43, -59, 20, 0, 31, -15, 96, -90, 149, 92, 18, 58, 60, 44, 24, 46, -13, 3, -20, 26, 80, -66, 12, -81, 95, 62, 4, 21, 16, 48, 8, -63, -10, -81, 10, 196, 32, -101, -2, -42, -82, 2, -91, -71, -23, -24, 55, -251, 83, -44, 81, -22, 33, -59, 21, -111, -127, -39, -21, -63, -30, -27, 49, -100, 72, -49, 68, 119, 33, -89, 91, -113, -106, -42, -18, -36, -34, -20, 45, -207, 222, -45, 93, 0, -13, -83, 46, -168, -100, 2, -28, 6, -37, -27, 10, -33, 187, -21, 108, 170, -102, -38, 141, -117, -64, 35, -15, 25, -38, -21, 19, 85, 201, 5, 68, -16, 1, 4, 56, -100, 3, 63, 21, 41, -25, -31, 47, 116, 27, 20, 32, 130, -19, 61, 78, -100, 153, 76, 32, 43, 19, -27, 61, 58, 2, -13, -45, -50, 98, 31, 33, -38, 175, 74, 7, 24, -9, -30, 47, -34, 49, 32, 22, 78, 32, -69, 15, -39, -74, -57, -10, -28, -27, -5, 77, -177, 47, -26, 81, 4, 23, -53, 57, -65, -102, -69, 7, -42, -42, -6, 80, -114, 51, -12, 62, 9, 3, -51, -20, -74, -103, -24, 4, -28, -22, -8, 49, -86, 161, -3, 66, 3, -33, -35, 73, -69, -76, 3, 13, -3, -33, -14, 19, -21, 168, -1, 77, 13, -104, -9, 10, -70, -40, 35, 22, 43, -34, -15, 50, 73, 170, 21, 49, -7, -36, 50, 45, -30, 3, 51, 29, 36, -13, -10, 96, 86, -2, 25, 5, -4, -14, 71, -3, -57, 32, 54, 52, 45, 19, -8, 110, 68, 3, 9, -8, -14, 57, 64, 30, -2, 102, 62, -12, 45, 25, -5, 111, 7, 3, 42, 15, 2, 39, -46, -7, -23, -49, -82, -6, -34, -39, 2, 83, -55, 17, -8, 67, -4, 7, -44, -16, -6, -67, -52, 13, -38, -36, 5, 55, -26, 47, -5, 48, -20, -19, -28, 5, 13, -63, -31, 18, -30, -31, -1, 57, -29, 77, -4, 59, -17, -41, -17, -16, -6, -53, 0, 20, 2, -21, -4, 44, 28, 70, -17, 54, -14, -59, 15, 24, 14, -39, 24, 45, 20, -22, -3, 59, 63, 87, 16, 32, -32, -18, 42, -4, 4, -1, 44, 53, 32, -5, -3, 95, 83, 8, 19, 11, -10, -15, 69, 19, 26, 14, 51, 42, 44, 10, -2, 117, 53, 17, 21, 16, -10, 32, 63, 15, 39, 32, 59, 22, 40, 31, 0, 111, 23, 20, 20, -10, 2, 41, -22, 14, -14, -21, -69, -33, -26, -52, 3, 29, -15, -3, -21, 82, -12, 1, -14, -13, 20, -38, -73, -5, -30, -37, 4, 38, 18, 14, -5, 31, -26, -2, -7, -23, 46, -37, -39, 29, -19, -24, 2, 53, 32, 5, -10, 59, 0, -26, 12, -4, 71, -31, -19, 16, 3, -18, 1, 69, 47, 29, -9, 32, -29, -7, 25, -19, 57, -19, 8, 54, 20, -10, -1, 86, 64, 1, 20, 18, 11, -3, 45, 3, 50, -4, 21, 59, 32, -14, 1, 101, 73, 16, 28, -24, -31, 18, 52, 5, 37, 7, 34, 50, 28, 9, 2, 91, 55, 6, 39, -31, 17, 15, 36, 11, 35, 14, 34, 21, 37, 46, 2, 112, 38, 26, 46, -37, 12, 41, 2, -4, -1, -3, -68, -20, -11, -61, 14, -4, 1, -9, -22, 49, -10, 7, 5, -12, 27, 0, -59, 3, -15, -43, 13, -10, 28, 5, -12, 59, -15, -3, 22, -9, 67, -13, -45, -12, -14, -29, 11, 37, 51, -13, -19, 28, -5, -7, 30, -28, 84, -10, -24, 27, 0, -18, 8, 63, 64, -2, -8, 36, -5, 1, 48, 0, 80, -7, -9, 43, 14, -16, 8, 89, 69, -16, 12, -4, -2, 8, 44, -14, 63, 11, 4, 47, 20, -12, 11, 79, 66, 4, 45, -21, 0, 23, 45, 17, 45, 24, 8, 33, 24, 1, 17, 59, 52, 5, 44, -63, 28, 23, 6, 34, 38, 33, 12, 11, 25, 70, 21, 48, 26, 17, 45, -34, 27, 47, -9, 21, 4, 38, -58, 2, 1, -41, 30, -92, -47, 2, -21, 37, -8, 41, 9, -3, -1, 26, -39, -1, -10, -49, 30, -73, -15, -4, -14, 21, -6, 12, 14, 5, 15, 11, -28, -14, -12, -32, 25, -22, 21, -8, -15, 34, -9, 1, 29, -1, 28, 11, -20, 22, -3, -29, 20, 24, 44, 5, -8, 20, 1, -11, 35, -7, 37, 18, -11, 45, 5, -20, 23, 56, 60, -8, 5, 17, 10, -7, 47, 3, 38, 31, -6, 17, 15, -12, 27, 55, 39, -1, 48, -4, 20, 21, 22, 22, 51, 44, -4, 21, 21, 29, 35, 28, 5, 7, 38, -10, 30, 14, 3, 21, 52, 51, -6, -5, 18, 81, 37, 6, 5, 24, 31, -15, 41, 46, -9, -11, 0, 48, -38, 3, 37, -73, 44, -89, -59, 2, -39, 39, -1, 22, -6, 12, -6, 34, -38, 26, -2, -58, 41, -86, -43, -8, -17, 6, -13, 24, 0, 8, -30, 26, -28, 6, -11, -50, 37, -54, -20, 1, -21, 3, 0, 10, 20, 28, -6, 29, -12, 36, -15, -30, 21, -8, 31, 15, -20, 22, 16, -4, 33, 35, -14, 37, -15, 21, -12, -42, 27, 5, 25, 8, 1, 8, 25, 2, 26, 43, 9, 29, -15, 31, 2, 38, 35, 33, 25, 2, 25, 9, 25, 8, 14, 23, 40, 37, -20, 9, 14, 107, 46, 18, -1, 14, -4, 7, 36, 23, -6, 50, 50, 49, -30, -14, 9, 113, 53, -4, -19, 14, 14, 0, 42, 23
};

int FLIP[120];

#ifdef OPENBENCH
// Deterministic PRNG for openbench build consistency
uint32_t rng_32() {
    static uint64_t RNG_STATE = 0xcafef00dd15ea5e5;
    // Pcg32
    uint64_t old = RNG_STATE;
    RNG_STATE = old * 6364136223846793005ull + 0xa02bdbf7bb3c0a7ull;
    uint32_t xorshifted = ((old >> 18u) ^ old) >> 27u;
    uint32_t rot = old >> 59u;
    return (xorshifted >> rot) | (xorshifted << ((-rot) & 31));
}
uint64_t rng() {
    return (uint64_t) rng_32() << 32 | rng_32();
}
#endif

struct Zobrist {
    uint64_t pieces[25][SQUARE_SPAN];
    uint64_t ep[120];
    uint64_t castle_rights[4];
    uint64_t stm;
} ZOBRIST;

void init_tables() {
    int *ft_data = ft_raw;

    for (int c : {WHITE, BLACK}) {
        for (int p = PAWN; p <= KING; p++) {
            for (int rank = 0; rank < 8; rank++) {
                for (int file = 0; file < 8; file++) {
                    for (int i = 0; i < 16; i++) {
                        FT_WEIGHTS[c | p][rank*10+file][i] = *ft_data++;
                    }
                }
            }
        }
    }

    for (int r = 0; r < 120; r+=10) {
        for (int f = 0; f < 10; f++) {
            FLIP[r+f] = 110-r+f;
        }
    }

    // Zobrist keys
#ifdef OPENBENCH
    for (int i = 0; i < 25; i++) {
        for (int j = 0; j < SQUARE_SPAN; j++) {
            ZOBRIST.pieces[i][j] = rng();
        }
    }
    for (int i = 0; i < 120; i++) {
        ZOBRIST.ep[i] = rng();
    }
    ZOBRIST.castle_rights[0] = rng();
    ZOBRIST.castle_rights[1] = rng();
    ZOBRIST.castle_rights[2] = rng();
    ZOBRIST.castle_rights[3] = rng();
    ZOBRIST.stm = rng();
#else
    auto rng = fopen("/dev/urandom", "r");
    fread(&ZOBRIST, sizeof(ZOBRIST), 1, rng);
#endif
}
