int FT_WEIGHTS[25][SQUARE_SPAN][16];
int FT_BIAS[16] = {9, 11, -13, 37, 52, 68, 64, 19, 8, 65, -23, 51, 62, 0, -15, 54};
int OUT_WEIGHTS[32] = {-47, -76, 46, 13, -16, -14, -17, 31, 96, -111, 37, 15, 24, -25, -42, 15, 47, 75, -43, -21, 21, 16, 18, -30, -94, 111, -37, -19, -20, 25, 42, -17};
int OUT_BIAS = 466;
int ft_raw[] = {
    -4, 0, 3, -1, 0, 0, 1, 0, -4, 4, 2, 0, 3, -3, 1, 4, 4, 0, 3, 3, 4, 0, 0, 2, -4, -4, 3, 3, 0, 3, 0, 3, -2, -3, 0, -1, -4, 4, 4, -3, 0, 0, 4, 3, -2, 1, 0, 0, 4, 0, 0, -2, 4, 2, 4, -2, -2, 2, 2, 2, 1, 2, -2, -2, 2, 1, -2, -3, 0, -4, 3, 2, -3, 2, 3, 2, 4, 4, -3, 3, -4, -3, -4, -1, 1, 1, 2, 2, 1, 4, 2, 2, -4, -1, 0, 2, 3, -2, -1, 4, 4, -2, 1, -3, -1, -3, 4, 2, 2, 0, 4, -2, -1, 1, -4, 1, 1, 4, -1, 3, 1, -1, 4, 1, 0, -1, -2, -2, 1, 0, 10, 14, -10, -13, -11, -12, 1, -23, 15, 12, 10, 16, -17, 14, 0, 1, 7, 14, -11, -14, -12, 20, -3, -15, 21, 10, 10, -27, -8, 12, -9, 1, 7, 18, -14, -16, -12, 2, 0, -14, 20, 19, 16, 35, -11, 15, 1, -6, 11, 9, -7, -9, -8, -29, 11, -11, 26, 9, 13, -64, -12, 13, -24, -4, 10, 14, -11, -11, -9, -30, 15, -12, 18, 13, 13, 58, -15, 15, -9, 4, 4, 15, -10, -13, -9, -4, 23, -11, 10, 11, 9, -42, -4, 15, -19, 0, -1, 10, -9, -7, -5, 9, 13, -11, 15, 10, 10, 31, 13, 8, -15, -1, 6, 3, 1, 1, -1, -5, 5, -15, 25, -1, -2, -31, 16, -1, 2, 0, 8, 15, -8, -9, -6, -9, 0, -21, 15, 16, 12, 16, -13, 14, -7, 1, 4, 10, -7, -9, -6, 6, -1, -12, 24, 15, 10, -33, -4, 15, 1, 1, 10, 20, -10, -11, -8, 1, 2, -16, 34, 14, 15, 46, -3, 15, -14, -2, 9, 8, -7, -7, -4, -22, 10, -8, 35, 6, 6, -69, -3, 9, 0, -5, 8, 20, -11, -13, -10, -23, 17, -14, 17, 14, 10, 74, -11, 17, -21, 4, 2, 14, -2, -3, -1, -10, 19, -11, 18, 11, 7, -71, -4, 7, -2, -1, 5, 14, -8, -7, -6, 6, 16, -13, 18, 14, 10, 37, 15, 11, -16, 0, 5, 6, 2, 3, 3, -3, 4, -14, 21, 1, 0, -37, 19, 6, -2, 2, 0, 14, -6, -6, -7, -34, 1, -20, 16, 14, 11, 14, -13, 11, -2, 1, -7, 13, -7, -9, -7, -32, 1, -16, 26, 15, 13, -33, -4, 11, -14, 2, -1, 15, -10, -12, -10, -29, 2, -17, 38, 15, 13, 37, -3, 11, 9, 0, 12, 7, -9, -11, -10, -26, 7, -16, 40, 12, 8, -63, 2, 10, -23, -2, 5, 11, -11, -11, -10, -20, 11, -15, 40, 17, 12, 63, -4, 18, 4, 2, 19, 13, -6, -8, -4, -17, 16, -16, 25, 12, 9, -73, -4, 11, -11, -7, 19, 12, -2, -4, -1, -2, 9, -16, 29, 12, 12, 38, 9, 10, -10, -6, 20, 4, 2, 3, 4, -7, 5, -16, 23, 4, 6, -35, 19, 2, -1, 9, -16, 19, -11, -13, -12, -67, 1, -20, 8, 17, 21, 17, -7, 21, -16, 11, -17, 22, -14, -16, -16, -64, 1, -18, 15, 19, 25, -27, 3, 22, -2, 7, -4, 24, -15, -20, -19, -72, 0, -23, 28, 29, 27, 40, -3, 26, -16, 1, 4, 18, -14, -15, -15, -64, 2, -18, 40, 19, 19, -49, 7, 19, 4, -3, 31, 23, -16, -15, -14, -48, 4, -18, 45, 23, 25, 46, -8, 22, -7, 0, 31, 18, -8, -11, -9, -31, 5, -18, 31, 14, 21, -76, -1, 20, 2, -9, 37, 23, -11, -12, -10, -18, 7, -19, 27, 22, 17, 31, 26, 22, -11, -12, 36, 12, 0, -3, 0, -12, 1, -17, 27, 12, 9, -35, 27, 12, -15, 18, -27, 30, -20, -23, -25, -116, -5, -20, -4, 31, 40, 24, -1, 30, -12, 22, -19, 21, -23, -28, -27, -149, -9, -26, -6, 34, 44, -29, 2, 41, -23, 19, -7, 29, -23, -27, -29, -135, -12, -27, 17, 39, 46, 37, -16, 45, -3, 11, 29, 34, -24, -27, -28, -104, -10, -25, 27, 43, 45, -36, -7, 40, -23, -2, 43, 33, -23, -25, -24, -97, -9, -22, 32, 35, 42, 37, -15, 42, 7, -12, 68, 37, -19, -22, -19, -76, -3, -24, 22, 32, 37, -72, -10, 34, -17, -29, 59, 28, -20, -22, -19, -47, -6, -25, 25, 32, 32, 37, 41, 32, -5, -24, 49, 28, -13, -14, -12, -26, -3, -21, 17, 24, 24, -36, 49, 21, 5, 8, -19, -5, -23, -28, -31, -94, -16, -27, 13, 22, 40, 61, -82, 31, -195, 19, -19, -8, -25, -31, -32, -155, -24, -29, 6, 20, 49, -58, -54, 31, -1, 14, 13, 4, -28, -33, -37, -151, -32, -41, 32, 37, 60, 42, -95, 43, -106, 11, 20, 23, -28, -35, -37, -136, -30, -32, 35, 36, 61, -42, -74, 44, 11, -26, 59, 27, -31, -36, -35, -122, -32, -37, 44, 44, 59, 39, -88, 52, -133, -79, 49, 8, -18, -23, -21, -121, -20, -30, 36, 23, 38, -110, -28, 28, 3, -212, 67, 13, -21, -27, -27, -82, -33, -49, 36, 23, 49, 52, 81, 34, -164, -205, 22, 0, -8, -17, -15, -63, -15, -29, 13, 12, 30, -101, 34, 14, -3, -3, -2, 1, -2, 4, -4, 3, -3, -4, 3, 2, 0, -1, 4, -3, 0, 4, -4, -1, 1, 2, 0, 0, -4, -1, -2, -2, -4, 4, -1, -2, -1, 4, 1, 1, 3, 0, 3, 3, -1, -4, 3, -4, 4, -2, 2, 0, -2, -4, 3, -4, 3, 2, 1, -4, 0, 2, 0, 0, -1, -3, 3, 3, 1, -4, -1, 1, 2, -3, 2, 1, 1, 4, -4, 2, 3, -4, 0, -3, -4, 0, 5, -3, -2, 0, -3, -2, 2, 4, -4, -2, 0, -1, -2, -2, -4, 0, -2, -3, 1, 0, 4, 3, 4, -4, -2, 1, 3, 1, -4, 2, 3, -2, 0, 2, -3, 1, 1, 4, -3, -2, 2, 0, 4, 0, -4, 5, -5, -25, -17, -6, -19, -15, -16, 27, 25, -26, 48, 15, 18, -15, -18, 16, -10, -29, -18, 4, -12, -10, -14, 50, 27, -34, 40, 12, 14, -27, -22, 9, -11, -26, -10, 16, -18, -19, -21, 36, 26, -22, 42, 20, 24, -9, -16, 20, -16, -23, -3, 20, -20, -11, -16, 35, 27, -21, 42, 19, 25, -16, -16, 19, -18, -22, -1, 16, -20, -17, -17, 38, 28, -21, 49, 20, 21, -13, -16, 18, -20, -20, 1, 17, -14, -17, -14, 45, 27, -19, 40, 16, 21, -17, -18, 15, -17, -22, -4, 7, -9, -6, -14, 60, 28, -27, 46, 10, 14, -18, -15, 8, -19, -20, -7, 1, -7, -7, -10, 46, 20, -25, 57, 9, 15, -24, -12, 5, -5, -30, -10, 23, -16, -9, -12, 32, 24, -21, 43, 20, 20, -13, -19, 17, -16, -28, 1, 19, -13, -11, -13, 30, 26, -23, 40, 17, 21, -29, -18, 18, -12, -27, -5, 29, -22, -20, -25, 29, 25, -22, 45, 25, 25, -8, -17, 23, -18, -24, 8, 24, -19, -17, -19, 20, 29, -20, 36, 22, 28, -23, -19, 22, -17, -22, 9, 23, -21, -23, -23, 27, 30, -21, 42, 22, 26, -8, -17, 21, -23, -17, 16, 21, -23, -15, -19, 32, 32, -19, 38, 19, 27, -25, -17, 21, -19, -21, 12, 20, -19, -12, -12, 47, 30, -21, 44, 18, 21, -10, -20, 18, -19, -20, 11, 19, -11, -15, -13, 42, 25, -21, 48, 16, 20, -22, -25, 14, -13, -31, -8, 17, -21, -15, -13, 31, 24, -23, 36, 22, 25, -18, -20, 16, -14, -28, 0, 30, -23, -22, -20, 19, 26, -20, 34, 26, 29, -18, -17, 27, -20, -26, 5, 24, -29, -26, -30, 17, 24, -21, 31, 29, 33, -14, -18, 24, -19, -23, 19, 31, -30, -29, -28, 11, 29, -19, 39, 28, 30, -13, -19, 25, -22, -24, 21, 34, -28, -27, -28, 17, 31, -19, 34, 28, 34, -10, -20, 27, -16, -21, 22, 26, -30, -29, -26, 25, 31, -20, 37, 26, 23, -11, -14, 22, -22, -21, 19, 27, -21, -20, -18, 37, 29, -17, 35, 26, 28, -10, -18, 25, -20, -20, 13, 16, -20, -14, -19, 48, 24, -21, 46, 18, 17, -12, -17, 19, -14, -33, -6, 28, -24, -23, -23, 5, 24, -18, 25, 27, 24, -14, -20, 25, -21, -33, 6, 38, -32, -29, -27, -6, 21, -17, 30, 34, 31, -18, -22, 31, -17, -30, 20, 37, -37, -31, -30, -15, 24, -18, 29, 36, 35, -10, -20, 30, -19, -26, 24, 38, -36, -30, -34, -12, 27, -20, 34, 35, 39, -20, -20, 33, -21, -26, 38, 36, -36, -32, -29, -9, 25, -19, 27, 35, 33, -8, -19, 28, -21, -23, 32, 37, -36, -31, -36, 9, 30, -18, 23, 30, 35, -14, -20, 31, -16, -22, 41, 38, -28, -27, -25, 16, 24, -17, 27, 29, 32, -7, -25, 29, -21, -24, 30, 26, -24, -25, -26, 33, 22, -18, 39, 26, 26, -19, -15, 23, -9, -35, -2, 32, -25, -25, -24, -3, 24, -18, 20, 30, 27, -11, -21, 29, -14, -34, 7, 40, -35, -32, -30, -6, 21, -18, 20, 37, 37, -23, -17, 34, -20, -36, 21, 47, -36, -29, -33, -18, 21, -16, 23, 37, 39, -1, -22, 35, -19, -30, 28, 44, -41, -34, -41, -15, 20, -15, 24, 44, 39, -35, -23, 39, -19, -28, 41, 46, -35, -31, -39, -21, 24, -18, 17, 39, 37, 10, -19, 40, -19, -21, 40, 44, -39, -37, -33, -6, 23, -17, 27, 35, 38, -23, -25, 38, -15, -25, 44, 37, -32, -32, -33, 7, 23, -19, 13, 33, 38, -2, -22, 31, -17, -20, 28, 34, -33, -27, -23, 31, 20, -18, 31, 29, 31, -23, -17, 32, -5, -38, -8, 33, -29, -28, -26, -28, 18, -21, 12, 37, 35, -6, -15, 33, -14, -33, 2, 40, -41, -34, -31, 0, 12, -17, 22, 37, 35, -35, -11, 39, -6, -38, 14, 50, -39, -34, -32, -26, 13, -15, 19, 42, 40, -5, -23, 43, -15, -30, 26, 45, -42, -41, -34, -18, 16, -15, 20, 41, 42, -28, -12, 44, -10, -27, 29, 56, -44, -39, -39, -11, 16, -16, 14, 48, 47, -7, -22, 47, -19, -21, 36, 37, -41, -33, -41, -4, 20, -14, 22, 39, 43, -34, -40, 37, -12, -25, 24, 45, -42, -32, -42, -1, 19, -17, 17, 44, 37, -2, -12, 40, -16, -20, 46, 34, -28, -27, -26, 10, 17, -19, 27, 34, 33, -31, -14, 27, -13, -33, -5, 26, -26, -24, -26, -26, 17, -20, 19, 31, 29, -23, -15, 30, -11, -34, 11, 24, -25, -22, -25, -22, 13, -20, 24, 30, 27, -14, -22, 30, -15, -30, 17, 44, -33, -33, -26, -17, 12, -19, 15, 41, 37, -45, -23, 39, -11, -30, 28, 51, -43, -36, -35, -18, 14, -17, 14, 43, 36, -10, -33, 43, -12, -31, 39, 47, -33, -27, -32, -21, 16, -15, 18, 39, 38, -23, -25, 38, -3, -28, 24, 48, -38, -33, -34, -7, 12, -16, 17, 46, 41, -6, -1, 42, -17, -43, 41, 29, -25, -24, -22, -19, 17, -20, 30, 21, 27, -33, -15, 22, -14, -27, 44, 27, -25, -29, -20, 7, 11, -18, 26, 32, 24, -26, -28, 26, -7, -17, 4, 12, -19, -27, -25, -90, 1, -25, -15, 24, 28, -31, -24, 20, -22, -37, 12, 13, -17, -13, -12, -66, 10, -22, 12, 21, 14, -17, -15, 20, -27, -42, 27, 21, -16, -13, -12, -69, 9, -22, 14, 19, 19, -37, -34, 22, -19, -40, 41, 29, -27, -20, -23, -53, 12, -20, 23, 28, 25, -14, -37, 22, -22, -37, 39, 41, -31, -28, -28, -28, 11, -16, 22, 39, 29, -40, -26, 30, -21, -71, 74, 17, -17, -16, -13, -90, 0, -26, 3, 15, 21, -20, -36, 18, -27, -64, 51, 19, -19, -9, -8, -46, 7, -19, 18, 15, 17, -30, -23, 14, -23, -58, 47, 23, -26, -22, -23, -33, -17, -22, 5, 23, 29, -21, -15, 23, 36, -27, -9, 4, -37, -32, -34, 13, 21, -45, 18, 38, 36, -18, -27, 30, -66, -24, 16, 27, -24, -17, -21, 32, 24, -33, 38, 28, 31, -17, -27, 26, 34, -33, -1, 22, -28, -27, -23, 43, 18, -41, 30, 25, 30, -14, -26, 23, -73, -26, 8, 23, -26, -22, -23, 31, 27, -28, 39, 25, 29, -20, -18, 25, 31, -31, -4, 24, -26, -21, -20, 38, 23, -35, 31, 22, 27, -17, -22, 23, -75, -29, 0, 20, -23, -22, -18, 29, 25, -25, 30, 25, 25, -27, -21, 20, 28, -33, -10, 23, -22, -22, -21, 26, 17, -40, 32, 21, 30, -12, -21, 25, -88, -26, 1, 21, -21, -25, -22, 12, 21, -33, 34, 22, 32, -20, -17, 25, -60, -20, 19, 32, -29, -29, -28, 33, 23, -35, 24, 29, 34, -23, -18, 30, 33, -26, 3, 31, -29, -28, -33, 49, 18, -38, 13, 33, 36, -13, -21, 30, -75, -20, 21, 33, -30, -28, -28, 35, 24, -24, 28, 29, 31, -25, -21, 33, 33, -31, 10, 29, -32, -28, -26, 27, 22, -36, 31, 33, 36, -3, -22, 31, -76, -26, 11, 31, -27, -30, -28, 17, 29, -24, 28, 30, 29, -32, -16, 29, 34, -32, -1, 34, -32, -31, -29, 25, 27, -32, 17, 36, 34, -5, -22, 36, -79, -28, 6, 31, -28, -26, -27, 31, 28, -24, 19, 29, 33, -25, -12, 30, 31, -33, -8, 28, -23, -27, -26, 29, 16, -37, 29, 25, 31, -18, -21, 27, 33, -32, 8, 34, -34, -32, -30, 31, 18, -35, 11, 33, 36, -14, -22, 35, -75, -20, 26, 39, -32, -31, -29, 28, 25, -26, 16, 32, 34, -24, -17, 37, 35, -26, 15, 38, -37, -36, -35, 29, 22, -34, 14, 38, 41, -10, -26, 38, -83, -23, 27, 38, -34, -30, -34, 15, 27, -24, 31, 34, 32, -21, -21, 28, 35, -30, 12, 42, -36, -35, -38, 11, 24, -32, 19, 36, 39, -12, -25, 33, -87, -26, 20, 39, -33, -33, -35, 15, 32, -24, 18, 40, 37, -15, -13, 33, 34, -31, 8, 42, -35, -35, -31, 23, 26, -32, 19, 35, 40, -10, -18, 36, -75, -30, 21, 29, -26, -28, -27, 22, 25, -22, 19, 28, 29, -22, -19, 25, -67, -26, 17, 39, -29, -26, -29, 10, 22, -27, 17, 39, 35, -22, -11, 31, 32, -30, 18, 44, -35, -34, -32, 13, 18, -33, 18, 35, 40, -14, -27, 39, -73, -24, 29, 40, -38, -30, -36, 7, 24, -25, 21, 39, 37, -29, -20, 32, 32, -27, 17, 52, -39, -38, -42, 1, 24, -31, 21, 44, 42, -15, -29, 43, -81, -24, 35, 47, -39, -31, -36, 1, 30, -23, 22, 36, 41, -13, -18, 40, 31, -33, 18, 42, -39, -35, -38, 8, 26, -29, 13, 36, 38, -3, -22, 35, -83, -29, 37, 36, -28, -28, -26, 10, 26, -22, 22, 33, 32, -29, -12, 27, 35, -33, 16, 34, -30, -30, -30, 24, 18, -34, 25, 30, 34, -10, -17, 36, 37, -33, 8, 35, -31, -30, -29, 11, 18, -34, 12, 33, 41, -15, -22, 35, -76, -27, 19, 39, -35, -34, -29, -5, 24, -23, 20, 42, 39, -29, -16, 38, 31, -30, 12, 47, -39, -36, -38, -11, 19, -31, 13, 46, 41, -6, -23, 43, -84, -26, 32, 55, -38, -38, -37, -15, 22, -22, 20, 43, 42, -38, -25, 40, 33, -30, 33, 51, -46, -40, -38, -10, 20, -30, 16, 45, 50, 8, -28, 47, -79, -26, 47, 39, -37, -36, -32, 0, 26, -21, 18, 41, 34, -33, -18, 35, 36, -33, 29, 43, -35, -35, -36, 17, 20, -32, 20, 41, 37, -3, -20, 33, -76, -28, 33, 36, -29, -28, -24, 15, 23, -26, 20, 34, 29, -32, -12, 32, -76, -40, 14, 38, -27, -25, -22, -5, 19, -22, 11, 37, 35, -33, -20, 35, 37, -30, 3, 48, -38, -37, -37, -5, 20, -32, 12, 42, 44, -15, -18, 43, -92, -31, 15, 46, -38, -34, -38, -23, 19, -23, 15, 40, 42, -29, -14, 39, 41, -29, 16, 52, -45, -41, -43, -9, 17, -29, 15, 48, 46, -25, -18, 43, -84, -27, 41, 52, -42, -38, -32, -5, 20, -22, 15, 44, 39, -24, -14, 42, 44, -28, 33, 52, -47, -41, -44, 6, 15, -30, 13, 46, 42, -18, -23, 44, -85, -22, 42, 42, -42, -29, -30, 11, 21, -22, 21, 36, 38, -29, -26, 34, 35, -28, 24, 42, -37, -29, -34, 17, 13, -31, 12, 35, 35, -11, -33, 37, 43, -27, -15, 41, -33, -31, -35, 4, 20, -39, 12, 40, 41, -7, -17, 40, -95, -29, -4, 41, -29, -27, -28, -18, 21, -25, 22, 41, 38, -40, -7, 38, 45, -30, 6, 42, -33, -34, -33, -11, 21, -35, 16, 44, 43, -4, -26, 41, -88, -28, 30, 46, -32, -30, -26, -7, 19, -25, 23, 37, 37, -39, -13, 33, 46, -32, 30, 44, -37, -32, -33, -1, 14, -36, 14, 43, 37, -17, -23, 41, -94, -27, 45, 43, -37, -30, -29, 13, 18, -25, 27, 33, 35, -39, -30, 30, 57, -37, 32, 45, -39, -35, -32, 34, 12, -35, 19, 45, 39, -9, -25, 38, -93, -17, 31, 39, -29, -22, -25, 40, 21, -23, 28, 33, 32, -38, -23, 32, -73, -29, 13, 24, -31, -26, -34, -13, 23, -29, -34, 33, 31, -33, -11, 32, 16, -32, 10, 39, -25, -20, -17, -8, 26, -31, 0, 30, 25, -18, -23, 28, -94, -32, 32, 35, -24, -15, -17, -11, 26, -26, 12, 28, 22, -27, -16, 25, 26, -34, 22, 40, -23, -20, -16, -12, 22, -39, 17, 28, 28, -28, -23, 26, -81, -33, 41, 43, -27, -23, -19, 3, 18, -29, 17, 34, 30, -35, -18, 34, 16, -53, 40, 32, -26, -18, -16, -17, 8, -40, 5, 27, 21, -29, -27, 23, -71, -35, 46, 38, -25, -17, -18, 22, 12, -26, 9, 30, 28, -29, -38, 27, 34, -25, 27, -10, -44, -33, -30, 31, 10, -36, 3, 39, 34, -16, -26, 35, -34, -54, 13, 24, -30, -29, -25, -6, 44, -65, 40, 23, 32, -29, -46, 25, -29, -53, 15, 31, -31, -24, -26, -11, 45, -60, 32, 33, 38, -35, -40, 32, -35, -52, 17, 36, -31, -30, -26, 4, 43, -58, 25, 33, 40, -17, -40, 30, -33, -50, 21, 30, -28, -25, -26, 25, 40, -58, 23, 31, 33, -38, -39, 31, -35, -50, 25, 35, -28, -27, -27, 34, 36, -57, 29, 33, 40, -14, -34, 28, -36, -52, 30, 29, -29, -28, -28, 26, 31, -58, 41, 29, 31, -38, -46, 25, -41, -42, 44, 31, -27, -25, -29, 20, 34, -62, 37, 33, 36, -8, -38, 27, -37, -45, 35, 23, -24, -26, -28, 19, 39, -64, 38, 24, 30, -39, -34, 28, -32, -48, 6, 29, -22, -24, -25, -15, 49, -64, 45, 28, 29, -25, -45, 25, -35, -48, 15, 33, -26, -21, -25, -10, 47, -63, 36, 32, 38, -37, -33, 30, -32, -47, 22, 34, -25, -26, -23, 5, 43, -58, 30, 35, 39, -20, -34, 32, -34, -46, 22, 35, -24, -20, -23, 19, 44, -57, 33, 29, 38, -39, -36, 33, -33, -48, 34, 33, -26, -20, -26, 29, 39, -56, 40, 34, 31, -12, -41, 31, -39, -45, 36, 31, -21, -21, -21, 31, 36, -58, 48, 29, 33, -47, -40, 30, -35, -41, 47, 31, -24, -23, -25, 27, 38, -59, 42, 31, 34, -10, -38, 27, -39, -42, 43, 29, -25, -21, -14, 20, 39, -60, 46, 23, 30, -38, -32, 22, -32, -47, 11, 32, -29, -22, -27, -2, 43, -65, 35, 36, 39, -23, -43, 35, -34, -51, 19, 39, -32, -28, -30, -1, 42, -62, 32, 38, 44, -30, -35, 39, -39, -50, 23, 35, -29, -28, -26, 6, 41, -60, 31, 33, 36, -18, -38, 33, -35, -49, 28, 37, -28, -24, -26, 13, 43, -60, 30, 30, 35, -32, -38, 28, -40, -49, 32, 37, -24, -26, -22, 24, 39, -57, 29, 37, 36, -14, -42, 31, -34, -46, 41, 36, -27, -26, -24, 30, 36, -60, 36, 33, 35, -33, -40, 31, -38, -42, 43, 36, -30, -27, -26, 33, 36, -59, 38, 37, 37, -16, -33, 40, -38, -46, 37, 37, -24, -22, -27, 29, 37, -60, 48, 30, 35, -30, -31, 31, -32, -48, 23, 42, -31, -30, -26, 10, 47, -65, 26, 34, 37, -23, -41, 31, -40, -52, 21, 40, -35, -32, -30, 6, 45, -64, 30, 38, 40, -34, -40, 33, -35, -50, 27, 42, -34, -32, -30, 10, 46, -60, 28, 40, 35, -23, -40, 38, -44, -49, 30, 40, -36, -29, -30, 14, 44, -58, 24, 33, 34, -32, -43, 29, -36, -50, 40, 40, -33, -29, -29, 22, 40, -57, 27, 33, 36, -15, -41, 30, -41, -45, 44, 41, -31, -27, -27, 30, 43, -58, 27, 34, 37, -40, -39, 35, -41, -43, 46, 42, -33, -26, -26, 30, 39, -62, 32, 34, 35, -15, -32, 29, -39, -46, 33, 34, -28, -29, -28, 31, 42, -61, 33, 31, 34, -39, -25, 34, -36, -49, 34, 40, -34, -32, -30, 19, 50, -65, 25, 34, 35, -21, -47, 28, -36, -51, 31, 48, -40, -34, -27, 3, 46, -61, 31, 35, 35, -34, -43, 34, -40, -51, 37, 48, -33, -35, -30, 8, 46, -58, 21, 34, 33, -24, -48, 31, -34, -51, 39, 45, -34, -33, -34, 9, 44, -54, 30, 33, 38, -32, -48, 36, -46, -47, 51, 41, -35, -24, -34, 15, 41, -55, 22, 35, 34, -19, -47, 32, -31, -45, 53, 45, -42, -34, -27, 24, 41, -55, 25, 32, 35, -33, -40, 30, -45, -43, 54, 42, -40, -28, -30, 27, 43, -59, 26, 35, 35, -22, -41, 32, -35, -48, 42, 43, -33, -29, -31, 31, 42, -62, 31, 32, 38, -38, -23, 36, -25, -50, 46, 45, -31, -27, -30, 4, 50, -63, 18, 33, 38, -23, -51, 30, -38, -53, 41, 40, -39, -36, -32, -1, 46, -57, 27, 36, 35, -34, -46, 33, -33, -56, 47, 41, -37, -29, -31, -8, 42, -53, 18, 39, 38, -27, -50, 34, -45, -52, 49, 42, -44, -30, -38, -2, 41, -52, 22, 34, 42, -34, -49, 37, -27, -54, 59, 48, -40, -33, -29, -1, 38, -50, 13, 35, 40, -29, -51, 33, -43, -48, 61, 45, -36, -39, -37, 10, 40, -50, 25, 35, 38, -37, -48, 35, -33, -47, 61, 42, -36, -32, -38, 6, 39, -56, 21, 33, 34, -29, -46, 31, -47, -52, 54, 39, -33, -29, -34, 13, 43, -57, 22, 35, 35, -36, -33, 31, -31, -51, 53, 42, -40, -26, -33, -14, 51, -58, 4, 37, 38, -27, -51, 32, -31, -55, 57, 42, -39, -36, -32, -25, 46, -56, 17, 36, 39, -32, -50, 33, -33, -55, 56, 42, -34, -36, -30, -18, 47, -51, 5, 37, 41, -30, -53, 37, -30, -57, 57, 52, -42, -34, -36, -16, 43, -49, 17, 44, 42, -31, -52, 39, -43, -58, 65, 46, -36, -29, -36, -16, 42, -51, 4, 40, 40, -26, -59, 31, -30, -53, 68, 41, -34, -32, -32, -9, 45, -49, 15, 39, 37, -37, -59, 34, -43, -54, 73, 38, -34, -32, -25, -22, 47, -53, 10, 32, 36, -29, -52, 30, -37, -52, 60, 42, -36, -35, -37, -10, 46, -55, 7, 38, 36, -36, -31, 30, -21, -52, 54, 42, -40, -37, -34, -8, 42, -53, 7, 38, 39, -12, -57, 41, -45, -56, 45, 47, -42, -42, -38, -12, 38, -52, 19, 41, 51, -54, -34, 38, -23, -59, 42, 49, -45, -42, -41, -23, 37, -51, -2, 46, 54, -23, -44, 44, -40, -55, 45, 44, -44, -43, -41, -19, 33, -49, 7, 50, 48, -42, -37, 51, -26, -60, 47, 51, -46, -40, -44, -21, 27, -51, 3, 47, 53, -28, -44, 40, -40, -59, 46, 47, -42, -42, -41, -9, 30, -46, 18, 42, 50, -49, -49, 42, -25, -59, 44, 45, -42, -41, -40, -17, 37, -51, 11, 45, 50, -13, -35, 44, -43, -66, 46, 41, -36, -38, -35, -11, 36, -48, 18, 40, 45, -48, -25, 37, -58, -125, 39, 56, -54, -51, -54, 43, 68, -106, 50, 58, 67, -68, -80, 51, -67, -120, 54, 55, -56, -56, -53, 56, 65, -102, 56, 59, 67, -73, -73, 59, -58, -119, 52, 56, -61, -54, -56, 72, 60, -101, 61, 59, 70, -66, -75, 52, -69, -115, 50, 55, -64, -58, -59, 86, 62, -102, 61, 56, 63, -66, -72, 50, -65, -119, 49, 55, -59, -54, -53, 88, 54, -99, 64, 54, 64, -65, -73, 57, -75, -116, 57, 48, -50, -49, -49, 88, 53, -101, 69, 54, 64, -74, -72, 52, -68, -110, 60, 48, -53, -52, -50, 77, 47, -109, 76, 51, 59, -59, -72, 48, -81, -111, 74, 43, -47, -46, -48, 81, 56, -106, 63, 48, 60, -77, -78, 47, -66, -125, 56, 60, -60, -52, -60, 55, 67, -100, 45, 62, 66, -66, -70, 58, -61, -118, 50, 66, -62, -59, -58, 64, 64, -103, 52, 64, 68, -71, -64, 57, -68, -116, 60, 62, -64, -63, -63, 77, 61, -97, 50, 64, 71, -68, -70, 60, -63, -114, 50, 62, -67, -57, -62, 84, 59, -98, 63, 57, 66, -69, -73, 61, -74, -112, 64, 60, -62, -61, -64, 85, 61, -98, 59, 58, 70, -62, -66, 56, -64, -108, 54, 63, -62, -55, -59, 90, 57, -98, 68, 57, 66, -74, -65, 61, -74, -105, 76, 63, -57, -56, -59, 88, 57, -96, 65, 63, 64, -59, -71, 58, -66, -103, 72, 55, -60, -57, -56, 79, 55, -104, 67, 58, 64, -84, -74, 51, -58, -126, 51, 61, -67, -57, -61, 55, 65, -101, 42, 60, 67, -71, -63, 63, -72, -118, 62, 65, -71, -62, -63, 68, 63, -100, 42, 67, 71, -65, -66, 60, -62, -113, 61, 70, -69, -62, -65, 66, 62, -100, 44, 66, 71, -69, -68, 59, -78, -110, 69, 64, -71, -57, -65, 74, 63, -99, 55, 62, 74, -69, -66, 60, -62, -110, 67, 68, -66, -59, -63, 71, 62, -98, 51, 62, 74, -66, -68, 59, -75, -110, 79, 71, -70, -63, -66, 78, 61, -97, 52, 67, 75, -62, -66, 58, -65, -106, 75, 69, -74, -58, -58, 83, 58, -97, 59, 68, 71, -72, -68, 63, -73, -104, 85, 65, -66, -59, -61, 74, 55, -100, 62, 65, 72, -74, -71, 61, -71, -127, 58, 63, -69, -58, -65, 57, 66, -99, 38, 65, 72, -67, -65, 63, -64, -125, 60, 68, -69, -67, -64, 46, 64, -103, 41, 67, 68, -67, -59, 65, -75, -115, 77, 73, -74, -71, -63, 52, 65, -101, 39, 68, 77, -73, -63, 67, -67, -111, 73, 81, -77, -65, -69, 50, 66, -101, 48, 68, 74, -60, -68, 65, -77, -109, 91, 79, -78, -62, -66, 57, 66, -98, 47, 69, 78, -69, -64, 65, -63, -108, 84, 74, -77, -63, -66, 63, 62, -100, 45, 67, 72, -61, -66, 64, -73, -108, 94, 77, -76, -64, -59, 72, 59, -99, 50, 63, 74, -69, -70, 59, -66, -107, 90, 67, -74, -68, -65, 77, 55, -102, 59, 65, 71, -70, -72, 60, -63, -132, 61, 65, -69, -67, -61, 50, 68, -100, 33, 65, 75, -68, -57, 66, -75, -128, 73, 75, -76, -63, -64, 35, 68, -104, 38, 66, 77, -71, -61, 63, -61, -120, 76, 75, -70, -66, -71, 31, 67, -104, 32, 68, 74, -72, -59, 62, -79, -118, 90, 90, -74, -63, -68, 32, 64, -100, 40, 80, 78, -72, -59, 72, -66, -112, 102, 90, -81, -65, -69, 29, 64, -97, 33, 75, 83, -64, -64, 69, -72, -107, 109, 87, -78, -68, -65, 47, 62, -98, 37, 75, 77, -65, -66, 66, -67, -108, 101, 78, -81, -59, -65, 57, 57, -102, 47, 73, 72, -64, -71, 68, -66, -112, 97, 80, -80, -69, -66, 72, 53, -102, 48, 69, 72, -75, -70, 64, -72, -139, 73, 71, -72, -67, -66, 32, 64, -102, 25, 64, 76, -77, -59, 65, -61, -136, 75, 78, -76, -67, -66, 28, 65, -105, 29, 67, 77, -71, -45, 65, -77, -141, 90, 81, -80, -73, -64, 28, 65, -103, 17, 71, 81, -71, -45, 66, -60, -123, 89, 88, -75, -67, -77, 33, 64, -103, 34, 74, 82, -80, -48, 69, -77, -112, 109, 88, -79, -70, -74, 26, 63, -100, 25, 76, 79, -70, -54, 70, -63, -107, 100, 93, -85, -67, -66, 33, 54, -101, 34, 76, 83, -67, -75, 73, -68, -106, 104, 84, -81, -66, -65, 48, 56, -101, 38, 72, 75, -78, -86, 71, -64, -107, 105, 81, -71, -61, -63, 56, 48, -102, 47, 67, 78, -74, -75, 63, -58, -138, 72, 74, -76, -60, -63, 37, 65, -101, 13, 66, 76, -73, -52, 62, -75, -136, 96, 81, -77, -60, -62, 19, 66, -103, 17, 71, 74, -83, -45, 65, -61, -127, 96, 78, -81, -73, -70, 21, 63, -104, 15, 72, 75, -71, -50, 64, -78, -128, 108, 87, -80, -68, -71, 19, 61, -99, 17, 75, 76, -75, -54, 68, -59, -114, 112, 89, -78, -74, -68, 19, 61, -105, 14, 69, 72, -70, -65, 67, -69, -110, 103, 87, -82, -77, -70, 33, 54, -95, 22, 75, 75, -79, -80, 69, -61, -103, 98, 88, -76, -62, -67, 26, 59, -95, 25, 72, 77, -73, -79, 66, -72, -103, 96, 77, -74, -71, -63, 57, 59, -101, 32, 69, 75, -83, -69, 63, -72, -139, 83, 71, -79, -59, -78, 0, 63, -104, -22, 64, 69, -68, -69, 61, -66, -134, 82, 78, -73, -66, -75, 18, 62, -100, 2, 70, 71, -90, -55, 67, -69, -136, 94, 87, -87, -76, -70, 17, 59, -98, 14, 74, 77, -78, -62, 73, -68, -125, 94, 91, -85, -71, -77, 25, 60, -102, 24, 77, 80, -67, -52, 71, -65, -119, 105, 96, -91, -67, -80, 27, 54, -93, 21, 77, 77, -66, -54, 71, -62, -120, 96, 84, -78, -63, -80, 29, 51, -94, 24, 72, 72, -81, -79, 70, -71, -111, 105, 80, -71, -59, -71, 28, 57, -94, 12, 65, 69, -75, -97, 61, -69, -108, 107, 69, -85, -55, -55, 33, 48, -108, 38, 60, 70, -76, -56, 56, 13, 23, -18, 1, -7, -4, -1, 45, -18, 18, -44, 19, 13, 14, 1, 14, 15, 19, -8, 9, 4, 3, 4, 57, -13, 21, -37, 7, 8, 5, 8, 8, 9, 19, -13, -4, 8, 11, 8, 56, -4, 15, -28, 5, 5, -3, 10, 6, 14, 26, -8, 6, 3, 6, 2, 26, 8, 3, -6, 7, 8, -5, 19, 8, 12, 35, -13, 8, 3, 5, -1, 41, 23, 2, -10, 9, 7, -12, 31, 6, 14, 31, 1, 10, 10, 7, 8, 40, 31, 10, -10, 8, 6, -4, 23, 8, 11, 30, -7, 14, 1, -3, -3, 49, 22, 21, -24, 13, 12, -4, 13, 11, 21, 36, 4, 20, -2, -7, -3, 55, 19, 22, -26, 19, 19, 2, 23, 21, 18, 11, -3, 12, 5, 4, 6, 42, -17, 19, -33, 12, 12, 19, -4, 11, 11, 13, -14, -16, 1, 2, 3, 32, -7, 14, -21, 17, 10, 6, 0, 15, 10, 15, 1, 6, 11, 10, 10, 24, 2, 10, -8, 8, 6, 1, 1, 8, 11, 22, -4, 5, 8, 9, 10, 17, 16, 7, 0, 10, 8, -1, 13, 9, 2, 25, 11, 9, 9, 6, 12, 14, 31, 9, -6, 8, 7, -2, 16, 8, 3, 30, 1, 12, 9, 8, 10, 28, 37, 12, -12, 11, 10, 7, 16, 12, 7, 32, 13, 16, 7, 7, 8, 38, 36, 15, -16, 13, 11, 4, 16, 13, 5, 34, 6, 16, 7, 3, 2, 43, 24, 15, -18, 15, 14, 1, 18, 15, 7, 1, -17, 4, 8, 8, 12, 9, -15, 11, -21, 7, 4, 5, -3, 7, 10, 3, -6, 15, 7, 7, 7, 1, -5, 10, -3, 14, 10, 7, -1, 14, 12, 5, -11, 6, 9, 7, 14, -4, 6, 6, 1, 10, 5, 9, 5, 9, -2, 11, 8, 10, 18, 15, 17, -4, 16, 6, 15, 2, 3, 6, 5, 5, 3, 15, 7, 11, 16, 18, 16, -1, 34, 6, 4, 5, 2, 5, 9, 6, -9, 20, 24, 10, 18, 17, 21, 12, 42, 6, 2, 4, 1, 10, 15, 5, -4, 26, 20, 11, 17, 15, 18, 28, 40, 9, -2, 6, 3, 10, 22, 7, 3, 24, 28, 8, 16, 14, 17, 39, 31, 9, -9, 3, -1, 7, 19, 3, 11, -2, -6, 2, 13, 17, 13, -14, -15, 6, 2, 4, 1, 6, 0, 4, 6, -7, -15, 9, 12, 11, 16, -20, -12, 6, 21, 7, 7, 1, -1, 9, 2, -5, 1, 10, 16, 14, 14, -26, -4, 5, 27, 7, 7, 5, 4, 9, 8, -4, 3, 11, 17, 13, 17, -29, 6, 3, 28, 2, 3, 1, 0, 6, -12, 3, 26, 11, 20, 15, 20, -20, 27, 2, 28, 5, 0, 13, 3, 3, -6, 8, 22, 11, 23, 18, 22, -6, 30, 3, 15, 3, 1, 8, 7, 1, -11, 8, 42, 8, 23, 23, 26, 3, 31, 4, 10, 1, -1, 15, 5, 2, -7, 7, 27, 4, 26, 26, 27, 20, 31, 2, 3, -3, -6, 8, -1, -3, 3, -13, -30, -10, 18, 18, 16, -48, -22, 9, 30, -2, 6, 2, 3, 1, 2, -19, -9, 4, 19, 16, 16, -49, -29, 13, 55, 0, 5, -2, -7, 2, 12, -25, -9, 7, 16, 11, 15, -55, -17, 10, 50, 5, 8, 5, 0, 5, -8, -22, 11, 6, 20, 13, 16, -59, -8, 9, 49, 3, 12, -10, 0, 4, 2, -17, 22, 8, 21, 15, 18, -53, 12, 5, 46, 3, 4, 31, -6, 5, -16, -14, 42, 10, 22, 16, 19, -45, 19, 7, 37, 2, -1, 8, -12, 2, 2, -8, 40, 3, 27, 21, 24, -19, 18, 3, 29, -4, -1, 34, -18, -3, 4, -5, 49, 4, 25, 21, 25, -1, 19, 4, 20, -1, -7, 13, -24, -2, 9, -27, -32, -5, 11, 8, 9, -95, -40, 15, 54, 1, 12, 11, -21, 6, 18, -36, -46, 3, 11, 3, 7, -111, -45, 23, 63, 5, 20, -30, -8, 9, -1, -43, -19, 0, 14, 3, 8, -154, -36, 20, 61, 3, 19, -1, -7, 11, 15, -39, 17, 1, 17, 7, 10, -188, -22, 17, 62, 4, 23, -23, -6, 10, -14, -37, 40, 7, 14, 5, 10, -222, -3, 17, 57, 11, 22, 44, -17, 12, 2, -33, 51, 4, 19, 12, 13, -227, 12, 11, 46, 1, 6, 28, -41, 5, -19, -27, 57, 6, 23, 17, 17, -112, 10, 15, 46, 0, 3, 55, -56, 1, 10, -10, 48, 1, 24, 18, 24, -46, 15, 8, 39, -3, -4, -24, -67, -1, 84, -30, -70, -6, 4, -4, -2, -176, -123, 16, 36, 9, 23, 15, -32, 15, 1, -50, -80, -11, 3, -8, -6, -192, -106, 27, 61, 11, 34, -68, -8, 16, 41, -46, -43, 1, 5, -6, -5, -185, -77, 22, 67, 13, 31, 20, -6, 20, -4, -46, 15, -7, 10, -1, 1, -218, -52, 24, 60, 12, 31, -63, -2, 16, 16, -49, 43, 0, 14, 3, 4, -229, -26, 16, 56, 6, 26, 73, -25, 9, -12, -39, 68, -8, 21, 11, 9, -236, -3, 28, 55, -1, 11, -45, -52, 0, 22, -31, 70, -2, 16, 9, 9, -242, 0, 14, 49, -3, 13, 90, -147, 2, -20, -27, 52, -6, 28, 17, 20, -177, -2, 23, 38, -12, 5, -65, -176, -4, 125, -19, -30, 11, -9, -14, -12, -112, -70, 11, 15, 23, 28, 26, -43, 21, 33, -37, -57, 3, -6, -13, -10, -180, -79, 23, 37, 15, 31, -48, -14, 21, 41, -33, -29, 7, -4, -10, -6, -162, -67, 14, 43, 16, 33, -9, -9, 21, 8, -33, 18, -3, 5, -4, 0, -212, -69, 19, 41, 9, 22, 49, -13, 12, 19, -37, 32, -1, 6, -3, 0, -198, -37, 15, 44, 7, 23, 2, -15, 12, -1, -44, 49, -1, 13, 4, 9, -162, -23, 24, 39, 1, 17, 84, -46, 7, 32, -16, 76, -3, 13, 5, 8, -138, -15, 26, 39, -1, 10, 68, -63, 5, -22, -2, 50, -9, 18, 9, 11, -97, -29, 33, 34, -2, 6, -84, -162, 2, 1, -3, 1, -4, -1, 1, 3, 1, -4, 4, 1, 0, 0, 5, 3, -1, -4, 1, -1, -1, -3, 3, 5, 0, 1, -4, -3, 2, 4, -3, -1, -3, -4, 4, -2, -4, -4, -1, -3, 3, 0, -2, 4, 1, -1, -3, 3, 1, 2, 5, 1, -1, -1, 2, -3, -2, 3, 0, -2, -2, 2, 4, -4, 4, 2, -2, 4, 4, 2, -3, 3, -3, 2, 4, 3, 3, -2, -5, -2, 2, 3, -3, -3, 3, 1, 0, -3, 1, 1, 1, -2, 4, -5, -5, -4, -4, -3, 3, -1, 1, 0, 1, 0, -2, 4, -2, 3, 3, 3, -2, 4, 3, 4, -2, 0, -4, -4, -1, 4, -4, 3, -2, 3, 1, 4, -1, 3, 2, -24, 10, -54, -68, 46, 35, 38, 59, -31, 39, -60, -30, -28, -11, 27, -31, 31, 8, -30, -28, 48, 45, 43, 89, -51, 17, -8, -36, -32, 1, 17, -37, -22, 10, -71, -42, 62, 57, 52, 82, -27, 10, -33, -37, -35, -19, 8, -38, 40, -2, -23, -41, 56, 51, 54, 50, 10, -6, -12, -39, -33, -11, -5, -38, 2, -24, -70, -38, 64, 53, 56, 45, 19, 6, -33, -38, -35, -29, -26, -38, 51, -32, -17, -19, 39, 37, 33, 65, 18, 7, -29, -22, -20, 12, -14, -22, 13, -47, -53, -36, 44, 40, 32, 65, -3, 20, -35, -33, -26, 2, -23, -31, 48, -34, -13, -28, 27, 29, 20, 62, -8, 26, -42, -27, -13, 20, -32, -23, -5, 16, -7, -30, 35, 32, 32, 62, -12, 32, -21, -25, -24, -12, 23, -25, -7, 20, -17, -24, 48, 39, 43, 89, -22, 17, 2, -27, -28, 11, 20, -27, 20, 16, -19, -26, 51, 46, 45, 64, -9, 0, -15, -28, -28, -15, 18, -28, -4, 10, -14, -30, 47, 39, 42, 40, 3, -8, 9, -27, -27, 2, 9, -27, 35, -5, -1, -22, 43, 37, 38, 28, 10, -9, -25, -25, -26, -9, -6, -24, 15, -13, -2, -16, 29, 31, 36, 39, 18, -1, -29, -17, -20, 10, -15, -16, 42, -23, 5, -15, 31, 26, 26, 43, 3, 13, -24, -16, -21, -6, -10, -18, 34, -18, -2, -11, 23, 23, 25, 46, 1, 21, -16, -13, -13, 18, -1, -12, -1, 18, -1, -18, 19, 24, 19, 36, -8, 20, -20, -12, -12, 2, 17, -13, 9, 16, 6, -15, 24, 25, 22, 22, -10, 10, -2, -17, -15, 13, 10, -16, -5, 15, -2, -22, 27, 26, 25, 24, -5, 1, -18, -19, -19, 3, 9, -18, 19, 8, 6, -15, 18, 18, 19, 4, -3, -11, 10, -15, -13, 27, 5, -14, -9, 3, -2, -13, 21, 19, 21, -1, 1, -5, -24, -14, -15, -3, -3, -15, 25, -2, -1, -8, 16, 14, 14, 9, 8, -2, -15, -9, -10, 17, -10, -8, 15, -7, -4, -9, 21, 16, 21, 4, 2, 8, -21, -10, -11, 4, -4, -10, 25, -7, -4, 1, 12, 10, 12, 22, 0, 14, -21, 0, 0, 17, 8, 0, 1, 17, 10, -8, 14, 9, 15, 33, -8, 13, -19, -6, -6, 6, 11, -6, 4, 20, 5, -10, 13, 16, 14, 14, -9, 8, 5, -8, -8, 10, 12, -9, 7, 14, 8, -10, 16, 16, 17, 8, -4, 0, -17, -11, -11, 9, 4, -10, -8, 12, -8, -10, 8, 8, 13, -2, -4, -4, 22, -9, -9, 14, 1, -10, 12, 5, 10, -6, 18, 9, 12, -18, -1, -4, -13, -10, -11, 8, -8, -9, 1, 6, -15, -5, 13, 9, 9, 3, 4, 1, -5, -5, -6, 7, -8, -5, 16, -1, -6, 0, 10, 11, 8, -13, 0, 5, -20, -2, -3, 19, 17, -2, 19, 1, -18, 3, 6, 2, 7, 6, 2, 9, -25, 4, 3, 12, 29, 4, 4, 15, 19, -3, 12, 10, 13, 42, -7, 9, -16, -4, -8, 4, 8, -6, 10, 23, 15, -4, 10, 9, 10, 25, -9, 6, 7, -5, -8, 11, 5, -5, -5, 17, 9, -6, 12, 15, 11, 14, -4, 4, -8, -9, -10, 11, 2, -8, 7, 11, -9, -2, 8, 10, 12, 20, -4, 2, 14, -3, -6, 13, 0, -5, -1, 8, -8, -8, 17, 14, 16, -3, -2, 3, -12, -10, -11, 5, -10, -9, 17, 6, -20, 0, 9, 12, 12, 3, 2, 1, 0, 2, -1, 8, -9, -1, 2, -2, -18, -7, 13, 9, 10, -24, 2, 5, -15, -8, -6, 12, 26, -6, 13, 1, -26, 2, 5, -1, 1, -2, 2, 6, -24, 3, 4, 17, 43, 3, 5, 17, 14, -5, 8, 9, 13, 61, -6, 9, -12, -7, -9, 3, 13, -10, 8, 24, 15, -6, 9, 13, 11, 35, -7, 6, 10, -10, -12, 7, 2, -9, 6, 22, 6, -11, 10, 14, 13, 36, -2, 3, -3, -11, -13, 12, -1, -14, 7, 15, -21, -7, 8, 11, 7, 31, -6, 5, 28, -8, -8, 0, 0, -8, 8, 8, -14, -10, 9, 14, 14, 7, 3, 4, -5, -10, -9, 17, -6, -13, 1, -2, -33, -9, 12, 11, 11, 4, 0, 4, 12, -8, -11, -4, -4, -10, 11, -7, -22, -8, 8, 10, 9, -26, 5, 6, -11, -9, -9, 15, 41, -9, 11, 5, -32, -1, 2, -1, 0, 4, 6, 7, -23, 2, 1, 15, 45, -2, 2, -2, 0, 1, -3, 2, 1, 2, -1, -3, -4, 3, 1, -3, 1, 0, -3, -1, -1, 1, -4, -1, 2, -2, -1, -3, -4, 0, -2, 4, -3, 2, 1, -1, -2, 0, 2, -1, -1, 0, 4, 3, -4, 1, 4, 0, 1, -4, 4, 2, 4, -2, -3, 0, -3, 1, -3, 3, 0, 2, 3, -1, -3, 3, 1, 2, 4, -4, -4, 3, -2, -4, -3, 3, 0, -2, -3, -4, 3, 3, 1, 4, 1, 0, 0, 0, 2, -4, 5, -3, 2, -1, 1, -1, 3, 2, -1, 3, -1, 0, 2, 1, -3, -2, 0, -2, -2, -4, 4, -1, -4, 0, 1, 4, -3, 4, -2, -1, -2, -4, 0, -3, -4, -2, -1, 2, -3, -2, 14, -6, -17, -38, 35, 31, 30, -20, -54, 10, -55, -33, -27, -4, 9, -27, 5, 18, -36, -9, 21, 20, 18, -24, -59, 14, -53, -18, -20, 17, 24, -13, 22, 20, -33, -8, 20, 18, 18, -20, -57, 9, -54, -11, -19, 3, 34, -17, 10, 17, -30, -9, 25, 19, 27, -31, -45, 4, -51, -14, -25, 19, 25, -18, 23, 10, -15, -12, 27, 30, 30, -47, -44, -1, -40, -21, -31, -5, 26, -19, 23, 3, -32, -8, 15, 12, 15, -21, -46, 5, -51, -8, -16, 13, 23, -13, 41, 0, -24, -7, 12, 13, 16, -19, -52, 7, -44, -12, -19, -20, 4, -6, -2, -24, -7, -23, 26, 29, 30, -33, -41, 9, -39, -26, -27, -12, -14, -25, -6, 20, -7, -26, 29, 30, 24, -18, -44, 5, -34, -26, -30, 7, 16, -23, 20, 23, -13, -20, 25, 24, 23, -21, -43, 3, -44, -24, -31, 22, 21, -22, 10, 15, -7, -15, 32, 34, 32, -26, -38, 6, -44, -28, -35, 0, 19, -30, 22, 17, -16, -18, 36, 36, 42, -30, -33, 1, -41, -32, -43, 14, 19, -33, 12, 16, -23, -24, 34, 34, 34, -35, -34, 7, -42, -29, -37, -15, 20, -24, 15, 5, -20, -27, 38, 34, 38, -54, -37, 1, -45, -33, -45, 12, 15, -36, 8, 5, -18, -17, 23, 23, 18, -34, -37, 4, -56, -18, -22, -6, 17, -20, 30, 0, -14, -15, 27, 25, 28, -40, -40, -1, -38, -23, -25, 7, 6, -19, 13, 26, -11, -20, 34, 31, 32, -15, -33, 1, -39, -26, -34, 34, 19, -23, 10, 23, 1, -28, 34, 33, 34, -30, -35, 3, -33, -31, -36, 13, 13, -34, 6, 26, -21, -42, 36, 39, 41, -18, -33, 3, -29, -31, -41, 18, 25, -36, 18, 24, -16, -32, 41, 39, 42, -25, -30, -1, -21, -39, -46, 3, 22, -36, 6, 15, -23, -32, 40, 39, 42, -36, -31, -1, -37, -38, -46, 8, 16, -39, 22, 13, -23, -32, 33, 31, 32, -39, -31, -3, -36, -32, -41, 5, 12, -33, 12, 9, -19, -30, 36, 35, 35, -44, -37, -1, -37, -35, -43, 6, 10, -40, 11, 11, -18, -21, 28, 28, 26, -35, -36, 1, -31, -24, -28, -9, 8, -23, 4, 24, -10, -22, 27, 23, 32, -21, -33, 6, -31, -25, -27, 40, 17, -27, 13, 26, -13, -28, 30, 33, 30, -8, -33, 5, -18, -29, -36, 3, 21, -29, 15, 26, -20, -31, 32, 29, 36, -1, -29, 2, -28, -33, -37, 30, 22, -33, 13, 23, -27, -39, 41, 33, 35, 2, -32, 2, -19, -33, -44, -8, 22, -31, 20, 21, -35, -35, 37, 36, 33, -3, -27, 0, -34, -37, -43, 25, 16, -39, 14, 19, -37, -32, 37, 32, 34, -11, -32, 0, -22, -30, -42, -15, 21, -35, 13, 14, -29, -23, 30, 32, 30, -21, -28, 5, -28, -27, -33, 16, 22, -29, 20, 9, -22, -20, 28, 24, 26, -32, -33, 5, -28, -22, -32, -10, 13, -27, 14, 24, -8, -21, 25, 27, 26, -14, -34, 7, -40, -23, -27, 32, 13, -19, 9, 32, -19, -21, 31, 31, 31, 0, -27, 7, -29, -26, -30, 6, 20, -27, 8, 27, -20, -28, 32, 28, 30, 6, -30, 8, -26, -34, -34, 27, 22, -34, 18, 25, -30, -34, 31, 32, 34, 11, -28, 7, -22, -32, -39, -5, 17, -28, 15, 22, -30, -30, 32, 29, 30, 2, -30, 5, -26, -32, -38, 25, 16, -37, 20, 21, -35, -29, 30, 26, 27, -4, -26, 6, -29, -33, -35, -12, 12, -31, 24, 16, -33, -16, 23, 23, 28, -13, -32, 5, -23, -21, -27, 25, 16, -24, 5, 13, -28, -18, 23, 21, 22, -22, -28, 8, -34, -23, -30, -2, 18, -20, 2, 23, -7, -16, 24, 16, 15, -8, -31, 11, -37, -15, -21, 32, 12, -16, 12, 26, -14, -24, 27, 26, 26, -10, -31, 13, -23, -23, -23, 21, 13, -19, 11, 26, -18, -25, 30, 21, 26, -8, -29, 14, -25, -30, -31, 20, 9, -28, 13, 27, -29, -22, 30, 25, 31, 2, -28, 10, -26, -25, -31, 20, 15, -27, 14, 21, -25, -27, 27, 29, 25, 1, -28, 8, -28, -25, -31, 12, 12, -28, 15, 20, -24, -26, 25, 22, 23, -14, -26, 12, -21, -30, -28, 17, 16, -23, 8, 14, -27, -22, 24, 24, 25, -25, -29, 13, -31, -20, -25, 14, 11, -22, 12, 17, -31, -15, 21, 18, 17, -23, -27, 12, -35, -17, -17, 7, 16, -20, 6, 23, -9, -9, 19, 13, 16, -17, -31, 12, -52, -15, -14, 21, 7, -8, 6, 29, -15, -16, 16, 15, 15, -12, -31, 13, -42, -14, -13, 37, 14, -13, 9, 27, -13, -26, 26, 22, 25, -8, -28, 15, -30, -20, -22, 14, 9, -19, 8, 24, -18, -19, 24, 24, 21, -2, -29, 14, -30, -21, -24, 36, 13, -21, 15, 21, -24, -26, 26, 25, 27, -10, -27, 13, -31, -19, -23, 4, 11, -21, 8, 15, -26, -20, 25, 23, 24, -17, -28, 14, -28, -18, -26, 30, 4, -18, 15, 17, -23, -12, 19, 17, 19, -20, -28, 13, -41, -12, -19, 5, 19, -15, 4, 9, -22, -15, 17, 14, 16, -19, -30, 11, -38, -9, -15, 28, 18, -7, -5, 20, -1, -9, 15, 15, 16, -31, -29, 12, -45, -13, -15, 23, 0, -16, 6, 20, 0, -8, 14, 7, 10, -15, -30, 7, -44, -10, -21, 31, 7, -8, 7, 26, -11, -16, 22, 18, 20, -13, -29, 13, -35, -15, -20, 19, 5, -14, 8, 22, -14, -16, 23, 18, 19, -10, -30, 17, -29, -16, -18, 35, 5, -13, 4, 19, -16, -17, 22, 14, 20, -18, -29, 17, -32, -15, -22, 17, 9, -14, 7, 16, -27, -16, 19, 17, 19, -19, -29, 15, -33, -11, -17, 28, 14, -16, 0, 19, -25, -6, 11, 12, 10, -38, -27, 8, -39, -6, -12, 12, 27, -11, 6, 10, -14, -13, 10, 8, 6, -49, -29, 11, -44, -11, -12, 33, 4, -7, -4, 12, -3, -28, 30, 27, 27, -23, -32, 27, -33, -30, -29, -8, 14, -31, 31, 20, -45, -15, 26, 27, 28, -6, -40, 24, -43, -13, -24, 27, 23, -18, 8, 19, -19, -4, 21, 22, 23, -24, -38, 23, -53, -10, -21, 4, 29, -14, 32, 19, -46, -4, 24, 21, 27, 0, -43, 17, -49, -12, -22, 14, 30, -13, 6, 24, 0, -7, 24, 25, 25, -1, -36, 17, -37, -14, -29, 11, 29, -18, 33, 19, -29, -4, 23, 22, 26, 13, -47, 17, -44, -15, -23, 9, 23, -11, 11, 22, 3, -6, 25, 19, 28, -16, -33, 27, -43, -11, -26, -1, 12, -13, 40, 8, -21, -11, 29, 33, 30, -15, -32, 27, -45, -25, -38, 20, 2, -33, 24, 20, -33, -34, 38, 37, 41, -16, -31, 18, -26, -29, -34, 26, 11, -28, -2, 18, 5, -25, 38, 31, 36, -34, -32, 22, -34, -28, -31, 11, 20, -29, 24, 24, -44, -30, 39, 34, 41, -21, -28, 16, -43, -33, -36, 24, 25, -30, 7, 22, -4, -12, 27, 35, 37, -20, -31, 15, -41, -26, -32, -1, 29, -24, 34, 21, -35, -21, 34, 35, 37, -11, -35, 14, -51, -29, -40, 15, 23, -29, 8, 20, 16, -15, 28, 29, 28, -30, -33, 18, -38, -27, -32, -5, 18, -25, 27, 7, -21, -14, 35, 31, 33, -24, -37, 19, -48, -29, -41, 21, -5, -28, -2, 12, 6, -19, 27, 29, 29, -24, -29, 22, -40, -22, -29, 7, -1, -24, 0, 23, -1, -19, 34, 33, 30, -31, -31, 17, -29, -23, -32, 17, 22, -24, 19, 27, -40, -43, 36, 37, 36, -21, -28, 16, -24, -34, -37, 20, 24, -34, 1, 23, 4, -28, 38, 40, 37, -23, -28, 15, -33, -34, -43, 13, 26, -32, 28, 27, -30, -46, 42, 45, 43, -13, -28, 7, -32, -42, -46, 11, 24, -42, 7, 19, 5, -32, 34, 37, 35, -30, -29, 10, -38, -34, -38, 6, 19, -36, 35, 15, -37, -29, 39, 41, 39, -20, -34, 10, -31, -40, -47, 9, 18, -33, 10, 15, 6, -27, 31, 34, 34, -30, -31, 15, -31, -27, -38, 10, 17, -32, 35, 17, -30, -21, 36, 36, 36, -23, -35, 14, -36, -28, -38, 6, 18, -32, 25, 26, -29, -24, 34, 37, 37, -21, -32, 12, -34, -28, -35, 24, 12, -27, 0, 28, 4, -23, 36, 34, 32, -15, -28, 16, -23, -29, -38, 14, 22, -30, 26, 28, -33, -44, 42, 39, 42, -3, -31, 13, -28, -31, -43, 19, 23, -35, 3, 24, -4, -32, 40, 42, 44, -17, -26, 10, -20, -33, -42, -2, 20, -33, 32, 22, -42, -31, 46, 43, 40, -9, -26, 9, -30, -37, -47, 21, 16, -41, 10, 18, -11, -26, 35, 33, 35, -23, -26, 14, -31, -28, -41, -1, 21, -28, 34, 19, -41, -29, 35, 30, 32, -21, -30, 12, -33, -32, -38, 13, 20, -34, 1, 17, 1, -19, 32, 31, 32, -33, -30, 15, -33, -25, -30, 2, 22, -26, -7, 25, 10, -27, 32, 33, 36, -24, -31, 14, -30, -30, -33, 15, 17, -25, 27, 30, -24, -29, 32, 36, 32, -2, -34, 14, -24, -30, -36, 17, 20, -31, -3, 26, 0, -29, 33, 34, 37, -15, -27, 18, -23, -36, -39, 5, 18, -30, 33, 26, -44, -41, 38, 40, 40, 3, -27, 14, -17, -36, -44, 9, 16, -38, 2, 22, -7, -28, 38, 33, 32, -17, -22, 15, -21, -33, -40, 10, 18, -36, 29, 22, -46, -35, 39, 35, 38, -14, -26, 15, -30, -33, -43, 16, 16, -33, 2, 18, -8, -16, 28, 27, 29, -30, -25, 17, -34, -24, -31, 11, 27, -24, 32, 14, -36, -24, 29, 33, 35, -31, -31, 12, -35, -31, -35, 18, 20, -29, 31, 24, -20, -26, 36, 27, 34, -22, -34, 12, -28, -30, -31, 16, 15, -31, -3, 27, 7, -24, 34, 33, 30, -29, -30, 17, -17, -32, -36, 9, 15, -31, 30, 29, -33, -28, 38, 33, 38, -11, -30, 17, -11, -34, -38, 18, 13, -30, 2, 23, -4, -31, 27, 27, 33, -16, -27, 20, -21, -29, -40, 17, 13, -33, 21, 25, -42, -37, 39, 35, 33, -5, -30, 20, -17, -33, -39, 19, 14, -35, 2, 22, -1, -28, 34, 29, 30, -28, -23, 19, -13, -31, -35, 10, 16, -29, 26, 18, -34, -36, 36, 36, 30, -31, -24, 17, -21, -29, -35, 22, 23, -28, -4, 17, -4, -16, 28, 30, 26, -43, -23, 15, -34, -26, -31, 14, 29, -28, -7, 19, 13, -24, 27, 27, 32, -49, -30, 21, -31, -24, -26, 9, 10, -27, 32, 23, -25, -27, 33, 28, 32, -37, -35, 16, -23, -31, -36, 20, 5, -30, -1, 26, 2, -21, 30, 27, 31, -27, -27, 21, -25, -25, -25, 17, 12, -26, 23, 23, -33, -30, 33, 30, 33, -12, -32, 19, -26, -27, -32, 22, 12, -29, 2, 19, -4, -28, 27, 26, 27, -22, -28, 22, -24, -29, -30, 15, 11, -29, 22, 16, -32, -38, 36, 35, 31, -30, -30, 19, -19, -27, -31, 19, 16, -29, -2, 12, 3, -26, 32, 27, 25, -47, -26, 20, -21, -24, -34, 16, 25, -26, 25, 15, -26, -26, 28, 30, 32, -44, -31, 18, -35, -25, -27, 37, 22, -24, 32, 9, -11, -24, 31, 34, 33, -39, -34, 18, -26, -28, -39, 25, 1, -31, -6, 12, 6, -18, 27, 23, 27, -38, -29, 25, -34, -21, -23, 12, 7, -20, 15, 17, -30, -23, 25, 22, 24, -13, -34, 18, -34, -27, -31, 25, 10, -27, -2, 18, 1, -18, 24, 24, 21, -22, -29, 22, -32, -20, -22, 21, 14, -23, 18, 18, -37, -24, 22, 24, 26, -20, -33, 21, -30, -25, -25, 30, 15, -24, -1, 19, -3, -21, 22, 21, 21, -34, -28, 19, -34, -16, -23, 20, 29, -22, 18, 17, -44, -25, 23, 25, 26, -40, -31, 20, -26, -20, -27, 32, 31, -23, -14, 14, 9, -25, 30, 24, 27, -69, -26, 22, -30, -24, -31, 11, -9, -24, 34, 44, -21, -37, 43, 33, 34, -17, -64, 27, -46, -38, -43, 27, 16, -36, 21, 41, -14, -31, 45, 36, 41, -28, -63, 28, -21, -41, -46, 3, 29, -38, 28, 41, -23, -39, 45, 40, 39, -37, -59, 28, -41, -40, -47, 22, 26, -42, 27, 33, -20, -39, 51, 46, 47, -41, -59, 28, -39, -40, -46, -1, 32, -41, 29, 32, -31, -45, 48, 42, 42, -49, -59, 25, -49, -44, -49, 20, 33, -44, 30, 29, -32, -39, 42, 45, 38, -48, -61, 26, -46, -43, -48, -1, 23, -41, 32, 29, -41, -37, 42, 38, 43, -38, -58, 28, -47, -42, -47, 22, 27, -37, 28, 28, -33, -33, 40, 40, 40, -45, -61, 27, -42, -36, -40, -1, 40, -35, 33, 51, -18, -31, 36, 31, 32, 6, -58, 25, -34, -31, -37, 30, 23, -35, 27, 49, -24, -25, 36, 33, 34, 1, -56, 30, -34, -34, -39, 2, 35, -34, 34, 50, -30, -28, 38, 30, 37, -22, -52, 27, -42, -30, -41, 28, 36, -36, 30, 47, -36, -30, 38, 35, 34, -28, -52, 27, -37, -29, -43, -2, 37, -32, 38, 42, -36, -27, 33, 32, 29, -33, -48, 27, -43, -25, -44, 23, 35, -29, 35, 41, -42, -29, 35, 28, 29, -41, -51, 27, -51, -35, -44, -5, 25, -33, 38, 41, -47, -24, 32, 26, 30, -40, -50, 26, -47, -24, -36, 25, 28, -27, 30, 40, -46, -35, 32, 29, 30, -39, -50, 24, -45, -34, -45, -10, 36, -32, 28, 51, -23, -20, 30, 29, 28, 14, -60, 29, -35, -25, -40, 32, 22, -29, 23, 47, -23, -25, 32, 31, 31, 1, -54, 31, -33, -35, -41, 9, 34, -34, 25, 48, -35, -27, 35, 27, 32, -8, -55, 33, -42, -33, -40, 26, 35, -30, 30, 42, -35, -30, 38, 32, 30, -20, -49, 32, -40, -34, -38, 3, 37, -30, 34, 36, -45, -32, 32, 35, 32, -29, -51, 30, -45, -29, -46, 34, 36, -37, 32, 37, -44, -26, 30, 31, 33, -29, -50, 31, -48, -25, -40, 2, 32, -28, 33, 37, -52, -26, 31, 28, 29, -33, -48, 28, -45, -29, -42, 31, 35, -30, 28, 39, -46, -20, 27, 27, 32, -34, -48, 28, -46, -28, -39, -3, 37, -25, 30, 46, -19, -18, 29, 22, 26, 9, -56, 31, -28, -20, -34, 33, 25, -28, 22, 45, -25, -23, 34, 26, 29, 6, -51, 37, -24, -31, -44, 13, 35, -27, 27, 45, -27, -26, 30, 26, 32, 2, -51, 37, -32, -29, -39, 30, 31, -29, 23, 41, -43, -24, 36, 29, 30, -7, -48, 35, -31, -28, -44, 12, 38, -30, 31, 40, -47, -23, 32, 29, 31, -16, -46, 35, -40, -26, -41, 25, 36, -33, 34, 38, -56, -24, 30, 25, 30, -20, -46, 34, -39, -34, -36, 3, 30, -27, 32, 36, -52, -16, 31, 28, 30, -27, -44, 33, -40, -23, -35, 24, 32, -23, 23, 37, -44, -19, 33, 29, 32, -33, -47, 33, -38, -27, -37, 9, 31, -25, 25, 41, -18, -18, 31, 33, 34, 7, -55, 39, -30, -25, -33, 30, 24, -25, 25, 42, -24, -18, 36, 27, 33, 7, -51, 40, -17, -26, -38, 17, 32, -29, 23, 42, -29, -22, 31, 34, 35, 7, -53, 40, -20, -30, -39, 26, 31, -30, 26, 40, -39, -22, 33, 29, 29, -2, -49, 41, -16, -29, -36, 18, 31, -29, 31, 37, -48, -20, 30, 24, 29, -12, -46, 37, -26, -25, -35, 22, 35, -28, 30, 35, -48, -17, 28, 24, 28, -14, -44, 40, -25, -28, -36, 13, 26, -30, 31, 35, -54, -18, 30, 26, 31, -26, -45, 36, -32, -22, -36, 24, 32, -25, 24, 33, -41, -23, 29, 26, 32, -30, -48, 36, -32, -27, -33, 17, 15, -27, 26, 34, -21, -22, 36, 33, 29, 1, -55, 40, -34, -26, -31, 29, 23, -26, 22, 35, -22, -27, 36, 38, 34, -5, -52, 40, -22, -28, -37, 21, 27, -26, 29, 39, -29, -22, 34, 34, 34, -10, -52, 40, -22, -28, -33, 23, 29, -26, 22, 38, -36, -25, 30, 26, 30, -21, -51, 41, -18, -27, -34, 25, 31, -25, 34, 34, -34, -22, 29, 33, 33, -24, -48, 42, -30, -25, -32, 19, 29, -20, 26, 33, -43, -21, 35, 28, 27, -20, -49, 42, -28, -22, -30, 21, 29, -23, 29, 28, -38, -26, 37, 31, 32, -30, -46, 37, -29, -26, -34, 18, 17, -29, 21, 28, -42, -25, 34, 27, 27, -31, -48, 38, -36, -24, -27, 17, -2, -26, 24, 27, -21, -28, 29, 25, 26, 9, -59, 43, -39, -21, -28, 30, 24, -23, 24, 30, -22, -29, 33, 30, 31, -10, -55, 39, -25, -26, -31, 24, 24, -22, 24, 37, -25, -32, 36, 29, 29, -19, -55, 41, -27, -26, -34, 25, 29, -27, 30, 35, -32, -26, 32, 26, 31, -28, -51, 42, -17, -24, -28, 24, 30, -22, 25, 36, -34, -25, 31, 32, 30, -32, -47, 43, -27, -26, -26, 29, 29, -25, 30, 32, -38, -25, 30, 28, 25, -26, -45, 41, -31, -23, -27, 27, 27, -19, 25, 29, -44, -25, 30, 30, 30, -35, -46, 37, -41, -26, -31, 22, 12, -22, 22, 33, -48, -28, 29, 22, 24, -31, -45, 38, -49, -22, -27, 16, -84, -22, 24, 21, -27, -29, 33, 23, 20, -3, -59, 38, -46, -29, -32, 27, 17, -32, 22, 24, -22, -31, 38, 29, 34, -10, -58, 40, -31, -28, -33, 21, 23, -28, 26, 31, -23, -31, 37, 31, 32, -19, -55, 39, -29, -34, -35, 21, 22, -31, 21, 32, -37, -33, 31, 29, 25, -34, -55, 40, -20, -34, -32, 22, 24, -30, 27, 31, -32, -30, 37, 27, 29, -35, -52, 41, -30, -30, -30, 24, 26, -30, 22, 30, -45, -33, 33, 26, 29, -19, -49, 40, -27, -31, -32, 27, 25, -29, 26, 29, -46, -29, 38, 31, 31, -48, -49, 36, -41, -30, -30, 16, -6, -24, 18, 26, -46, -30, 30, 23, 24, -39, -51, 38, -50, -30, -29, 14, -120, -32, 41, 71, -68, -88, 67, 55, 57, -44, -117, 64, -104, -63, -75, 31, 80, -60, 73, 73, -61, -79, 69, 61, 61, -44, -115, 68, -98, -67, -80, 49, 75, -61, 60, 75, -58, -64, 72, 65, 63, -38, -110, 68, -97, -80, -84, 32, 78, -71, 79, 71, -69, -66, 75, 63, 71, -36, -113, 65, -89, -80, -83, 35, 79, -73, 63, 68, -67, -71, 71, 68, 70, -42, -115, 68, -96, -77, -91, 43, 81, -68, 74, 63, -82, -78, 66, 56, 62, -61, -123, 59, -82, -76, -82, 25, 88, -69, 63, 62, -89, -92, 59, 53, 56, -60, -121, 59, -89, -68, -89, 30, 75, -59, 91, 54, -84, -91, 64, 56, 55, -48, -124, -67, -91, -70, -89, 47, 88, -73, 73, 76, -62, -70, 68, 61, 61, -46, -108, 67, -86, -68, -82, 62, 72, -74, 55, 81, -59, -68, 68, 60, 62, -34, -109, 80, -96, -73, -83, 38, 80, -69, 80, 81, -67, -63, 70, 62, 64, -33, -104, 76, -101, -72, -85, 60, 83, -67, 71, 79, -66, -61, 68, 62, 65, -26, -109, 75, -96, -65, -84, 22, 89, -63, 83, 76, -84, -59, 67, 60, 67, -26, -108, 73, -98, -67, -84, 55, 90, -59, 72, 66, -61, -67, 70, 66, 63, -47, -116, 77, -111, -65, -90, 24, 75, -63, 79, 64, -75, -59, 69, 57, 66, -50, -124, 75, -120, -60, -79, 52, 87, -70, 57, 59, -67, -66, 67, 62, 65, -63, -117, 67, -98, -74, -80, 36, 80, -63, 54, 76, -57, -63, 67, 60, 60, -44, -108, 72, -90, -64, -72, 56, 79, -65, 75, 81, -65, -73, 67, 63, 60, -47, -106, 75, -84, -70, -81, 49, 78, -70, 62, 81, -60, -66, 69, 65, 66, -35, -104, 79, -94, -70, -85, 51, 83, -70, 80, 82, -71, -70, 71, 66, 68, -34, -103, 78, -95, -75, -83, 32, 79, -69, 67, 73, -68, -63, 67, 64, 65, -19, -112, 79, -96, -59, -89, 52, 79, -67, 79, 71, -76, -71, 72, 63, 66, -33, -112, 71, -99, -66, -90, 37, 86, -68, 60, 66, -68, -67, 67, 64, 63, -45, -114, 70, -89, -65, -78, 43, 77, -67, 79, 57, -64, -68, 65, 62, 66, -41, -117, 66, -95, -63, -86, 43, 71, -60, 71, 74, -61, -64, 64, 55, 62, -52, -106, 72, -85, -62, -71, 59, 73, -62, 49, 77, -62, -60, 67, 63, 64, -44, -105, 79, -82, -64, -75, 50, 85, -68, 79, 80, -71, -68, 67, 63, 61, -29, -103, 77, -86, -72, -87, 58, 78, -63, 66, 75, -70, -63, 71, 61, 68, -16, -103, 81, -89, -71, -85, 39, 82, -65, 79, 73, -89, -65, 73, 63, 65, -16, -105, 75, -85, -74, -83, 46, 79, -64, 62, 72, -81, -67, 68, 62, 65, -31, -104, 79, -86, -65, -82, 39, 82, -63, 84, 66, -75, -62, 64, 57, 61, -33, -106, 75, -86, -60, -76, 45, 75, -70, 55, 59, -63, -62, 69, 60, 61, -44, -106, 75, -90, -73, -76, 48, 68, -63, 48, 67, -58, -59, 64, 59, 59, -60, -108, 73, -86, -64, -69, 58, 74, -65, 71, 72, -63, -62, 69, 63, 60, -48, -103, 79, -83, -62, -71, 57, 78, -66, 54, 74, -60, -62, 69, 66, 62, -35, -100, 81, -80, -62, -77, 55, 80, -70, 77, 77, -79, -73, 68, 57, 64, -23, -100, 80, -74, -70, -81, 48, 76, -69, 58, 74, -70, -66, 68, 60, 66, -32, -99, 83, -77, -66, -79, 55, 76, -64, 78, 73, -77, -66, 62, 55, 58, -36, -100, 80, -84, -71, -81, 49, 75, -68, 55, 67, -69, -58, 62, 60, 61, -40, -102, 78, -85, -67, -72, 53, 75, -60, 73, 64, -61, -62, 65, 56, 59, -47, -104, 75, -90, -64, -76, 55, 69, -61, 70, 62, -56, -59, 69, 58, 64, -60, -108, 73, -90, -64, -63, 58, 71, -62, 50, 66, -56, -63, 70, 65, 62, -60, -103, 78, -84, -64, -69, 54, 73, -63, 74, 71, -66, -66, 65, 55, 60, -50, -102, 79, -78, -66, -73, 58, 72, -64, 53, 68, -68, -62, 64, 56, 61, -50, -101, 83, -82, -67, -73, 56, 71, -65, 73, 71, -67, -62, 65, 56, 57, -45, -101, 79, -81, -71, -75, 58, 74, -65, 51, 67, -62, -68, 67, 54, 61, -53, -100, 82, -77, -67, -72, 52, 72, -59, 72, 65, -63, -67, 63, 59, 60, -53, -101, 78, -84, -65, -70, 59, 72, -67, 44, 64, -64, -62, 69, 57, 57, -66, -102, 77, -94, -58, -66, 55, 63, -63, 47, 52, -51, -63, 60, 60, 60, -61, -108, 77, -93, -60, -69, 54, 72, -61, 71, 56, -55, -64, 67, 61, 57, -60, -106, 76, -87, -59, -67, 60, 70, -57, 49, 63, -57, -65, 68, 57, 59, -60, -106, 79, -87, -64, -65, 61, 68, -62, 68, 65, -65, -65, 67, 55, 56, -55, -105, 78, -86, -60, -64, 56, 64, -61, 42, 65, -65, -63, 64, 57, 58, -58, -103, 79, -83, -61, -69, 69, 73, -66, 65, 63, -67, -62, 67, 60, 60, -66, -102, 78, -83, -59, -65, 63, 70, -58, 39, 64, -65, -63, 65, 57, 60, -80, -101, 79, -93, -55, -66, 59, 60, -60, 66, 66, -72, -58, 57, 53, 56, -82, -103, 73, -103, -59, -63, 60, 32, -57, 68, 47, -51, -65, 62, 53, 56, -55, -113, 74, -97, -58, -60, 59, 66, -57, 45, 48, -50, -63, 63, 58, 54, -61, -110, 77, -93, -56, -67, 58, 72, -60, 62, 54, -56, -66, 62, 55, 56, -52, -108, 75, -93, -60, -69, 63, 72, -53, 42, 53, -60, -66, 59, 53, 58, -48, -104, 72, -87, -62, -75, 58, 72, -62, 62, 60, -63, -58, 65, 57, 52, -63, -107, 76, -95, -58, -61, 68, 74, -56, 40, 66, -75, -56, 58, 56, 48, -75, -103, 78, -98, -55, -57, 66, 75, -50, 63, 69, -84, -64, 57, 49, 49, -96, -103, 71, -97, -53, -57, 65, 53, -51, 34, 65, -84, -58, 54, 50, 51, -102, -104, 78, -111, -53, -55, 52, 12, -50, 52, -19, 17, -16, 29, 28, 27, -189, -2, 12, 28, -10, -8, 8, -24, -9, -23, 9, 34, -4, 36, 33, 30, -153, 2, 21, 62, -13, -5, -16, -19, -10, 34, -1, 26, -5, 34, 29, 26, -156, -24, 5, 54, -8, -4, -39, -6, -5, 4, -7, 6, -11, 25, 16, 21, -101, -36, 7, 41, -6, 3, -21, 2, -1, 28, -28, 1, -11, 24, 18, 18, -76, -37, -6, 62, -9, 3, 5, -4, -3, 38, -42, -6, -6, 19, 14, 8, -69, -33, 14, 60, -2, 15, 1, -15, 4, 43, -63, -7, -4, 14, 11, 8, -87, -27, 17, 70, 0, 10, 16, -17, 4, 14, -54, 24, 2, 7, 4, 1, -72, -11, 16, 43, 3, 15, -21, -3, 6, 14, 11, 8, -12, 27, 22, 19, -114, -4, 21, 21, -11, 4, 22, -25, -5, -38, 1, 30, 2, 41, 34, 25, -173, -16, 15, 57, -11, 0, 23, -17, -8, 14, 10, 4, -7, 39, 26, 24, -128, -28, 3, 25, -7, 2, 5, -8, -5, -2, 5, 18, -3, 33, 27, 22, -54, -37, -3, 33, -3, 6, 10, -2, 1, 38, -14, -12, -11, 26, 17, 15, -40, -44, -4, 42, -3, 9, 2, -2, 0, 23, -54, 0, -6, 18, 9, 10, -34, -75, 5, 58, 0, 17, 12, -15, 7, 35, -67, -6, -15, 15, 8, 5, -74, -42, 14, 49, -1, 16, 38, -14, 6, 13, -86, 3, 0, 2, -3, -5, -32, -25, 13, 52, 8, 25, 13, -7, 14, -2, 19, -1, 8, 15, 10, 9, -55, 2, 15, 19, 1, 11, 34, -14, 6, -22, 17, -3, 4, 25, 20, 17, -47, -13, 17, 28, 1, 11, 29, -4, 4, -7, 16, 5, 6, 25, 19, 16, -37, -15, 8, 14, 1, 13, 21, 2, 5, 9, 14, -7, -4, 25, 14, 13, -6, -23, -1, 14, 4, 13, 21, -1, 9, 26, -11, -8, 4, 17, 16, 14, 5, -28, -5, 20, 6, 10, 17, -8, 9, 24, -28, -18, 3, 9, 3, 6, 12, -28, 6, 32, 11, 18, 21, -4, 15, 34, -45, -8, 0, 2, 1, -1, -3, -29, 12, 37, 13, 21, 25, 5, 18, 35, -53, -3, 18, -3, -5, -2, -7, -14, 14, 33, 20, 22, 15, 7, 22, -2, 34, -1, 6, 5, 1, 2, -9, 3, 20, 23, 14, 17, 17, -7, 15, -14, 29, 5, 7, 7, 5, 6, 15, -2, 20, 22, 12, 19, 28, -2, 15, 3, 25, -1, 6, 9, 7, 8, 31, -11, 14, 14, 12, 15, 18, -2, 15, 1, 19, -6, 8, 9, 4, 7, 39, -15, 9, 12, 12, 18, 27, -1, 17, 31, -12, -22, 11, 8, 5, 5, 40, -15, 6, 8, 15, 20, 11, -2, 18, 11, -26, -17, 19, -2, 1, 2, 29, -13, 9, 15, 20, 21, 14, 0, 22, 38, -34, -15, 15, -3, -3, -4, 20, -11, 11, 18, 22, 26, 5, 11, 25, 17, -47, 0, 25, -3, -7, -3, 10, -6, 14, 23, 25, 24, 8, 8, 26, -21, 49, 10, 9, 0, -1, 2, 18, 13, 17, 20, 13, 17, 29, -13, 18, 6, 45, 15, 12, 6, 4, 7, 54, 4, 15, 27, 12, 15, 17, -9, 17, -10, 40, 13, 14, 5, 5, 6, 72, 0, 17, 15, 16, 15, 14, -6, 15, 19, 26, -10, 13, 4, 2, 4, 76, 2, 14, 16, 17, 18, 12, -3, 19, 1, -8, -10, 19, -1, -1, 0, 53, -2, 14, 9, 20, 20, 3, -5, 21, 32, -23, -29, 20, -1, 0, -2, 41, -1, 11, 9, 21, 22, 4, 2, 23, 6, -31, -22, 25, -3, -3, -2, 20, 0, 11, 7, 25, 23, -1, 9, 27, 28, -38, -10, 31, -7, -9, -6, 14, -1, 8, 6, 28, 27, -11, 15, 28, 10, 63, 17, 12, 3, 2, 4, 31, 25, 11, 23, 15, 12, 18, -21, 11, -18, 64, 23, 10, 10, 7, 11, 65, 21, 15, 29, 6, 8, 10, -14, 7, 10, 57, 14, 15, 3, 4, 7, 87, 17, 14, 21, 15, 11, 19, -13, 15, -10, 47, 2, 18, 1, 0, 2, 86, 14, 16, 10, 21, 17, 4, -6, 18, 25, 4, -10, 22, 3, 2, 1, 65, 11, 14, 11, 18, 20, 4, -5, 21, -3, -17, -15, 21, 1, 2, 1, 43, 6, 15, 8, 21, 18, -6, 1, 23, 21, -28, -17, 20, 4, 2, 4, 16, 8, 7, 4, 18, 16, -3, 13, 20, -5, -39, -5, 23, 0, -3, 1, 7, 8, 10, 0, 20, 15, -13, 35, 20, -15, 72, 13, 0, 11, 8, 11, 6, 43, 12, 29, 3, 5, 0, -12, 4, 12, 66, 14, 16, 7, 9, 13, 25, 39, 11, 12, 10, 0, 3, -17, 5, -12, 69, 15, 14, 5, 3, 6, 50, 36, 14, 2, 11, 8, 8, -14, 8, 16, 32, 14, 13, 6, 5, 6, 49, 27, 13, -13, 8, 6, 0, -19, 13, -12, 6, 9, 15, 6, 5, 6, 43, 17, 15, -10, 11, 11, 7, -7, 8, 16, -15, 9, 10, 8, 8, 9, 21, 14, 10, -2, 8, 8, -11, -5, 11, -6, -32, 6, 9, 10, 10, 12, 11, 15, 8, -2, 8, 9, -5, 24, 10, 10, -37, 14, 4, 15, 13, 14, 4, 19, 5, 3, 5, 5, -8, 46, 3, 6, 69, 19, 11, 11, 11, 9, -3, 52, 9, 6, 6, -5, 12, -37, 2, -10, 62, 3, 4, 7, 5, 8, -16, 40, 11, 4, 6, 10, -8, -19, 8, 4, 48, 11, 12, 5, 3, 5, -18, 37, 10, -15, 8, 9, 3, -24, 8, -8, 23, 25, 9, 9, 6, 8, 11, 33, 14, -32, 2, 9, 2, -17, 7, 4, -2, 26, 2, 7, 6, 6, -2, 25, 12, -22, 1, 5, 6, -22, 2, -10, -19, 20, 10, 7, 5, 6, 10, 22, 14, -22, 7, 7, -6, 18, 9, 4, -36, 24, 4, 10, 7, 12, 4, 24, 6, -8, -1, 2, -1, 53, 1, -9, -39, 24, 2, 19, 16, 19, 1, 26, 9, -2, -1, -3, -13, 47, -4
};

int FLIP[120];

#ifdef OPENBENCH
// Deterministic PRNG for openbench build consistency
uint32_t rng_32() {
    static uint64_t RNG_STATE = 0xcafef00dd15ea5e5;
    // Pcg32
    uint64_t old = RNG_STATE;
    RNG_STATE = old * 6364136223846793005ull + 0xa02bdbf7bb3c0a7ull;
    uint32_t xorshifted = ((old >> 18u) ^ old) >> 27u;
    uint32_t rot = old >> 59u;
    return (xorshifted >> rot) | (xorshifted << ((-rot) & 31));
}
uint64_t rng() {
    return (uint64_t) rng_32() << 32 | rng_32();
}
#endif

struct Zobrist {
    uint64_t pieces[25][SQUARE_SPAN];
    uint64_t ep[120];
    uint64_t castle_rights[4];
    uint64_t stm;
} ZOBRIST;

void init_tables() {
    int *ft_data = ft_raw;

    for (int c : {WHITE, BLACK}) {
        for (int p = PAWN; p <= KING; p++) {
            for (int rank = 0; rank < 8; rank++) {
                for (int file = 0; file < 8; file++) {
                    for (int i = 0; i < 16; i++) {
                        FT_WEIGHTS[c | p][rank*10+file][i] = *ft_data++;
                    }
                }
            }
        }
    }

    for (int r = 0; r < 120; r+=10) {
        for (int f = 0; f < 10; f++) {
            FLIP[r+f] = 110-r+f;
        }
    }

    // Zobrist keys
#ifdef OPENBENCH
    for (int i = 0; i < 25; i++) {
        for (int j = 0; j < SQUARE_SPAN; j++) {
            ZOBRIST.pieces[i][j] = rng();
        }
    }
    for (int i = 0; i < 120; i++) {
        ZOBRIST.ep[i] = rng();
    }
    ZOBRIST.castle_rights[0] = rng();
    ZOBRIST.castle_rights[1] = rng();
    ZOBRIST.castle_rights[2] = rng();
    ZOBRIST.castle_rights[3] = rng();
    ZOBRIST.stm = rng();
#else
    auto rng = fopen("/dev/urandom", "r");
    fread(&ZOBRIST, sizeof(ZOBRIST), 1, rng);
#endif
}
