int FT_WEIGHTS[25][SQUARE_SPAN][16];
int FT_BIAS[16] = {93, 29, -18, -16, -8, 73, 52, -6, 18, -20, 80, 42, 23, 175, 0, -5};
int OUT_WEIGHTS[32] = {-43, 85, -39, 17, 26, -81, -40, -36, -48, 87, 26, -17, 19, -39, -24, 47, 17, -82, 39, -16, -27, 80, 48, 37, 57, -85, -27, 17, -18, 50, 25, -41};
int OUT_BIAS = 894;
int ft_raw[] = {
    4, 3, -4, 1, -1, 0, 2, -1, 0, 4, 4, -1, 1, -1, 1, -4, -4, -1, 0, -4, -2, -3, -4, 0, 0, -1, -3, -2, 2, 3, 4, 4, 1, 2, 2, 2, 1, 3, 1, -4, 3, 2, -4, -1, 0, 0, 3, -5, -2, -1, 0, 3, 0, 2, 3, 0, 0, 2, 4, 4, 1, 1, 3, 2, 3, 2, -2, -4, 0, 3, -3, 3, 2, -4, -1, -3, -3, -4, 0, 1, -3, 2, -3, 4, 3, -5, 4, 0, -3, 3, 3, 3, 2, -1, -3, 3, 2, 4, -2, -4, 2, 1, 1, 5, -1, -1, -4, -3, -1, 2, -3, -2, 0, -1, -3, 1, -2, -4, -4, -1, 5, 3, 3, 4, -4, -1, 1, -2, -21, 3, 15, 10, -3, -8, 5, -2, -8, 11, 16, -6, 13, -50, -6, 3, -37, 5, 25, -2, -28, -10, 70, -5, -6, 5, 8, -11, 11, -57, 12, 0, -21, 3, 19, 18, -24, -7, 109, -11, -14, 13, -3, -11, 18, -25, -4, -1, -3, 6, 10, 43, -20, -10, 43, -2, -5, 18, 14, -13, 56, -15, -1, 11, 7, 9, -21, 52, -20, -13, 0, -23, 3, 14, 7, -12, 51, 0, -4, 6, -13, 14, -34, 11, 2, -11, -8, -4, 32, 9, 10, 19, 17, -22, -6, 7, -27, 11, -66, 27, 60, -8, -12, -14, 125, 6, 4, -23, 16, -55, -5, 4, -20, 3, -40, 29, 53, -10, -6, -11, 157, 12, 6, 5, 16, -49, -27, 3, -17, 1, 19, 7, -12, -7, 0, 1, -7, 9, 15, 0, 9, -33, -9, -7, -26, 3, 24, 8, -25, -12, 49, -13, -7, 9, 1, -14, 18, -43, 24, 1, -14, 4, 13, 19, -21, -10, 82, 4, -13, 16, -9, -2, 29, -21, -2, 0, -7, 6, 3, 51, -16, -14, 36, -16, -6, 17, -9, -18, 56, -13, -2, 8, 2, 9, -6, 46, -24, -16, -4, 6, -2, 14, 7, 3, 53, 0, -7, 9, 7, 10, -34, 32, -21, -15, -5, -24, 12, 9, 2, 8, 28, 4, -13, 11, -19, 9, -53, 25, 31, -11, -9, 6, 78, 9, 6, -14, 18, -39, -6, 8, -14, 2, -30, 27, 54, -8, -5, -13, 115, 10, 7, 1, 12, -29, -29, 5, -26, 1, 14, 16, -9, -10, -8, -2, 0, 11, 21, 5, 17, -24, -7, -58, -37, 2, 22, 19, -10, -15, 8, -2, 3, 12, 4, -43, 23, -33, 26, -22, -16, 0, 8, 21, -17, -14, 11, -14, 1, 13, -7, 36, 45, -15, -2, 6, -12, 5, 6, 46, -18, -18, 5, 14, -4, 17, -16, -110, 41, -15, -2, 12, -5, 4, -5, 42, -22, -24, 1, -26, -1, 12, -14, 66, 62, -14, -7, 18, -1, 6, -35, 42, -30, -15, 4, 8, 4, 14, 1, -66, 30, 0, -19, 16, -14, 1, -32, 45, 18, -18, 5, -11, 23, 13, 4, 17, 25, -22, -8, 20, -19, 0, -26, 27, 36, -10, 4, -8, 52, 12, 13, -17, 12, -22, -25, 10, -47, -2, 13, 16, -4, -9, -8, 5, 9, 13, 30, 10, 14, -36, -9, -120, -56, 0, 16, 11, -9, -15, -1, -12, 13, 15, -3, -42, 9, -59, 41, -57, -42, -5, 7, 21, -14, -16, -1, 4, 11, 15, 13, 56, 25, -33, 3, 18, -23, -6, 8, 46, -17, -15, 2, -17, 4, 15, -22, -251, 31, -21, 4, 33, -24, -7, -8, 33, -17, -28, 24, 10, 5, 20, 2, 124, 45, -37, -23, 30, -15, -6, -34, 57, -24, -15, 20, -9, 1, 11, -3, -214, 9, -12, -25, 21, -46, -3, -27, 15, -5, -20, 26, 7, 5, 16, 7, 43, 12, -53, -9, 24, -45, -3, -23, 46, 12, -8, 20, -12, 20, 12, 16, -24, 4, -43, -17, 14, -58, -6, 9, 15, -2, -10, -1, -1, 13, 16, 44, 14, 8, -55, -3, -184, -67, -12, 13, 11, -11, -18, 7, -2, 19, 25, 16, -52, -33, -85, 71, -104, -59, -18, 4, 5, -6, -17, 16, -9, 20, 18, 48, 43, 4, -57, 5, 12, -51, -20, 8, 33, -9, -12, 23, 6, 18, 20, 15, -251, -16, -52, -18, 45, -56, -40, -13, 4, -7, -25, 53, -18, 19, 17, 25, 169, 20, -66, -65, 36, -42, -33, -32, 52, -4, -18, 38, 6, 4, 19, 25, -251, -49, -41, -54, 26, -55, -28, -25, 0, 16, -21, 38, -16, 10, 20, 13, 41, 2, -73, -12, 32, -70, -4, -20, 36, 17, -7, 34, -5, 16, 13, 24, -25, -25, -73, -13, 14, -59, -6, 6, 49, 10, -5, -14, 9, 10, 30, 121, 6, 40, -49, -34, -241, -89, -5, 0, 17, 6, -19, 15, -196, 19, 19, 52, -62, -38, -99, 74, -114, -62, -12, -4, 22, 10, -12, 17, 16, 14, 23, 158, -7, 22, -56, 1, 6, -89, -18, 0, 41, 1, -14, 29, -229, 15, 4, 57, -251, -15, -70, -162, 39, -63, -40, -29, 8, 13, -24, 52, 24, 29, 15, 108, 62, 45, -64, -208, 43, -67, -42, -26, 13, 25, -26, 31, -203, 11, 8, 38, -251, 29, -56, -146, 35, -72, -24, -28, 13, 15, -152, 39, 17, 24, 21, 36, 23, 2, -90, 15, 32, -90, -8, -19, 30, 10, -15, 25, -213, 24, 7, 40, -74, 2, -99, -42, -14, 4, 1, -2, -4, -3, -1, 4, 4, 3, -4, -2, 0, 3, 1, -2, -4, 4, 0, 1, -2, -4, -1, 3, -2, -2, -2, -3, -1, -4, 4, -1, -2, -3, 4, -5, 3, 2, 0, 0, 3, 3, -2, 0, 1, 0, 4, 1, 2, 3, 4, -1, -2, 0, -3, 0, 2, 2, -2, 2, 2, -4, -4, -2, 0, -2, 0, 3, -2, 1, -1, -2, -4, -1, -1, -4, -4, 1, 4, -1, -3, 4, 2, -4, 0, 2, -3, 3, 2, 1, 2, 2, -3, 4, -4, -3, -2, 2, -1, -1, 0, 0, 4, 0, -2, -2, 1, 1, 1, 1, 3, -4, 3, 3, 2, -3, 3, 3, 2, -4, 4, 4, 1, 1, -1, 4, -2, -4, 3, -11, 27, 42, 43, -6, -25, 42, -15, -27, 11, -18, -3, 85, -41, -38, 20, 1, 28, 43, 39, -2, -34, 24, -22, -32, 10, -36, 0, 52, -31, -30, 36, -10, 27, 33, 36, -8, -22, 45, -20, -21, 21, -16, -7, 54, -29, -25, 22, -4, 28, 27, 39, -7, -26, 46, -22, -21, 25, -21, 8, 59, -16, -20, 30, -6, 28, 13, 39, 6, -25, 19, -25, -9, 24, -18, -12, 63, -12, -23, 32, 1, 29, 6, 35, 24, -24, -9, -27, 18, 23, -20, -3, 62, -13, -23, 29, 9, 29, 6, 32, 40, -37, -28, -24, 9, 20, -30, -3, 59, -3, -30, 33, 3, 22, 10, 56, 4, -30, -25, -21, 81, 16, -47, 4, 86, -25, -25, 39, -7, 23, 46, 41, -9, -25, 31, -14, -21, 21, -7, 10, 64, -27, -41, 10, -17, 27, 35, 41, -3, -28, 45, -24, -21, 28, -21, -17, 24, -34, -29, 24, -15, 25, 34, 24, -6, -24, 45, -20, -24, 26, -1, -3, 64, -32, -30, 28, -8, 27, 26, 56, 3, -26, 30, -28, -15, 30, -10, -4, 36, -30, -24, 31, -8, 28, 11, 23, 3, -26, 13, -23, -5, 31, 1, -10, 65, -15, -24, 36, -9, 30, 2, 55, 2, -23, 1, -28, 9, 29, -13, 0, 46, -20, -24, 40, 2, 27, 6, 9, 25, -25, -12, -23, 2, 31, -7, 0, 54, -5, -28, 38, 1, 25, 10, 46, 24, -24, -17, -27, 37, 25, -19, -19, 54, -12, -28, 34, -11, 24, 40, 37, 2, -27, 16, -22, -30, 23, -11, -12, 42, -32, -31, 23, -19, 25, 34, 39, 0, -22, 33, -22, -26, 29, -9, -13, 37, -29, -22, 22, -18, 25, 26, 25, -7, -25, 40, -26, -25, 29, 12, 1, 40, -36, -27, 29, -19, 27, 11, 58, 0, -23, 25, -24, -16, 35, -5, -4, 27, -30, -22, 29, -11, 27, 14, 20, 2, -24, 14, -31, -13, 35, 10, -6, 63, -20, -25, 39, -8, 28, 9, 50, 7, -22, -4, -23, -5, 32, 2, -12, 25, -22, -26, 39, -3, 29, 8, 13, 13, -23, -11, -27, 12, 32, -6, -3, 59, -17, -26, 41, 5, 25, 1, 38, 12, -30, -18, -24, 24, 25, -13, 9, 36, -12, -21, 46, -8, 19, 42, 39, -1, -25, 9, -24, -33, 28, -8, 3, 30, -21, -24, 22, -10, 20, 33, 31, 2, -20, 23, -31, -31, 33, 18, -11, 35, -26, -31, 19, -18, 18, 23, 49, 3, -22, 20, -26, -29, 41, 8, -7, 21, -27, -21, 26, -21, 20, 16, 31, 1, -24, 14, -28, -23, 38, 23, -16, 39, -28, -21, 33, -16, 19, 13, 58, 0, -24, 4, -30, -18, 41, 13, -11, 27, -20, -25, 40, -6, 26, 7, 14, 3, -23, -15, -30, -15, 36, 24, -6, 19, -16, -29, 45, 17, 21, 11, 55, 15, -23, -19, -25, -8, 37, 11, -1, 27, 2, -22, 50, 5, 22, 4, 16, 15, -23, -24, -26, -3, 33, -6, -14, 27, -8, -29, 47, -12, 18, 38, 48, 6, -20, -5, -19, -31, 32, -17, -5, 4, -20, -37, 22, -10, 16, 37, 16, 2, -22, 3, -25, -33, 31, 34, -24, 30, -25, -28, 30, -17, 16, 25, 57, 6, -20, 5, -31, -34, 40, 2, 10, -4, -25, -32, 26, -19, 13, 23, 7, 3, -18, 3, -28, -30, 39, 34, -29, 38, -25, -29, 33, -19, 18, 6, 76, 6, -23, -9, -29, -24, 40, 24, 19, -15, -19, -25, 34, 1, 14, -1, -8, 7, -20, -17, -27, -24, 44, 23, -17, 49, -7, -23, 46, 4, 20, 3, 60, 15, -25, -19, -22, -16, 34, 25, 1, -25, -10, -31, 52, 12, 19, 9, -27, 11, -21, -22, -22, -19, 35, -8, -9, 48, -3, -24, 47, -13, 14, 36, 43, 1, -25, -22, -14, -37, 30, -10, 3, 4, -18, -34, 15, -17, 9, 44, 10, -12, -25, 0, -26, -38, 28, 5, -2, 10, -26, -35, 28, -22, 8, 32, 45, 2, -17, -4, -16, -43, 36, 5, 0, -2, -24, -47, 21, -23, 7, 28, 21, 1, -16, -8, -25, -40, 37, 21, -17, 16, -26, -49, 34, -20, 8, 14, 42, 7, -19, -21, -20, -33, 35, 13, 11, -6, -27, -36, 40, -1, 6, 14, 26, 6, -17, -27, -32, -33, 39, 22, 1, 24, 2, -47, 51, -11, 9, 13, 32, -2, -19, -23, -18, -25, 30, 12, -2, -19, -23, -23, 52, 22, 5, 9, 3, 2, -19, -21, -25, -20, 41, 12, -8, 32, 9, -35, 54, -7, 13, 38, 18, -2, -26, -25, -23, -50, 26, 23, -7, 22, -4, -19, 47, -8, 8, 35, 36, 5, -24, -13, -22, -38, 33, -3, 18, 0, -11, -31, 25, -5, 5, 43, 13, 4, -24, -15, -27, -39, 32, 20, -22, 7, -11, -37, 21, -13, 6, 28, 35, 7, -19, -19, -21, -37, 36, 5, 5, -4, -22, -61, 19, -8, 7, 26, 7, 8, -18, -21, -19, -31, 42, 46, -6, 7, -11, -62, 34, -8, 4, 19, 42, 6, -25, -27, -12, -29, 28, 15, 20, -9, -18, -59, 53, 10, -6, 24, 4, 18, -24, -31, -29, -25, 37, 18, -20, 33, 3, -47, 44, 17, 0, 17, 51, 18, -25, -31, -19, -13, 29, 5, 1, 4, 4, -30, 55, -38, -5, 49, 11, 11, -20, -16, -14, -33, 14, 36, 1, -47, -23, -73, -122, 6, 10, 32, 33, 23, -24, -24, -34, -36, 38, 41, -10, -23, 5, -47, 9, 37, -7, 40, 28, 16, -24, -32, -39, -32, 43, 85, -24, 11, 34, -72, 17, 10, 0, 37, 61, 18, -20, -20, -24, -30, 40, 55, 4, -6, 8, -81, 27, 20, -7, 41, 32, 17, -17, -24, -36, -32, 37, 57, -24, 27, 7, -54, 37, 18, -61, 50, 85, 31, -32, -24, -28, -15, 38, 74, -1, -37, 15, -112, 15, 13, -24, 55, 1, 34, -23, -22, -42, -19, 40, 36, -33, 16, 7, -51, 48, -35, -34, 44, 30, 4, -29, -14, -30, -7, 17, 31, -9, -68, -38, -16, 43, -33, 20, 41, 27, -6, -35, 15, 38, -24, 14, -15, -27, 31, -67, -41, 36, -19, 30, 29, 30, 9, -32, 51, -85, -24, 16, 3, -11, 39, -48, -47, 36, -26, 23, 28, 23, 3, -42, 28, 37, -25, 18, -14, -22, 29, -48, -36, 24, -13, 28, 21, 36, 11, -36, 32, -95, -11, 24, 0, -23, 43, -30, -36, 26, -19, 24, 19, 31, 16, -42, 10, 37, -4, 22, -12, -12, 42, -26, -39, 22, -14, 25, 8, 32, 41, -34, -14, -98, 8, 21, 5, -26, 29, -30, -40, 17, -19, 17, 26, 37, 54, -43, -19, 33, 36, 21, -3, -20, 37, -34, -49, 12, -30, 15, 9, 26, -20, -32, -25, -102, 92, 23, -1, -26, 35, -60, -41, 21, -31, 24, 29, 16, 1, -31, 7, -79, -22, 22, 11, -26, 7, -62, -46, 27, -40, 23, 35, 10, -9, -37, 24, 38, -21, 17, 0, -21, 6, -61, -39, 31, -33, 25, 26, 21, -4, -31, 50, -96, -18, 29, 7, -11, 15, -47, -35, 22, -28, 25, 24, 29, -1, -40, 22, 39, -21, 28, -2, -22, 32, -41, -33, 22, -20, 28, 16, 31, 1, -34, -7, -98, -10, 27, 14, -19, 30, -32, -31, 21, -34, 26, 17, 22, 19, -39, -7, 44, -2, 25, 5, -26, 21, -43, -36, 13, -32, 29, 6, 13, 34, -32, -10, -100, 26, 24, 11, -20, 12, -49, -37, 20, -38, 21, 18, 32, 23, -39, -11, 39, 73, 18, -10, -9, 26, -67, -47, 23, -28, 19, 40, 17, 0, -36, 6, 36, -22, 21, 19, -23, 8, -60, -37, 26, -32, 24, 30, 19, -2, -31, 36, -99, -22, 30, 27, -18, -1, -51, -31, 30, -43, 24, 27, 14, -9, -39, 49, 43, -23, 30, 8, -35, 6, -57, -27, 24, -35, 27, 15, 38, 3, -33, 21, -106, -16, 33, 15, 2, 23, -42, -28, 21, -35, 23, 16, 33, 1, -39, 12, 42, -14, 32, 17, -45, 35, -47, -31, 14, -33, 28, 10, 23, 9, -35, -11, -108, 8, 32, 21, -5, 7, -44, -31, 21, -37, 22, -3, 27, 19, -38, -10, 39, 27, 26, 11, -24, 15, -53, -43, 29, -22, 24, 6, 27, 30, -33, -11, -98, 40, 30, 19, -15, 10, -44, -46, 36, -24, 19, 29, 17, 0, -34, 11, -92, -17, 30, 22, -30, 3, -37, -14, 20, -25, 18, 41, 24, -1, -36, 34, 36, -24, 31, 21, -15, 10, -47, -31, 22, -30, 22, 23, 24, 1, -31, 15, -100, -22, 36, 26, -41, 3, -40, -33, 21, -43, 22, 19, 34, 0, -38, 24, 38, -15, 35, 22, 6, 30, -54, -33, 13, -33, 25, 3, 49, 6, -32, 9, -106, -1, 38, 34, -49, 19, -43, -31, 21, -43, 23, 5, 27, 8, -40, 3, 37, -5, 33, 19, 1, 11, -50, -39, 29, -9, 21, 8, 38, 21, -32, -16, -106, 7, 33, 33, -29, 9, -28, -45, 38, -24, 17, 14, 18, 20, -41, -7, 43, 16, 27, 4, -4, 27, -44, -38, 30, -25, 14, 35, 18, -5, -37, 14, 44, -14, 26, 6, -20, -3, -36, -37, 28, -23, 19, 30, 37, 5, -32, 5, -99, -17, 34, 33, -35, 12, -35, -31, 20, -37, 14, 29, 30, 3, -34, 4, 38, -15, 35, 20, -15, 4, -46, -29, 7, -36, 14, 16, 29, 2, -26, 8, -113, -6, 38, 45, -42, 16, -43, -31, 20, -45, 15, 11, 51, -1, -33, 15, 40, -8, 36, 25, 3, 1, -55, -35, 28, -31, 18, 6, 20, 10, -27, 8, -104, -1, 40, 34, -30, 7, -41, -39, 35, -23, 18, 14, 32, 9, -39, 0, 40, -15, 31, 17, -5, 12, -43, -39, 34, -8, 19, 13, 13, 16, -33, -5, -99, -6, 34, 23, -24, 0, -28, -40, 29, -13, 12, 33, 32, 13, -30, -14, -101, -12, 32, 27, -28, 10, -19, -44, 30, -35, 14, 35, 20, 6, -37, -7, 47, -11, 31, 17, -36, 9, -42, -51, 4, -34, 10, 27, 30, 12, -32, -4, -113, 3, 35, 24, -9, 7, -43, -40, 9, -46, 10, 24, 24, -1, -30, 2, 49, -6, 32, 19, -39, -3, -53, -34, 18, -34, 11, 16, 26, -1, -27, 13, -116, -5, 37, 33, 0, -7, -54, -42, 38, -36, 5, 21, 20, 5, -31, 15, 49, -13, 33, 8, -36, 5, -59, -42, 25, -14, 15, 21, 42, 10, -32, 18, -111, -17, 33, 29, -15, 4, -34, -42, 37, -11, 13, 21, 7, 13, -37, 11, 39, -24, 31, 8, -18, 10, -27, -42, 28, -30, 18, 26, 20, -5, -48, -11, 52, -9, 21, -8, -21, 14, -36, -24, 2, -38, 15, 23, 28, 2, -38, -4, -117, 8, 27, 29, -28, 24, -41, -32, -2, -28, 18, 22, 35, 12, -39, -3, 57, 5, 32, 12, -7, 6, -41, -56, 10, -18, 15, 19, 25, 15, -32, -3, -114, 2, 33, 44, -35, 23, -35, -48, 25, -21, 8, 31, 25, 5, -41, 7, 56, -11, 31, 24, -22, 5, -39, -54, 20, -18, 9, 30, 7, -1, -28, 10, -125, -19, 35, 27, -38, 12, -38, -51, 30, -28, 10, 43, 27, -8, -43, 23, 63, -15, 26, 5, -14, 9, -58, -51, 20, -10, 16, 23, 13, -2, -36, 19, -116, -12, 27, 7, -30, 36, -27, -48, 33, -3, 20, 14, -3, 7, -31, 4, -93, 27, 23, 95, -43, 2, -31, -41, 2, -2, 18, 21, 29, 15, -39, 3, 22, 9, 33, 45, -29, -9, -18, -43, 9, -1, 19, 17, 21, 18, -31, -11, -119, 15, 36, 81, -25, 12, -9, -68, 11, 4, 9, 33, 28, 18, -40, -7, 31, -2, 33, 49, -43, 19, -13, -44, 16, -2, 17, 36, 37, 15, -35, 3, -108, -10, 37, 76, -42, 1, -17, -46, 23, 8, -2, 54, 22, -1, -42, 18, 10, -14, 31, 77, -36, -3, -11, -61, 18, -4, 19, 36, 8, -6, -37, 18, -101, -19, 33, 75, -45, -2, -15, -51, 26, -33, 21, 41, 34, -1, -42, 22, 42, -11, 20, 17, -31, -12, -52, -54, 17, -11, 46, 43, 51, 25, -71, -23, -47, -20, 44, 21, -24, 49, -44, -49, 13, -19, 44, 50, 50, 26, -67, -1, -42, -8, 46, 33, -25, 44, -40, -42, 27, -10, 45, 48, 43, 19, -66, -1, -49, -17, 45, 34, -21, 25, -26, -46, 36, -12, 45, 47, 21, 21, -69, -3, -44, -16, 42, 34, -43, 14, -29, -48, 41, -16, 44, 38, 23, 24, -70, -19, -47, -16, 42, 22, -16, 5, -29, -51, 42, -10, 41, 22, 42, 20, -70, -17, -46, -2, 47, 20, -20, 39, -25, -56, 42, -15, 41, 5, 43, -15, -75, -24, -50, 12, 49, 19, -25, 35, -29, -56, 40, -22, 47, 24, 30, -124, -72, -22, -45, 47, 45, 17, -24, 46, -52, -68, 39, -9, 45, 51, 61, 25, -70, -30, -43, -19, 48, 17, -18, 66, -21, -38, 18, -10, 44, 47, 50, 18, -70, -16, -49, -17, 48, 37, -32, 42, -14, -35, 26, -8, 46, 50, 38, 16, -68, -12, -45, -21, 50, 34, -20, 22, -10, -44, 34, -3, 47, 40, 24, 24, -66, -20, -46, -21, 47, 33, -50, 25, -9, -49, 45, -12, 47, 31, 30, 20, -71, -23, -43, -22, 48, 25, -8, 5, -15, -54, 46, -4, 43, 14, 35, 20, -70, -21, -51, -15, 50, 18, -33, 43, -4, -57, 45, -3, 42, -2, 44, 1, -72, -18, -43, -7, 50, 17, -13, 36, -10, -52, 44, -8, 42, -1, 43, -195, -66, -14, -49, 27, 50, 12, -34, 58, -16, -66, 41, -6, 42, 48, 51, 13, -73, -25, -46, -25, 45, 22, -24, 44, -17, -34, 27, -10, 44, 46, 40, 13, -70, -3, -47, -22, 47, 36, -25, 28, -21, -34, 30, -5, 44, 41, 35, 17, -68, -11, -52, -23, 50, 30, -23, 17, -11, -39, 33, 1, 45, 35, 29, 21, -70, -10, -47, -22, 50, 37, -47, 16, -13, -47, 40, -4, 45, 31, 24, 21, -74, -17, -54, -21, 50, 32, -11, 6, -20, -63, 42, 1, 45, 22, 27, 24, -71, -25, -44, -10, 51, 24, -35, 28, -8, -55, 41, 0, 44, 11, 29, 11, -73, -25, -49, -4, 50, 16, -24, 28, -16, -52, 45, -6, 43, 6, 33, -4, -70, -27, -48, 22, 51, 8, -29, 53, -23, -50, 44, -3, 46, 44, 39, 12, -73, -31, -47, -24, 48, 22, -27, 33, -34, -32, 35, -4, 45, 44, 38, 12, -74, -4, -56, -30, 50, 46, -38, 25, -24, -37, 31, -5, 47, 41, 32, 13, -70, 13, -49, -29, 53, 27, -38, 18, -22, -38, 31, -2, 50, 35, 26, 19, -70, -1, -60, -26, 53, 38, -43, 16, -13, -48, 40, -3, 47, 27, 33, 16, -73, -23, -47, -23, 51, 36, -32, 4, -12, -58, 44, 7, 50, 17, 17, 18, -71, -28, -55, -9, 53, 33, -36, 26, -9, -57, 50, 6, 47, 20, 39, 25, -76, -32, -49, 16, 52, 29, -30, 16, -20, -58, 45, 1, 48, 15, 21, 4, -72, -31, -49, 27, 51, 20, -36, 39, -20, -59, 42, 6, 47, 47, 35, 5, -74, -32, -55, -31, 53, 21, -26, 7, -30, -34, 53, 3, 45, 43, 43, 7, -73, 0, -53, -32, 54, 53, -38, 30, -19, -46, 34, 1, 47, 43, 35, 4, -69, 10, -57, -35, 57, 32, -23, -4, -18, -47, 35, 1, 47, 37, 31, 15, -68, -10, -47, -32, 57, 52, -49, 21, -9, -55, 40, 4, 46, 27, 37, 14, -71, -28, -62, -27, 57, 48, -11, 0, -5, -68, 49, 5, 47, 19, 12, 13, -70, -31, -44, -14, 59, 38, -36, 14, -9, -62, 48, 10, 46, 18, 48, 17, -73, -31, -58, 7, 55, 38, -19, 4, -14, -66, 53, 9, 45, 14, 13, 15, -73, -27, -44, 33, 57, 24, -31, 24, -23, -64, 53, 1, 45, 49, 33, -3, -69, -33, -44, -33, 59, 31, -22, -18, -23, -38, 66, 4, 41, 46, 46, 1, -66, -1, -56, -36, 55, 63, -34, 18, -16, -44, 42, -2, 39, 52, 41, 0, -66, 3, -46, -37, 64, 30, -15, -17, -14, -65, 34, 1, 39, 44, 34, 15, -64, -17, -60, -36, 61, 67, -45, 9, -3, -65, 44, 7, 39, 31, 53, 12, -66, -25, -40, -33, 58, 56, -2, -25, -1, -74, 51, 7, 39, 29, 18, 18, -63, -35, -59, -26, 63, 53, -40, 1, -1, -73, 49, 5, 39, 33, 62, 13, -72, -35, -44, -1, 56, 56, -12, -9, -12, -72, 51, 19, 41, 25, 5, 20, -68, -33, -56, 29, 62, 41, -29, -8, -15, -68, 54, -4, 35, 47, 28, -6, -67, -38, -48, -38, 64, 27, -18, -42, -22, -40, 59, 5, 31, 50, 47, -8, -63, -7, -49, -39, 63, 92, -37, -7, -5, -52, 41, -6, 32, 51, 44, -1, -61, -4, -50, -40, 67, 35, -19, -46, -18, -71, 36, 5, 31, 47, 24, 9, -59, -20, -44, -39, 66, 68, -33, -14, -6, -74, 47, 11, 34, 39, 43, 13, -64, -29, -57, -34, 65, 71, -12, -43, 5, -81, 54, 8, 29, 34, 11, 14, -65, -40, -43, -24, 66, 53, -31, -10, 0, -73, 53, 10, 37, 35, 72, 9, -70, -45, -55, -2, 61, 72, -16, -38, 6, -74, 55, 2, 31, 26, -2, 11, -66, -39, -47, 21, 67, 44, -26, -34, -18, -66, 54, -16, 35, 53, 20, -1, -64, -34, -41, -34, 58, 40, 1, -47, -33, -49, 66, -25, 30, 52, 32, -4, -67, -12, -61, -36, 56, 81, -25, 8, -41, -37, 42, -23, 29, 55, 21, -8, -63, -7, -39, -38, 58, 38, 11, -47, -40, -73, 23, -43, 29, 51, 10, 5, -63, -20, -57, -38, 56, 64, -33, -20, -52, -66, 34, -38, 31, 53, 27, 9, -68, -28, -42, -32, 55, 69, 24, -48, -49, -79, 39, -28, 31, 53, 4, 9, -56, -37, -60, -27, 60, 55, -30, -25, -37, -78, 33, -32, 36, 48, 46, 12, -74, -36, -40, -10, 54, 59, 8, -20, -45, -59, 35, -17, 29, 44, -3, 18, -59, -38, -60, 0, 60, 43, -26, -23, -29, -61, 42, -15, 108, 92, 56, 57, -140, -33, -82, -46, 89, 75, -54, 43, -38, -103, 65, -18, 109, 86, 50, 60, -133, -43, -94, -52, 92, 77, -59, 36, -29, -103, 63, -18, 110, 85, 42, 56, -134, -48, -78, -61, 92, 63, -57, 36, -25, -96, 67, -13, 111, 79, 30, 51, -130, -46, -95, -68, 83, 68, -58, 30, -39, -90, 80, -17, 105, 76, 43, 58, -130, -45, -84, -42, 88, 59, -53, 25, -35, -95, 72, -11, 104, 65, 44, 49, -127, -54, -96, -33, 96, 61, -59, 36, -27, -104, 69, -13, 97, 56, 55, 14, -136, -46, -81, -34, 97, 59, -55, 44, -31, -106, 78, -21, 103, 48, 40, -46, -137, -48, -100, -28, 101, 70, -62, 42, -35, -116, 68, -18, 108, 86, 49, 56, -130, -35, -90, -53, 96, 85, -57, 16, -42, -105, 69, -18, 108, 87, 46, 47, -131, -35, -82, -50, 94, 83, -63, 21, -38, -100, 63, -26, 109, 79, 39, 44, -124, -33, -93, -60, 95, 72, -52, 13, -44, -100, 70, -19, 109, 73, 30, 35, -122, -37, -81, -43, 92, 71, -56, 34, -45, -90, 74, -22, 109, 64, 46, 45, -120, -36, -98, -39, 99, 70, -59, 13, -45, -84, 74, -28, 106, 62, 30, 41, -119, -37, -82, -30, 96, 56, -62, 34, -50, -87, 66, -29, 105, 52, 45, 23, -118, -26, -96, -25, 102, 65, -53, 26, -46, -94, 69, -21, 105, 56, 48, -17, -133, -34, -81, -25, 100, 61, -57, 40, -41, -103, 64, -21, 106, 86, 45, 45, -132, -35, -81, -46, 97, 89, -58, 9, -46, -100, 70, -30, 109, 79, 38, 43, -125, -16, -96, -41, 97, 95, -54, -1, -58, -105, 66, -30, 107, 73, 29, 37, -124, -28, -81, -41, 104, 77, -64, 2, -57, -97, 63, -33, 110, 61, 35, 39, -122, -16, -102, -42, 104, 83, -51, 14, -56, -90, 71, -29, 109, 64, 38, 38, -121, -28, -81, -34, 105, 78, -62, 11, -54, -85, 73, -36, 107, 55, 24, 36, -119, -34, -99, -28, 109, 79, -58, 9, -57, -85, 71, -29, 107, 56, 34, 41, -120, -30, -84, -19, 103, 70, -60, 16, -61, -85, 72, -18, 103, 54, 42, 23, -127, -31, -95, -21, 105, 69, -60, 21, -48, -92, 82, -18, 107, 80, 43, 41, -129, -35, -97, -43, 97, 95, -65, 6, -47, -96, 75, -29, 106, 77, 43, 39, -126, -28, -84, -31, 105, 100, -62, -1, -58, -105, 61, -40, 107, 72, 33, 37, -123, -8, -101, -37, 111, 93, -66, -13, -67, -93, 62, -43, 107, 60, 31, 32, -122, -10, -87, -34, 113, 95, -55, 12, -60, -92, 68, -35, 109, 54, 47, 32, -118, -31, -101, -32, 115, 98, -74, -5, -53, -83, 74, -30, 107, 54, 27, 35, -121, -24, -82, -20, 113, 89, -60, 8, -60, -87, 75, -24, 105, 56, 40, 42, -119, -28, -97, -15, 109, 88, -61, 4, -53, -85, 81, -26, 105, 60, 33, 39, -123, -30, -85, -18, 109, 68, -59, 16, -48, -87, 81, -24, 105, 84, 36, 34, -126, -33, -84, -40, 107, 95, -60, -12, -53, -98, 79, -26, 107, 78, 47, 40, -128, -25, -98, -32, 111, 116, -64, -4, -52, -110, 61, -42, 104, 73, 33, 31, -126, -25, -81, -37, 118, 99, -60, -25, -55, -92, 64, -32, 105, 59, 33, 31, -118, -17, -105, -35, 116, 120, -63, -11, -51, -79, 71, -35, 106, 54, 34, 30, -118, -29, -84, -33, 121, 112, -60, -26, -45, -81, 72, -32, 107, 47, 12, 36, -115, -37, -96, -31, 122, 99, -60, -20, -45, -83, 78, -14, 103, 54, 33, 45, -123, -33, -87, -26, 113, 91, -59, 4, -46, -81, 90, -22, 102, 58, 29, 41, -123, -27, -91, -20, 109, 82, -63, -1, -43, -88, 84, -24, 101, 85, 37, 33, -129, -35, -97, -42, 110, 102, -50, -27, -47, -115, 94, -34, 104, 86, 39, 25, -131, -34, -81, -38, 113, 115, -62, -21, -54, -101, 67, -37, 100, 76, 40, 28, -128, -26, -104, -43, 119, 115, -55, -39, -56, -126, 59, -42, 105, 68, 19, 25, -123, -23, -78, -33, 122, 117, -66, -19, -58, -96, 70, -28, 105, 66, 44, 28, -120, -24, -104, -36, 121, 120, -53, -44, -48, -77, 74, -29, 96, 65, 21, 38, -121, -35, -82, -38, 120, 108, -58, -28, -52, -87, 81, -17, 100, 63, 32, 43, -122, -37, -95, -47, 118, 93, -62, -13, -43, -79, 81, -10, 95, 63, 23, 43, -121, -23, -84, -20, 114, 74, -67, -8, -42, -80, 89, -33, 100, 83, 28, 23, -127, -32, -82, -44, 111, 89, -57, -57, -48, -116, 85, -30, 101, 82, 33, 24, -131, -24, -102, -46, 120, 137, -59, -32, -47, -94, 59, -45, 103, 81, 35, 34, -126, -33, -81, -37, 121, 107, -52, -64, -52, -121, 59, -31, 100, 81, 20, 37, -116, -34, -105, -42, 120, 138, -68, -44, -50, -112, 74, -24, 103, 66, 49, 38, -123, -24, -76, -35, 123, 125, -51, -77, -49, -102, 71, -24, 98, 75, -4, 36, -117, -33, -95, -53, 120, 108, -63, -39, -42, -86, 83, -18, 100, 73, 46, 47, -121, -31, -77, -39, 117, 111, -54, -55, -47, -89, 92, -18, 99, 72, 13, 52, -125, -36, -97, -38, 115, 82, -64, -39, -41, -96, 94, -34, 97, 81, 42, 32, -125, -42, -101, -58, 111, 161, -47, -40, -37, -109, 68, -55, 98, 80, 36, 29, -126, -31, -92, -56, 121, 121, -63, -52, -61, -88, 54, -51, 98, 84, 24, 19, -125, -39, -98, -65, 125, 114, -60, -47, -64, -108, 63, -36, 97, 84, 30, 36, -120, -41, -92, -48, 123, 132, -52, -47, -59, -90, 80, -51, 93, 81, 30, 34, -118, -44, -90, -50, 125, 109, -50, -57, -56, -86, 73, -56, 87, 82, -11, 45, -121, -48, -82, -43, 126, 106, -71, -46, -78, -65, 77, -56, 97, 92, 25, 48, -122, -52, -92, -47, 121, 118, -52, -55, -53, -98, 80, -44, 91, 86, 59, 60, -121, -49, -89, -36, 114, 106, -63, -32, -38, -87, 92, -19, 20, -245, -45, -251, 29, 31, 11, -66, -8, 21, -2, -52, -34, 1, 1, 0, 18, -248, -33, -251, 26, 105, 21, -66, -4, 24, -6, -34, -17, 0, -7, 12, 19, -163, -22, -251, 9, 142, 13, -61, -3, 2, -2, -22, -13, 2, -4, 32, 20, -65, 0, -152, -2, 114, 22, -45, 4, 10, -3, 14, 10, 20, 3, 25, 26, -6, -19, -101, -5, 26, 25, -20, -4, 2, -10, -3, 27, 24, 1, 38, 24, 7, -17, 36, 8, -23, 25, 32, 4, 7, -11, 7, 29, 17, 7, 17, 20, 24, -10, 88, 22, -49, 16, 105, -5, 12, -6, -7, 1, 8, 9, -1, 18, 13, -26, 91, 31, -53, 31, 170, -3, 8, -10, -14, -28, 15, 5, 0, 20, -250, -37, -249, 26, 49, 20, -68, 0, 31, -1, -37, -18, 4, -8, -3, 21, -251, -23, -250, 14, 97, 11, -63, 0, 19, -5, -17, -30, 8, -13, 1, 23, -158, -1, -202, 8, 172, 14, -60, 10, 8, -9, -4, -34, 17, -7, 28, 24, -61, 2, -132, 3, 124, 14, -44, 12, 10, -7, 23, 19, 19, 0, 43, 27, -5, 15, -56, 3, 29, 8, -17, 16, 18, -16, 10, 50, 27, 6, 26, 25, 25, -18, -3, 9, -26, 13, 51, 3, 19, -8, 6, 17, 25, 9, 5, 25, 30, -9, 48, 19, -48, 18, 147, 3, 24, -10, -7, -15, 15, 12, 1, 18, 33, -19, 77, 20, -61, 12, 170, 1, 16, -1, -6, -24, 14, 9, 24, 22, -251, -30, -251, 11, 42, 5, -67, 3, 26, -15, -26, 5, 6, -9, 18, 22, -250, -6, -204, 9, 113, 6, -68, 10, 38, -2, 0, -14, 20, -9, 23, 23, -65, 6, -161, 4, 131, 11, -58, 13, 14, -15, 11, -3, 23, -7, 30, 24, -7, 17, -84, 1, 91, -1, -44, 18, 23, 9, 21, 26, 27, 4, 40, 24, 15, 28, -45, 1, 14, 10, -13, 15, 22, -15, 24, 60, 25, 8, 35, 20, 31, 9, -11, 1, -24, 1, 50, 12, 25, 7, 17, 30, 27, 14, 20, 20, 32, 10, 8, 10, -49, 9, 146, 5, 42, -16, 3, -7, 24, 20, 22, 18, 52, -9, 52, 13, -61, 14, 151, 7, 35, -6, -14, -11, 9, 18, 24, 19, -201, -29, -179, 6, 29, 7, -66, 14, 33, -9, -25, 21, -2, -9, 34, 17, -72, -9, -200, 7, 59, -3, -65, 14, 47, 4, 10, 19, 1, -14, 29, 15, -19, 18, -104, 6, 70, -4, -60, 16, 35, -1, 18, 27, 9, -4, 26, 16, 15, 32, -39, 0, 40, 10, -45, 16, 23, 25, 36, 47, 11, 3, 33, 13, 32, 44, -22, -2, -9, -8, -18, 15, 32, 4, 32, 64, 18, 15, 37, 16, 37, 31, -4, -2, -32, 2, 21, 11, 36, 31, 31, 48, 23, 24, 38, 10, 46, 36, 12, 3, -52, -2, 72, 10, 46, -9, 3, 31, 16, 22, 49, 11, 65, -1, 33, 2, -53, -1, 70, 7, 44, 6, 1, 37, 7, 26, 30, 5, -88, -26, -103, 12, 3, -1, -62, 20, 21, 5, 2, 51, -24, -16, 22, 5, -60, 0, -90, 10, -1, -8, -67, 19, 57, 21, 5, 43, -26, -17, 24, 1, 2, 14, -67, 10, 6, 2, -61, 15, 15, 49, 41, 39, -22, -11, 17, 5, 18, 69, -24, 8, -14, -13, -53, 20, 21, 39, 40, 56, -5, 7, 18, 2, 47, 52, -6, 3, -29, 4, -29, 15, 34, 80, 63, 64, 7, 23, 30, -1, 59, 65, 13, 7, -49, -9, -8, 12, 27, 28, 41, 64, 21, 31, 38, -2, 73, 37, 34, 6, -53, 2, 10, 10, 32, 41, 38, 58, 19, 40, 52, -5, 75, 30, 42, 2, -60, 4, -2, 8, 31, 21, 10, 67, 7, 28, 14, -1, -98, -12, -59, 23, -31, 4, -63, 24, -23, 19, -13, 36, -75, -13, 31, -154, -17, 40, -9, 33, -29, 7, -57, 24, -9, 9, 52, 44, -55, -16, 17, -157, -5, 64, -12, 20, -34, -12, -55, 24, -20, 93, 67, 36, -51, -17, 9, -163, 15, 85, -10, 24, -40, 7, -45, 24, -3, 63, 63, 38, -19, 13, 1, -21, 64, 73, -2, 31, -51, -16, -37, 21, 1, 163, 77, 28, -1, 35, 20, -19, 92, 67, 14, 17, -61, -2, -32, 19, 19, 47, 63, 56, 35, 46, 32, -26, 94, 62, 50, 13, -70, -18, -34, 14, 27, 88, 62, 67, 27, 46, 51, -19, 88, 5, 61, 10, -65, 4, -27, 14, 20, 11, 39, 74, 14, 31, 11, -145, -130, 8, -8, 28, -61, 25, -64, 27, 5, 18, 3, 18, -103, -27, 15, -152, -24, 67, -3, 38, -51, -21, -64, 24, -1, 30, 58, 21, -64, -24, 25, -136, -4, 46, 0, 31, -53, 25, -67, 27, -14, 191, 59, 30, -81, -16, 1, -141, 24, 67, 20, 38, -67, -17, -49, 26, -29, 94, 52, 19, -35, 27, -3, -129, 63, 69, 13, 36, -60, 8, -42, 24, 11, 224, 66, 14, 15, 46, 1, -127, 91, 66, 25, 44, -57, -12, -45, 28, -13, 80, 81, 21, 61, 57, 11, -137, 99, 91, 57, 49, -75, 4, -48, 10, 33, 113, 53, 14, 33, 52, 23, -147, 88, 39, 56, 26, -75, -15, -30, 20, -3, 32, 57, 52, 14, 22, 24, -60, -120, -26, 2, 20, -61, 97, -52, 12, 10, 38, -37, 9, -104, 1, -2, -72, -67, 40, 15, 43, -63, 28, -79, 23, -13, 42, 6, 8, -54, -21, 7, -87, -10, 47, 23, 42, -75, 34, -70, 19, 34, 134, 13, 11, -68, -15, -5, -130, 8, 34, 31, 32, -57, -16, -53, 21, -27, 169, 47, 4, -27, 17, -18, -140, 12, 59, 31, 41, -71, -5, -54, 19, -19, 180, 34, 1, 59, 40, -2, -57, 38, 54, 27, 41, -63, -7, -52, 25, -18, 188, 25, 8, 45, 48, 9, -67, 73, 49, 56, 41, -97, 26, -60, 15, 13, 103, 40, 12, 53, 33, 32, -74, 66, -3, 41, 47, -26, -36, -13, 10, -13, -29, 31, 18, 34, 39, -4, -2, 3, -3, 2, 1, -4, 3, -3, 4, 2, 4, 0, -4, 0, 1, -3, 2, -2, 3, -1, -3, -2, -4, -5, -4, 2, 0, 3, -4, 4, -4, -2, 3, 2, 3, -3, -1, -4, 4, -2, 3, -4, 0, 1, -1, 4, -2, 3, -3, 4, -3, 1, -4, -4, 1, 2, 3, -4, 0, 1, 2, 4, 3, 1, -4, 3, 1, 1, -3, 2, -4, 2, 1, 1, -2, 4, 0, 2, 4, 3, 0, 2, -2, -1, 0, 0, 0, 3, 4, 4, -1, -4, 4, -4, -4, -3, 4, -3, 0, -1, 3, 0, 4, -2, -1, -4, 2, -3, 4, -3, 0, -2, 3, 1, 4, 3, 0, -1, 2, -4, 1, -2, 0, 1, 1, 3, 3, 8, -7, -35, -22, -75, 0, -46, -16, 14, -181, -251, 9, -72, 94, 26, 2, 48, -10, -32, -10, -85, -16, -160, 47, 18, -137, -27, 1, -23, 148, 8, 2, 16, -5, -1, -11, -84, -7, -201, -22, 18, -140, -251, 19, -38, 69, 14, -15, 60, 1, 40, 17, -69, 0, -174, 32, 5, -4, -52, -9, 13, 72, -35, 3, 61, 12, 19, 25, -111, 18, -74, -18, -18, -157, -122, 48, -9, 67, -34, 1, 54, 8, 4, -101, 90, 21, -31, 58, -57, 9, -87, 7, -12, 57, -20, 2, 83, 3, 6, 36, 251, 5, 49, -9, -107, -191, -32, 1, 16, 125, -2, 18, 50, -10, -3, -101, 113, -9, -7, 42, -211, -3, -56, 7, -50, 155, 1, -2, 41, -4, -19, -39, -27, 5, -46, 7, 18, -3, -52, 11, -59, 117, 23, 4, 51, -7, -25, -18, -29, -6, -119, 13, 14, -9, -10, 8, -5, 162, 5, -3, 51, -2, -11, -40, -34, -8, -163, 23, 17, 4, -66, 10, -49, 101, 7, -9, 60, -6, 5, 7, -25, 1, -107, -3, 13, 4, -39, -9, 22, 76, -10, 2, 79, 1, 14, 21, -45, 14, -39, 32, -15, 3, -17, 20, -4, 85, -26, 15, 56, 1, -2, -46, -12, 11, 12, -2, -62, -1, -15, -25, -50, 65, -9, 11, 62, -6, -21, 9, 0, 7, 22, 23, -133, -4, 1, 15, -23, 109, -4, 14, 56, -11, -17, -49, 12, 2, -2, 24, -172, -1, -19, 0, -28, 122, 11, 1, 31, -6, -11, -35, -26, 8, -34, 10, 15, -1, -45, 12, -65, 72, 26, 16, 43, -10, -18, -8, -23, 1, -84, 20, 11, -4, 13, 4, -3, 94, 21, -1, 36, -7, -17, -11, -17, -1, -121, 2, 18, 4, -55, 2, -57, 65, 7, -6, 33, -10, -10, -9, -3, -1, -67, 24, 17, 6, -4, -9, 29, 42, 4, 0, 46, -7, -1, 46, -25, -1, -5, -13, -2, -3, -8, -1, -11, 42, -3, 5, 31, -7, -3, -58, -9, -1, 21, 22, -41, 3, -4, -9, -22, 34, 7, 8, 52, -9, -15, 28, 12, 1, 12, 4, -88, -7, 9, 14, -11, 76, 6, 10, 37, -11, -14, -53, 14, 7, 7, 16, -116, -2, -14, 7, -31, 67, 21, 2, 29, -7, -10, -35, -23, 7, -18, 6, 9, -2, -50, 11, -66, 43, 32, 55, 36, -9, -15, -14, -23, 4, -42, 10, 12, -8, 17, 7, 15, 46, 45, 14, 19, -9, -10, 11, -11, 0, -50, 14, 15, 7, -63, -3, -63, 30, 20, -9, 21, -10, -4, -34, -7, -3, -24, -9, 8, -4, 10, -15, 69, 32, 11, 0, 21, -6, -12, 82, -15, -5, 3, 16, 0, 1, -15, -6, -26, 26, -3, -3, 17, -10, -17, -93, -15, -2, 9, -2, -18, -2, -13, 2, 16, 27, -6, 0, 30, -8, -21, 58, -6, 4, 21, 16, -41, -12, 11, 10, -30, 35, 20, 5, 31, -8, -15, -70, 16, 8, 9, 18, -56, -5, -14, 13, -33, 44, 18, -1, 51, -8, -4, -29, -20, 5, -10, 6, 2, -2, -58, 7, -64, 49, 36, 124, 54, -10, -8, -12, -23, 2, -4, 13, 6, -7, 22, 11, 19, 49, 67, 50, 39, -8, -6, 33, -9, -1, -15, -5, 5, 5, -80, -10, -54, 39, 50, -12, 22, -8, -3, -52, -12, 0, -2, 10, 3, -8, 18, -21, 65, 22, -1, -9, 10, -3, -10, 91, -17, -6, 4, -1, 3, -9, -33, 3, -45, 17, -27, -14, 13, -9, -24, -123, -14, -2, 7, 22, -6, 1, -21, 5, 56, 22, -2, -9, 48, -11, -27, 86, 0, 3, 8, -1, -7, -15, 10, 2, -40, 47, 8, -4, 55, -9, -19, -85, 14, 7, 5, 14, -10, -4, -16, 13, -14, 44, 19, -4, 68, -4, -3, -36, -24, 6, -9, 8, -2, -5, -63, 13, -64, 55, 35, 178, 84, -7, -7, -13, -22, -1, -1, 7, -3, -7, 3, 10, 16, 70, 100, 94, 56, -2, 0, 18, -15, -1, -4, 11, -2, 0, -86, 3, -45, 48, 37, -6, 20, -6, 1, -63, -16, 3, 4, 11, 2, -13, -18, -27, 64, 20, -12, -7, -1, 0, -8, 71, -22, -2, 4, 10, 0, -10, -41, 9, -46, 10, -14, -16, 27, -10, -21, -84, -12, -3, 2, 0, -10, -5, -36, -7, 80, 36, -7, -12, 66, -9, -22, 74, -1, 4, 0, 11, -6, -13, 10, 8, -34, 59, 8, -5, 70, -5, -20, -82, 10, 10, 2, 13, -2, -7, -14, 11, -11, 52, 20, -3, -2, 2, 2, 2, 1, 3, -2, 1, -3, 4, 1, -3, 1, 0, -2, -4, 0, -1, 2, 0, -3, -4, -3, 4, 3, 2, 4, 2, -3, 4, -3, -2, 3, -3, -3, -3, -2, 2, 4, 4, 0, 3, -1, -4, 1, -3, 1, 1, 1, -4, 0, -4, 1, 0, -3, 3, -1, 0, 3, -4, 2, 0, -2, -4, 4, -1, -1, 3, 0, 4, 1, 2, -1, 4, -3, -4, -1, -1, -2, -4, 2, -3, 4, 2, -3, -2, -2, 2, 4, -1, 0, 0, -5, 5, 3, -3, 1, -3, -3, -3, 3, -2, 2, -4, 2, -1, -3, -4, -2, -3, -4, -5, -3, 0, -1, -3, 1, -2, 2, 1, 1, 0, -3, 2, 1, -2, 0, 4, 10, -28, 18, -62, 2, 10, 25, 21, 75, -36, 17, 15, -55, 22, -22, -16, -15, -47, -5, -70, -2, 20, -34, 17, 54, -49, 6, -2, -91, -5, 5, -37, -32, -47, -2, -81, -30, 20, 16, 37, 55, -47, -17, 40, -94, -30, 14, -36, -2, -45, 7, -55, -35, 15, 7, 18, 45, -46, -11, -19, -84, -3, 3, -41, -4, -44, 7, -45, -22, 8, 24, 31, 45, -36, -10, 28, -71, -2, 6, -35, -9, -47, 3, -65, -4, 20, 44, 24, 27, -43, -43, -9, -88, -17, -12, -24, -9, -43, -6, -78, -8, 14, 18, 42, 7, -45, -15, 11, -85, -5, 8, -33, 27, -26, 20, -37, 42, 15, 55, -13, -38, -31, 7, -34, -86, 27, 3, -21, 6, -34, -47, -57, 7, 12, -42, 1, 61, -33, 3, 23, -62, 13, 17, -17, 13, -37, -17, -56, -4, 13, -3, 30, 55, -37, -10, 6, -80, 11, 24, -24, 23, -35, -6, -57, -4, 12, 9, 18, 54, -32, 2, 3, -57, 25, 6, -30, 30, -35, 0, -43, -29, 8, 13, 34, 39, -33, -18, -4, -64, 28, 10, -31, 19, -35, 4, -51, -21, 11, 11, 16, 37, -35, 0, 1, -54, 20, 2, -33, 25, -36, 9, -22, 0, 10, 5, 21, 33, -33, 7, -14, -61, 25, 1, -42, -3, -36, -1, -67, 25, 19, 28, 11, 26, -38, 0, 22, -71, -1, 5, -33, 9, -38, 10, -41, -27, 10, 60, 37, 28, -34, -2, -10, -42, -2, 10, -28, 28, -32, -35, -46, 21, 7, -11, 30, 65, -31, -22, -5, -68, 28, 13, -6, 34, -35, -26, -44, 9, 6, -1, 19, 64, -28, 9, 38, -45, 29, 21, -24, 31, -33, -18, -40, -2, 9, -5, 17, 54, -35, -34, -19, -47, 36, 24, -34, 29, -31, -5, -39, 8, 7, 1, 28, 47, -32, -13, 20, -22, 27, 8, -36, 30, -31, 5, -27, -9, 11, 9, 13, 39, -37, -14, -26, -41, 30, 9, -43, 15, -32, 6, -57, -60, 5, 41, 26, 30, -35, -12, 29, -40, 7, 7, -37, 28, -37, -13, -17, -11, 9, 28, 14, 33, -38, -2, -38, -52, 23, 11, -38, 2, -38, 11, -58, -22, 7, 58, 13, 33, -33, -8, 28, -42, -7, 5, -35, 28, -33, -51, -39, 3, 14, -2, 14, 57, -33, -19, 7, -49, 29, 18, -14, 26, -27, -33, -41, 1, 8, -2, 25, 55, -36, -17, 28, -21, 21, 28, -19, 34, -29, -24, -31, 3, 9, 4, 29, 49, -36, -40, -12, -36, 29, 30, -26, 33, -30, -5, -53, -11, 0, 15, 22, 41, -40, -22, 26, -6, 22, 16, -30, 32, -25, -4, -15, -7, 3, 19, 28, 36, -42, -33, -29, -36, 23, 19, -35, 15, -31, 9, -47, -24, 1, 30, 20, 32, -40, -28, 31, -23, 12, 16, -37, 18, -28, -1, -26, -17, 9, 30, 19, 36, -39, -18, -26, -21, 15, 23, -32, 8, -34, 13, -34, -12, 8, 47, 22, 28, -32, -5, 20, -29, 10, 14, -35, 29, -28, -38, -48, -3, 13, 10, 30, 54, -31, -14, 31, -54, 27, 21, -4, 38, -27, -30, -32, -4, 11, 4, 21, 56, -38, -20, -13, -23, 36, 41, -12, 37, -28, -28, -31, -8, 8, 6, 19, 49, -36, -32, 22, -29, 29, 31, -21, 40, -25, -16, -42, -9, 8, 9, 29, 39, -41, -20, -32, -13, 29, 20, -25, 33, -28, -3, -22, -10, 4, 20, 22, 32, -40, -26, 25, -25, 19, 16, -31, 24, -23, -8, -41, -9, 8, 26, 27, 29, -40, -21, -23, -20, 26, 11, -34, 15, -29, 6, -31, -20, 6, 50, 29, 25, -40, -26, 20, -21, 11, 20, -34, 16, -28, -2, -38, -6, 14, 46, 5, 24, -37, -10, -32, -35, 13, 24, -33, 34, -26, -38, -42, -1, 15, 13, 12, 47, -33, -11, 30, -55, 26, 37, 30, 50, -29, -36, -27, -1, 19, 11, 24, 51, -35, -10, -13, -17, 41, 32, -2, 39, -27, -27, -34, -4, 13, 9, 20, 44, -31, -26, 41, -30, 32, 34, -16, 45, -27, -22, -32, -10, 14, 17, 21, 41, -38, -17, -47, -15, 33, 31, -23, 33, -26, -17, -26, -10, 5, 26, 21, 33, -37, -17, 52, -30, 19, 13, -27, 26, -29, -19, -21, -9, 16, 27, 21, 27, -34, -22, -35, -14, 24, 23, -31, 29, -28, -5, -12, -11, 14, 39, 10, 28, -35, -2, 33, -24, 22, 19, -31, 24, -27, -14, -44, -9, 20, 55, 18, 27, -33, -5, -30, -27, 11, 32, -31, 51, -28, -35, -45, -3, 17, 32, 16, 52, -31, -7, 14, -69, 32, 29, 37, 40, -32, -38, -46, -4, 19, 12, 16, 44, -37, 9, 3, -43, 30, 50, -7, 47, -26, -30, -21, -4, 20, 18, 20, 44, -34, -20, 3, -36, 34, 37, -3, 32, -27, -28, -44, -6, 18, 21, 16, 39, -35, -12, 12, -32, 28, 23, -18, 31, -26, -18, -25, -8, 16, 31, 23, 34, -35, -16, -5, -45, 21, 17, -25, 34, -31, -17, -37, -12, 16, 29, 11, 29, -32, -9, 1, -10, 26, 22, -26, 19, -26, -25, -29, -17, 19, 43, 21, 30, -37, -5, -5, -45, 6, 28, -33, 30, -30, -17, -37, -24, 16, 47, 6, 28, -34, -3, -17, -42, 11, 29, -31, 50, -27, -33, -37, 4, 16, 28, 3, 45, -26, 1, -3, -63, 33, 24, 55, 23, -26, -37, -53, -2, 17, 29, 13, 33, -33, -1, 21, -62, 17, 24, 25, 44, -28, -35, -25, -2, 22, 36, 13, 42, -35, -5, -16, -46, 28, 35, -1, 34, -27, -27, -46, -4, 22, 36, 15, 43, -32, -14, 29, -28, 14, 25, -25, 29, -28, -27, -29, -6, 26, 27, 9, 38, -34, -8, -25, -42, 15, 26, -30, 21, -27, -18, -34, -11, 20, 37, 11, 37, -34, -5, 27, -35, 9, 26, -29, 3, -27, -24, -43, -2, 15, 36, 8, 31, -32, 0, -18, -49, -1, 28, -35, 40, -31, -12, -40, -7, 20, 49, 13, 35, -25, 17, 14, -43, 17, 26, -17, 31, -35, -19, -42, 4, 25, 26, -1, 59, -30, -12, 29, -47, 27, -2, -15, 38, -36, -8, -40, -11, 25, 30, 47, 46, -46, -26, 28, -47, 27, 16, -28, 29, -37, -6, -40, -9, 23, 16, 9, 39, -37, -7, 15, -62, 19, 16, -24, 24, -42, -5, -54, -8, 23, 28, 41, 36, -50, -36, 32, -59, 17, 22, -23, 27, -36, -5, -42, -10, 22, 20, 7, 30, -37, -6, 12, -62, 20, 29, -12, 27, -45, 2, -61, 3, 23, 44, 42, 30, -48, -54, 23, -57, 20, 20, 5, 38, -34, -10, -29, -50, 21, 38, 17, 22, -36, -6, 11, -54, 28, 29, 3, 55, -27, 23, -31, -36, 30, 32, 43, 10, -44, -17, 8, -36, 46, -3, 3, 50, -29, -23, -31, -4, 21, 13, 40, 52, -36, -35, 17, -27, 54, 10, -17, 62, -35, -25, -28, 1, 22, -1, 4, 44, -22, 23, 3, -33, 66, 23, -26, 54, -33, -17, -36, -10, 18, 2, 39, 44, -40, -36, 23, -48, 59, 19, -27, 45, -34, -7, -44, -10, 20, 7, 11, 35, -33, 17, 1, -50, 40, 28, -17, 51, -38, 2, -46, -21, 20, 22, 42, 32, -46, -22, 33, -66, 48, 20, -12, 47, -37, -10, -39, -41, 27, 31, 9, 25, -27, 4, 7, -58, 45, 26, -2, 73, -36, 6, -17, 2, 18, 64, 31, 5, -41, -8, 22, -45, 67, 22, 10, 44, -29, 2, -40, -30, 25, 65, -11, 15, -24, 10, 17, -48, 32, 15, -13, 35, -31, -33, -42, -4, 28, 6, 5, 49, -29, -7, 13, -45, 28, 23, -21, 51, -33, -26, -16, 2, 18, 9, 33, 45, -38, -34, 25, -11, 55, 27, -28, 61, -32, -27, -32, -2, 18, 12, 7, 47, -25, -5, 12, -41, 52, 28, -21, 67, -35, -18, -40, -4, 15, 12, 41, 41, -39, -30, 7, -34, 59, 23, -15, 61, -37, -4, -35, -14, 14, 16, 10, 30, -28, 4, 4, -50, 51, 20, -10, 68, -39, 1, -22, -20, 14, 28, 44, 22, -42, -29, 22, -37, 60, 18, -10, 46, -34, -6, -27, -37, 20, 48, 9, 20, -27, 6, 4, -32, 38, 33, -19, 36, -36, 2, -30, -32, 21, 45, 45, 34, -40, -23, 23, -38, 27, 15, -25, 51, -35, -20, -35, -1, 23, 9, 36, 47, -37, -31, 24, -41, 50, 25, -17, 43, -30, -25, -22, -13, 18, 9, 6, 44, -29, -5, 12, -26, 37, 36, -21, 58, -34, -21, -25, -9, 13, 18, 41, 39, -40, -45, 19, -29, 55, 34, -11, 63, -32, -10, -31, -26, 10, 15, 8, 35, -29, -8, 3, -14, 52, 23, -11, 73, -30, -4, -14, -14, 9, 16, 46, 21, -43, -45, 11, -21, 63, 22, -13, 57, -31, -9, -36, -15, 15, 22, 7, 16, -32, -2, 9, -28, 51, 22, -18, 41, -32, -6, -21, -4, 15, 27, 43, 23, -44, -29, 12, -21, 42, 30, -25, 33, -35, -6, -30, -1, 22, 40, 2, 28, -28, 5, 2, -48, 33, 23, -23, 55, -32, -26, -16, -2, 18, 19, -1, 45, -26, 4, 14, -46, 51, 31, 7, 57, -34, -15, -32, -21, 19, 21, 40, 40, -42, -29, 24, -24, 49, 40, -2, 50, -31, -12, -14, -21, 17, 13, 0, 34, -28, -21, 2, -26, 44, 38, -12, 73, -30, -3, -36, -24, 11, 17, 47, 26, -43, -34, 7, 21, 72, 23, -5, 59, -26, -9, 9, -11, 12, 18, 5, 21, -29, -19, 5, -30, 50, 22, -23, 57, -29, -22, -25, -3, 13, 13, 41, 22, -42, -31, 16, -11, 49, 21, -27, 35, -28, -16, -23, -4, 23, 23, 5, 27, -30, -3, 1, -40, 33, 28, -26, 52, -34, -4, -14, 0, 18, 40, 41, 25, -43, -11, 26, -21, 45, 27, -22, 60, -33, -15, -28, -8, 16, 31, 44, 42, -39, -20, 21, -31, 47, 31, 48, 67, -34, -14, -6, -23, 22, 21, -2, 34, -25, -1, 13, -18, 52, 36, 6, 75, -32, -9, -11, -20, 19, 20, 41, 26, -39, -38, 26, 10, 65, 39, -8, 58, -30, -10, -17, -20, 21, 23, 5, 20, -29, -6, -8, -13, 50, 30, -18, 45, -32, -18, -13, -11, 19, 19, 34, 28, -44, -39, 34, -12, 44, 20, -25, 54, -29, -30, -9, -4, 19, 15, 6, 26, -23, -18, 2, 2, 56, 22, -26, 64, -33, -30, 4, -3, 21, 14, 35, 32, -39, -22, 20, -7, 56, 29, -24, 53, -29, -22, -22, -12, 19, 20, -2, 29, -29, 8, 8, -30, 45, 33, -24, 75, -35, -12, -9, -20, 27, 28, -9, 33, -22, 10, 12, -42, 59, 36, 75, 72, -36, -6, -16, -7, 20, 31, 43, 23, -36, -22, 22, -14, 60, 38, 24, 66, -32, -7, -16, -25, 26, 27, 1, 23, -27, 6, 5, -19, 58, 42, -12, 41, -33, -11, -14, -7, 25, 21, 32, 27, -41, -37, 5, -32, 46, 28, -24, 32, -31, -27, -29, -8, 25, 20, 5, 30, -28, 0, 14, -26, 37, 22, -23, 47, -34, -36, 5, -7, 22, 20, 31, 32, -37, -28, 15, -4, 50, 23, -25, 54, -32, -33, -7, -1, 22, 7, -1, 34, -22, 0, 11, -13, 58, 26, -25, 73, -36, -31, -14, -9, 27, 27, 36, 35, -34, -3, 29, -18, 57, 37, -23, 74, -35, -6, -15, -14, 30, 31, 42, 27, -33, -4, 34, -25, 64, -41, 74, 58, -33, -7, -13, -24, 30, 33, -7, 23, -28, -2, 6, -41, 47, 27, 24, 42, -32, -16, -31, -10, 27, 27, 22, 23, -44, -21, 15, -42, 40, 34, -2, 41, -32, -21, -21, -12, 28, 28, 0, 32, -28, -6, 1, -43, 34, 29, -17, 38, -33, -30, -37, -10, 30, 30, 26, 37, -39, -29, 24, -19, 28, 31, -28, 25, -31, -32, -20, -15, 26, 16, 5, 31, -31, 7, 11, -52, 32, 35, -25, 46, -34, -31, -19, -13, 24, 28, 33, 45, -38, -26, 23, -2, 38, 43, -25, 74, -37, -32, 12, -17, 29, 19, -9, 43, -18, 14, 9, -40, 64, 27, -13, 53, -67, -22, -63, -27, 35, 31, 45, 53, -65, -46, 21, -69, 40, 23, 44, 62, -66, -11, -45, -34, 38, 73, 33, 57, -65, 119, 12, -39, 46, 40, 13, 49, -66, -13, -65, -30, 35, 49, 43, 51, -57, -34, 25, -55, 55, 11, -14, 51, -62, -11, -54, -26, 35, 40, 40, 49, -54, 70, -1, -53, 52, 18, -15, 48, -63, -3, -56, -27, 32, 29, 42, 50, -61, 49, 22, -61, 55, 8, -16, 43, -66, -3, -71, -14, 32, 35, 40, 44, -58, 12, 0, -54, 49, 5, -23, 54, -57, -14, -26, 3, 29, 35, 46, 43, -67, 9, 16, -43, 50, 14, -13, 47, -69, -9, -66, 19, 37, 36, 42, 69, -59, -19, 13, -55, 35, 10, -15, 55, -62, -37, -60, -28, 40, 48, 49, 67, -61, -43, 21, -61, 33, 23, 70, 42, -63, -23, -40, -28, 39, 60, 40, 73, -63, -44, 9, -43, 13, 43, 21, 38, -63, -22, -55, -29, 39, 54, 52, 74, -61, -49, 20, -51, 13, 24, -13, 32, -60, -18, -40, -27, 40, 43, 42, 71, -64, -43, 1, -36, 16, 26, -14, 26, -57, -9, -48, -31, 39, 45, 55, 64, -65, -40, 19, -44, 8, 21, -17, 24, -59, -9, -50, -35, 40, 62, 47, 58, -63, -35, 7, -52, 7, 28, -21, 34, -57, -16, -47, -33, 32, 62, 54, 56, -64, -38, 3, -42, 11, 26, -17, 49, -61, -9, -43, 6, 36, 62, 44, 71, -62, -37, 7, -50, 20, 13, -16, 58, -62, -30, -57, -20, 41, 46, 40, 65, -62, -41, 19, -54, 29, 28, 81, 42, -61, -24, -42, -21, 39, 60, 38, 67, -63, -34, 6, -34, 16, 49, 23, 38, -60, -18, -58, -22, 41, 55, 41, 67, -62, -47, 25, -44, 19, 34, -13, 27, -55, -9, -45, -22, 39, 48, 44, 61, -61, -42, -5, -40, 5, 35, -19, 26, -57, -2, -53, -24, 37, 50, 47, 60, -66, -40, 28, -41, 12, 29, -21, 26, -54, -2, -52, -25, 36, 53, 44, 56, -65, -40, 0, -52, 2, 27, -23, 35, -55, -1, -43, -22, 33, 54, 49, 62, -64, -33, 20, -31, 14, 26, -20, 42, -59, -3, -44, 9, 37, 61, 41, 76, -63, -36, 7, -47, 20, 24, -17, 48, -59, -34, -57, -23, 44, 45, 43, 65, -59, -50, 24, -51, 24, 28, 77, 46, -57, -31, -43, -26, 43, 46, 36, 67, -62, -43, 12, -20, 24, 44, 27, 40, -57, -27, -47, -23, 43, 46, 42, 64, -60, -55, 30, -35, 18, 39, -8, 29, -55, -23, -43, -24, 40, 39, 35, 58, -62, -53, 2, -22, 13, 36, -20, 26, -49, -8, -31, -26, 39, 44, 44, 53, -61, -50, 18, -24, 10, 35, -20, 30, -52, -4, -49, -14, 39, 50, 43, 48, -63, -46, 9, -24, 14, 27, -20, 37, -54, -1, -30, -23, 40, 60, 42, 51, -63, -35, 20, -23, 12, 33, -17, 47, -61, -1, -42, 11, 41, 54, 34, 63, -59, -38, 20, -32, 26, 33, -12, 53, -58, -38, -54, -22, 51, 38, 36, 60, -60, -51, 31, -51, 38, 26, 82, 46, -58, -36, -40, -20, 50, 37, 38, 62, -62, -41, 26, -19, 26, 35, 29, 45, -59, -32, -37, -20, 49, 32, 37, 62, -59, -64, 28, -25, 26, 36, -10, 33, -55, -31, -36, -24, 47, 28, 39, 53, -61, -55, 23, -1, 21, 35, -16, 31, -51, -15, -15, -21, 44, 34, 39, 45, -61, -54, 16, -10, 17, 41, -17, 30, -52, -5, -47, -16, 45, 48, 41, 39, -59, -46, 26, -5, 19, 32, -17, 36, -53, 2, -18, -13, 46, 53, 40, 42, -62, -37, 23, -23, 24, 37, -15, 40, -58, 1, -54, 2, 47, 53, 35, 43, -56, -40, 23, -34, 25, 36, -11, 37, -57, -37, -63, -22, 53, 32, 39, 58, -57, -55, 24, -62, 24, 11, 32, 46, -59, -36, -38, -15, 53, 33, 35, 62, -56, -43, 24, -28, 30, 17, 5, 32, -59, -35, -42, -19, 52, 28, 44, 54, -57, -62, 24, -36, 22, 35, -8, 28, -60, -33, -35, -21, 51, 28, 34, 50, -58, -48, 46, -6, 24, 36, -14, 29, -55, -17, -12, -28, 51, 31, 44, 41, -58, -40, 11, -22, 24, 37, -11, 29, -56, -3, -41, -22, 51, 44, 36, 35, -60, -48, 37, -19, 22, 47, -14, 32, -57, 9, -12, -21, 47, 48, 38, 37, -57, -31, 18, -28, 27, 36, -10, 39, -57, 6, -53, -7, 50, 45, 30, 29, -56, -37, 15, -51, 29, 40, -11, 37, -59, -47, -69, -24, 55, 22, 36, 54, -56, -56, 15, -72, 26, -17, 44, 39, -61, -40, -43, -19, 49, 25, 36, 62, -56, -37, 19, -30, 24, 5, 8, 32, -60, -37, -43, -22, 50, 20, 36, 50, -53, -63, 24, -38, 32, 27, -16, 30, -58, -41, -38, -24, 51, 21, 42, 46, -56, -42, 44, -3, 28, 43, -10, 34, -55, -26, -13, -26, 54, 25, 32, 34, -56, -45, 8, -13, 33, 63, -11, 29, -57, -8, -57, -27, 50, 37, 40, 30, -54, -43, 32, -16, 21, 54, -9, 32, -60, 5, -11, -27, 48, 55, 31, 31, -59, -29, 16, -35, 16, 46, -11, 44, -60, 8, -67, -11, 51, 49, 29, 22, -59, -38, 14, -64, 22, 42, -8, 32, -62, -35, -63, -22, 43, 27, 35, 50, -60, -47, 16, -63, 37, 8, 52, 52, -63, -37, -44, -17, 47, 27, 32, 54, -60, -33, 21, -32, 40, -17, 22, 35, -61, -38, -41, -14, 47, 22, 39, 50, -53, -64, 19, -44, 35, 17, -11, 39, -59, -32, -38, -17, 49, 25, 30, 46, -58, -39, 39, -7, 40, 37, -11, 38, -58, -23, -13, -9, 52, 27, 36, 39, -57, -41, 8, -21, 43, 47, -8, 35, -58, -9, -65, -19, 48, 39, 31, 35, -58, -57, 25, -4, 27, 51, -4, 48, -60, 10, 3, -22, 43, 44, 34, 27, -61, -23, 10, -47, 39, 40, 4, 51, -59, 0, -66, -6, 42, 39, 22, 10, -58, -30, 16, -55, 55, 28, -5, 57, -129, -1, -96, 70, 59, 73, 56, 99, -131, -90, 43, -108, 26, 42, -18, 72, -126, 10, -90, 80, -118, 75, 96, 87, -124, -80, 47, -76, 39, 63, -30, 67, -124, 24, -94, 76, 19, 66, 84, 89, -118, -83, 35, -76, 39, 52, -38, 71, -128, 45, -78, 80, 53, 74, 101, 96, -125, -65, 29, -64, 45, 50, -34, 82, -126, 63, -87, 73, 61, 72, 84, 88, -120, -60, 31, -71, 42, 40, -47, 78, -124, 74, -106, 58, -114, 66, 100, 79, -121, -40, 48, -84, 47, 45, -44, 69, -121, 69, -94, 9, -95, 59, 90, 67, -126, -59, 31, -89, 30, 45, -41, 60, -129, 93, -123, 51, -109, 59, 106, 73, -125, -75, 38, -97, 22, 62, -41, 83, -125, -13, -89, 78, 68, 98, 96, 91, -120, -75, 54, -72, 48, 51, -20, 80, -124, 9, -101, 68, 73, 100, 72, 86, -122, -68, 47, -87, 49, 66, -24, 86, -122, 24, -92, 66, 68, 80, 103, 88, -123, -82, 51, -87, 52, 64, -32, 75, -125, 47, -91, 66, 77, 65, 87, 93, -127, -78, 42, -91, 43, 53, -32, 78, -127, 67, -104, 57, 70, 76, 104, 96, -129, -80, 55, -88, 44, 60, -30, 67, -129, 80, -101, 43, 74, 93, 87, 80, -120, -57, 47, -107, 37, 60, -41, 61, -129, 72, -107, 14, 62, 78, 103, 77, -125, -63, 43, -119, 38, 57, -45, 59, -126, 77, -105, 17, 63, 85, 72, 101, -116, -56, 43, -91, 30, 65, -45, 72, -124, -13, -95, 69, 72, 87, 73, 92, -120, -70, 52, -75, 46, 59, -15, 80, -121, 3, -78, 89, 69, 95, 96, 97, -122, -75, 49, -57, 47, 65, -26, 83, -124, 14, -80, 90, 79, 98, 82, 95, -122, -81, 51, -79, 52, 65, -28, 90, -121, 31, -92, 82, 74, 79, 101, 97, -125, -71, 46, -80, 52, 67, -31, 78, -128, 59, -98, 68, 74, 80, 83, 88, -123, -75, 46, -99, 49, 60, -35, 68, -122, 80, -88, 31, 69, 81, 104, 90, -129, -77, 47, -82, 32, 59, -37, 57, -128, 72, -90, 22, 69, 93, 70, 96, -123, -65, 48, -82, 19, 69, -39, 62, -132, 74, -95, 32, 62, 98, 97, 108, -122, -72, 45, -95, 23, 70, -43, 72, -121, -7, -83, 68, 70, 98, 95, 100, -120, -69, 59, -77, 42, 58, -11, 78, -122, 0, -79, 54, 77, 88, 67, 102, -124, -75, 54, -69, 47, 72, -22, 82, -120, 8, -87, 57, 75, 82, 102, 88, -126, -86, 62, -69, 46, 71, -30, 84, -121, 26, -89, 54, 82, 78, 81, 90, -125, -80, 39, -75, 51, 72, -30, 81, -120, 48, -83, 48, 73, 81, 102, 88, -128, -90, 65, -71, 44, 63, -34, 75, -120, 58, -87, 39, 78, 78, 75, 87, -127, -81, 48, -70, 42, 72, -35, 61, -123, 60, -74, 33, 75, 100, 98, 84, -127, -78, 53, -69, 21, 78, -42, 77, -124, 65, -90, 47, 70, 99, 64, 93, -122, -61, 50, -79, 33, 76, -41, 65, -122, -3, -75, 48, 71, 92, 65, 94, -121, -66, 58, -80, 46, 65, -15, 77, -121, 2, -73, 54, 79, 88, 92, 97, -121, -72, 61, -66, 51, 66, -10, 83, -120, 14, -75, 37, 82, 81, 73, 87, -118, -76, 51, -68, 53, 75, -28, 86, -118, 26, -73, 31, 79, 76, 99, 86, -124, -87, 58, -49, 51, 73, -30, 75, -118, 30, -71, 37, 85, 80, 71, 86, -120, -81, 48, -61, 42, 75, -36, 74, -119, 38, -69, 36, 80, 83, 98, 84, -122, -77, 59, -68, 43, 76, -39, 73, -120, 45, -83, 29, 78, 93, 65, 79, -121, -70, 54, -69, 40, 84, -38, 70, -122, 60, -75, 33, 77, 92, 89, 85, -118, -64, 53, -73, 38, 82, -41, 59, -121, -1, -81, 54, 71, 90, 89, 91, -119, -64, 51, -82, 46, 46, -25, 74, -120, 9, -64, 42, 77, 91, 64, 94, -118, -67, 53, -68, 49, 63, -22, 68, -120, 17, -69, 34, 82, 80, 94, 94, -121, -75, 61, -56, 48, 73, -24, 69, -119, 22, -69, 33, 86, 80, 65, 87, -121, -64, 59, -60, 48, 79, -33, 63, -118, 25, -67, 32, 86, 81, 92, 86, -122, -72, 54, -62, 43, 78, -40, 68, -120, 31, -59, 33, 84, 90, 62, 78, -117, -68, 56, -61, 45, 81, -38, 69, -120, 37, -69, 29, 81, 91, 88, 81, -118, -57, 51, -60, 50, 91, -39, 58, -124, 52, -73, 26, 78, 95, 56, 82, -116, -50, 51, -84, 36, 89, -45, 52, -121, 6, -78, 46, 71, 92, 59, 86, -118, -68, 52, -95, 37, 24, -23, 57, -121, 16, -66, 43, 76, 87, 89, 93, -120, -62, 57, -71, 43, 39, -30, 52, -120, 16, -72, 38, 76, 82, 63, 88, -118, -65, 52, -72, 43, 68, -33, 49, -119, 15, -71, 28, 81, 83, 87, 88, -121, -62, 59, -67, 41, 83, -38, 53, -119, 19, -66, 35, 84, 83, 54, 86, -120, -61, 54, -72, 44, 88, -44, 55, -121, 25, -72, 35, 84, 92, 83, 80, -118, -58, 60, -59, 40, 96, -46, 67, -123, 34, -47, 18, 84, 104, 47, 74, -119, -46, 50, -74, 42, 95, -47, 54, -127, 50, -90, 18, 69, 90, 82, 71, -121, -48, 51, -87, 44, 99, -45, 43, -123, 13, -88, 35, 70, 93, 87, 83, -121, -69, 53, -99, 32, -1, -26, 43, -123, 15, -73, 36, 76, 88, 56, 86, -122, -51, 48, -87, 31, 33, -39, 37, -120, 21, -74, 35, 69, 79, 78, 91, -123, -70, 50, -88, 29, 71, -38, 28, -117, 15, -69, 33, 69, 82, 53, 81, -124, -59, 49, -78, 29, 76, -36, 41, -120, 18, -73, 33, 82, 87, 80, 81, -122, -58, 47, -79, 34, 89, -49, 34, -121, 24, -85, 32, 81, 92, 52, 82, -118, -59, 58, -77, 27, 104, -50, 35, -121, 37, -56, 19, 78, 87, 83, 69, -124, -53, 50, -84, 28, 114, -51, 41, -128, 47, -83, 21, 70, 77, 45, 68, -123, -42, 54, -106, 35, 97, -42, -17, -30, 19, 23, 81, 19, -185, 46, 13, 13, -36, 59, 12, 23, 51, 46, -21, -25, 10, 38, 111, 46, -129, -4, 19, 7, 100, 67, 91, 27, 42, -9, -22, -36, 27, 28, 84, 30, -103, 54, 19, 0, 75, 24, 53, 28, 11, -8, -13, -45, 12, 8, 54, 10, -86, -2, 8, 11, 41, 82, 77, 30, -11, -11, -5, -39, 2, 23, 23, 21, -59, 28, -20, -8, 49, 49, 94, 37, -25, -5, -18, -122, -24, -28, -33, 18, -38, -1, -21, 10, 11, 59, 98, 27, -19, -17, -20, -12, -13, 102, -64, 29, -10, 42, -49, -1, 29, 66, 94, 16, -26, -14, -5, -121, -22, 16, -107, 22, -34, -22, -24, 17, -72, 93, 112, 7, -29, 3, -32, -27, 20, 20, 108, 28, -150, 35, -5, 8, 13, 33, 35, 29, 45, 23, -14, -37, 15, 73, 109, 25, -94, -3, 51, -4, 99, 60, 103, 23, 55, 7, -25, -40, 19, 6, 81, 21, -101, 37, 53, -5, 2, 54, 49, 13, 29, -12, -16, -41, 13, -9, 87, 26, -85, 5, 15, -3, 63, 43, 41, 25, 4, -3, -12, -39, 1, 0, 46, 20, -56, 30, -4, -7, -8, 54, 72, 29, -29, -14, -15, -147, -21, -14, -2, 25, -42, 17, -20, 2, 7, 54, 78, 19, -26, -26, -15, -30, -32, 96, -192, 17, -24, 30, -42, -4, 11, 77, 40, 32, -25, -33, -22, -18, -36, -22, -120, 18, 7, -26, -42, 4, -51, 81, 129, -18, -27, -19, -25, -12, 15, 21, 75, 20, -102, 6, 23, 3, 61, 84, 15, 7, 73, -11, -24, -21, 13, 24, 86, 25, -75, 4, 59, -2, 12, 45, 54, -2, 67, -16, -14, -16, 11, 6, 71, 24, -60, 15, 43, -3, 37, 39, 32, 1, 44, -1, -16, -18, 2, -19, 66, 23, -60, 14, 18, -4, 4, 13, -5, 1, 14, -5, -4, -14, -2, -17, 43, 22, -37, 17, -1, -2, 18, 44, 23, 19, -20, -18, -15, -10, -28, 1, -3, 33, -18, 12, -13, -6, -19, 36, 23, -8, -32, -25, -19, -7, -49, 11, -43, 25, 0, 32, -17, 0, -22, 76, 55, -19, -20, -32, -24, -2, -44, -10, -76, 22, 58, 35, -24, 3, 1, 70, 48, -34, -17, -23, -36, 0, 11, 8, 51, 21, -74, 14, 36, -1, 41, 57, 26, -21, 91, -7, -14, 4, 13, 1, 44, 14, -67, 1, 30, -8, 35, 47, 31, -10, 77, 30, -12, 0, 12, -3, 51, 22, -57, 20, 35, -6, 20, 5, 24, 6, 40, -2, -15, 1, 4, -16, 57, 27, -42, 4, 20, -3, 19, 6, 20, -14, 2, -17, -9, 8, -10, -3, 38, 36, -22, 25, 2, -4, 3, -5, 5, -16, -24, -24, -7, 7, -24, -17, 8, 36, 7, 4, -11, 0, 4, 13, 24, -16, -26, -29, -8, 9, -38, 27, -9, 25, 43, 32, -18, 1, -1, 25, 34, -18, -27, -32, -19, 9, -32, 6, -28, 25, 67, 12, -26, 8, -10, 45, 50, -25, -28, -22, 6, 4, 10, 0, 33, 11, -63, -2, 29, 2, 32, 38, 15, 5, 114, 98, 9, 9, 11, -3, 29, 7, -49, 21, 41, -3, 10, 30, 28, 12, 95, 80, 7, 8, 6, 1, 31, 18, -38, -2, 33, -2, 2, 3, 5, 12, 17, 21, 2, 15, -1, -11, 29, 22, -24, 28, 26, -3, -6, -7, 43, -10, -9, -14, -7, 21, -9, 16, 19, 30, 3, 0, 9, 2, 0, -14, 15, -15, -18, -23, -3, 22, -12, -6, 11, 19, 33, 28, -5, 1, -3, 2, 33, -12, -39, -30, 9, 18, -25, 27, 4, 20, 51, -1, -15, 2, 4, -4, 19, 4, -35, -31, -2, 11, -9, 9, -7, 13, 61, 23, -17, 7, 2, 19, 19, -11, -41, -28, 33, 14, 7, 10, 7, 6, -32, 20, 30, 5, 20, 26, 15, 14, 152, 166, 56, 11, 1, 3, 9, 11, -30, -6, 36, 4, 10, 13, 18, 40, 128, 145, 40, 15, -6, 3, 10, 17, -21, 24, 35, 2, 0, 8, 11, 30, 1, 54, 12, 19, -9, -3, -2, 23, -2, -5, 24, 3, 1, -8, 17, 2, -11, -7, -2, 24, -12, -1, -4, 18, 17, 31, 11, 2, -6, -10, 22, -14, -33, -27, 8, 25, -9, 7, -1, 20, 38, -5, -1, 7, 1, -2, 22, 2, -33, -33, 43, 23, -6, 29, -9, 8, 50, 22, -8, 7, 2, 2, 15, 23, -34, -34, 38, 19, 11, 17, -15, 11, 49, -11, -9, 10, 7, -4, 10, 19, -38, -31, 80, 13, 12, 40, -9, 6, -5, -11, 28, 13, 25, 9, 51, 54, 171, 225, 94, 15, 4, 19, -11, 6, -9, 17, 24, 15, 25, 3, 15, 66, 161, 220, 68, 14, -3, 0, -11, 16, -3, -7, 24, 10, 31, 5, 3, 46, 16, 65, 20, 18, -4, -8, -3, 18, 9, 29, 21, 9, 21, -13, -25, 5, -25, -12, -9, 18, -8, -5, -7, 17, 22, -9, 14, 11, 18, 1, -14, -11, -38, -31, 8, 20, -8, 22, -17, 9, 34, 21, 2, 14, 12, -9, 1, 6, -37, -36, 53, 23, 2, 21, -25, 2, 35, -7, -6, 14, 11, 1, -1, 39, -31, -35, 59, 27, 14, 18, -26, -1, 37, 13, -4, 16, 12, 5, 10, 43, -29, -34, 111, 18, 17, 40, -6, 4, 12, 5, 20, 21, 38, 11, 19, 67, 41, 248, 73, 11, 13, 32, -9, 6, 21, -10, 22, 18, 35, 1, 21, 44, 78, 121, 40, 13, 10, 12, -7, 11, 21, 10, 23, 19, 61, 3, -9, 24, 27, 25, 6, 15, -5, -9, 0, 19, 24, -4, 21, 20, 48, -8, -42, -4, -20, -21, -3, 19, -3, 2, 7, 14, 32, 7, 16, 22, 53, 4, -23, -11, -29, -30, -11, 21, -4, 0, -12, 14, 35, -12, 11, 18, 35, -7, -38, -10, -33, -38, 25, 26, 4, 4, -20, -1, 37, 5, 6, 16, 27, 1, -17, 13, -27, -36, 60, 25, 19, 31, -16, 4, 38, -11, 10, 20, 25, -2, -9, 38, -29, -36
};

int FLIP[120];

#ifdef OPENBENCH
// Deterministic PRNG for openbench build consistency
uint32_t rng_32() {
    static uint64_t RNG_STATE = 0xcafef00dd15ea5e5;
    // Pcg32
    uint64_t old = RNG_STATE;
    RNG_STATE = old * 6364136223846793005ull + 0xa02bdbf7bb3c0a7ull;
    uint32_t xorshifted = ((old >> 18u) ^ old) >> 27u;
    uint32_t rot = old >> 59u;
    return (xorshifted >> rot) | (xorshifted << ((-rot) & 31));
}
uint64_t rng() {
    return (uint64_t) rng_32() << 32 | rng_32();
}
#endif

struct Zobrist {
    uint64_t pieces[25][SQUARE_SPAN];
    uint64_t ep[120];
    uint64_t castle_rights[4];
    uint64_t stm;
} ZOBRIST;

void init_tables() {
    int *ft_data = ft_raw;

    for (int c : {WHITE, BLACK}) {
        for (int p = PAWN; p <= KING; p++) {
            for (int rank = 0; rank < 8; rank++) {
                for (int file = 0; file < 8; file++) {
                    for (int i = 0; i < 16; i++) {
                        FT_WEIGHTS[c | p][rank*10+file][i] = *ft_data++;
                    }
                }
            }
        }
    }

    for (int r = 0; r < 120; r+=10) {
        for (int f = 0; f < 10; f++) {
            FLIP[r+f] = 110-r+f;
        }
    }

    // Zobrist keys
#ifdef OPENBENCH
    for (int i = 0; i < 25; i++) {
        for (int j = 0; j < SQUARE_SPAN; j++) {
            ZOBRIST.pieces[i][j] = rng();
        }
    }
    for (int i = 0; i < 120; i++) {
        ZOBRIST.ep[i] = rng();
    }
    ZOBRIST.castle_rights[0] = rng();
    ZOBRIST.castle_rights[1] = rng();
    ZOBRIST.castle_rights[2] = rng();
    ZOBRIST.castle_rights[3] = rng();
    ZOBRIST.stm = rng();
#else
    auto rng = fopen("/dev/urandom", "r");
    fread(&ZOBRIST, sizeof(ZOBRIST), 1, rng);
#endif
}
